{"ensemble": [{"bias_net": [{"w": [[0.25295475125312805, 0.40097618103027344, -0.014955325052142143, 0.11551494151353836, 0.029213370755314827, 0.08251895010471344, -1.1891485452651978, 0.42191073298454285, 0.04796485975384712, -0.12799674272537231, 0.03510628268122673, 0.05206387862563133], [0.060628149658441544, 0.0023435261100530624, 0.0348234586417675, -0.029747210443019867, 0.0807599350810051, 0.052268315106630325, -0.40511903166770935, 0.1546422690153122, -0.00168255262542516, 0.02545584924519062, -0.16866007447242737, 0.0311583224684], [0.0194582287222147, -0.006590285804122686, 0.004259591456502676, -0.01795991323888302, -0.02465926855802536, 0.0013803824549540877, 0.400847464799881, 0.27249234914779663, 0.24379988014698029, 0.41276729106903076, -0.01977894827723503, 0.029068993404507637], [0.026548659428954124, 0.6170185208320618, 0.010988252237439156, -0.022544020786881447, 0.03114273026585579, 0.003309774911031127, 0.07653507590293884, 0.7449419498443604, 0.02706964500248432, 0.038917578756809235, -0.009381905198097229, 0.006999666336923838], [0.0020430495496839285, -0.4328383803367615, -0.1779058575630188, -0.056467507034540176, -0.043926138430833817, 0.19509391486644745, 0.11673829704523087, 0.05046757310628891, 0.016797319054603577, 0.06460312008857727, -0.06830815970897675, -0.23808108270168304], [-0.04211045056581497, -0.17206136882305145, 0.0511823371052742, -0.0255151204764843, 0.11459065973758698, -0.10032790899276733, 0.4962739646434784, -0.10750702023506165, -0.15628787875175476, -0.02778247557580471, -0.051307037472724915, -0.07823432236909866], [0.38244491815567017, -0.3616403043270111, 0.014493556693196297, -0.03720540180802345, 0.006231944542378187, 0.166853129863739, 0.10878919064998627, 0.6787819266319275, -0.050041064620018005, -0.01955203153192997, 0.08656599372625351, 0.10712578892707825], [0.18866507709026337, -0.1483694463968277, 0.01824176125228405, -0.05981973931193352, -0.023672765120863914, -0.01076617743819952, -0.4327067732810974, -0.8195760250091553, -0.025435395538806915, 0.06214560940861702, 0.039584025740623474, -0.002093683462589979], [0.2035447061061859, -0.09029190242290497, -0.0011587381595745683, -0.08443160355091095, -0.07341477274894714, 0.18485456705093384, -0.5124098658561707, -0.7948884963989258, 0.06630901247262955, 0.030182555317878723, 0.008811979554593563, -0.07728389650583267], [-0.06633904576301575, -0.24350543320178986, 0.20956847071647644, -0.026701966300606728, 0.01976262591779232, -0.0462736040353775, -0.1909783035516739, -0.4002961218357086, 0.08410841971635818, -0.07982654869556427, -0.02291414514183998, 0.02063116617500782], [-0.022536082193255424, -0.06397552788257599, 0.01849212497472763, -0.10548142343759537, 0.03392434120178223, -0.031195679679512978, -0.43619149923324585, -0.9393631219863892, -0.004962241742759943, -0.0011520694242790341, 0.018415074795484543, 0.005852601956576109], [-0.12684045732021332, 0.09880432486534119, -0.037501487880945206, -0.07394696027040482, -0.4539615511894226, -0.06629278510808945, 0.9665857553482056, -0.23520714044570923, 0.021581321954727173, -0.053036026656627655, -0.059420760720968246, -0.05463714152574539], [-0.07489076256752014, -0.040772050619125366, 0.17673072218894958, 0.3358517289161682, 0.09078793227672577, -0.04889810457825661, 0.16994357109069824, -0.10468943417072296, 0.016368765383958817, 0.015821548178792, -0.02622981369495392, -0.05486065149307251], [0.04740706831216812, 0.14726650714874268, -0.009250675328075886, -0.13447041809558868, 0.06718506664037704, 0.058435067534446716, -0.41356465220451355, -0.7894359230995178, -0.0025856299325823784, -0.03296410292387009, 0.04779288172721863, 0.08874993026256561], [-0.0555725134909153, -0.06939548999071121, 0.051366087049245834, 0.02493690326809883, 0.030329516157507896, -0.046703092753887177, -0.5692684650421143, -0.18703120946884155, 0.001676485175266862, 0.05916139483451843, -0.02065580151975155, -0.25066158175468445], [0.17590272426605225, 0.5535081028938293, -0.05799945816397667, 0.029279345646500587, 0.010992476716637611, 0.04579932987689972, -0.19933538138866425, 0.2727150022983551, -0.030429070815443993, 0.023442210629582405, 0.03324059024453163, 0.0013807527720928192], [0.1104833334684372, 0.18859824538230896, 0.005955535918474197, -0.061100129038095474, -0.0401601567864418, -0.07119631767272949, 0.7492586970329285, 0.40218228101730347, -0.13148479163646698, -0.04854325205087662, 0.06303784251213074, 0.10175345838069916], [-0.00022302301658783108, 0.0034861722961068153, -0.024903755635023117, -0.1764325201511383, 0.002086061052978039, 0.03518030792474747, 1.0703531503677368, 0.3616487979888916, -0.033442266285419464, -0.029622163623571396, -0.02921127714216709, 0.018247129395604134], [-0.05354221910238266, 0.011526820249855518, 0.022496702149510384, -0.11349872499704361, 0.027157284319400787, 0.10326424241065979, -0.48889461159706116, -0.09915344417095184, -0.11100351065397263, 0.15795831382274628, 0.01640031673014164, -0.0941605418920517], [-0.3014371991157532, -0.183108389377594, -0.0539802722632885, 0.12470145523548126, -0.009112908504903316, 0.027064040303230286, 0.07626939564943314, 0.3904588222503662, -0.04386238381266594, 0.01122358813881874, -0.274039626121521, -0.5326062440872192], [0.045458581298589706, -0.38371357321739197, 0.01397077925503254, 0.023559078574180603, -0.007844729349017143, -0.06228905916213989, -0.6986359357833862, -0.7029219269752502, 0.10612283647060394, -0.05970464646816254, -0.029522720724344254, -0.002666054293513298], [0.042250264436006546, -0.08223725855350494, -0.06409923732280731, -0.12934131920337677, 0.03641244024038315, -0.04816102236509323, 0.03106389008462429, 0.2897135317325592, 0.1000426784157753, -0.12724819779396057, 0.08525027334690094, -0.04879136011004448], [-0.07736457139253616, 0.08426672220230103, 0.008188695646822453, 0.03370460495352745, 0.019389811903238297, -0.12181781232357025, 0.31505128741264343, -0.9264432191848755, -0.03297562524676323, -0.03482082113623619, -0.020595861598849297, -0.0015417954418808222], [-0.21391578018665314, 0.08633652329444885, 0.04389685019850731, -0.023426435887813568, -1.487320899963379, -0.035708263516426086, -0.794468104839325, -0.23751191794872284, -0.00972471758723259, 0.01342916302382946, -0.07265970855951309, -0.11810585111379623], [0.2146625816822052, 0.06502030789852142, -0.015006096102297306, 0.04646684229373932, 0.023996995761990547, -0.09143049269914627, 0.04025024548172951, -0.5461394786834717, 0.011365044862031937, -0.04822876304388046, 0.027938300743699074, 0.03894428163766861], [-0.28865015506744385, -0.15957237780094147, -0.021343210712075233, -0.006620578467845917, 0.04124636575579643, 0.24424812197685242, -0.10315821319818497, 0.14337089657783508, -0.045724548399448395, 0.0717063769698143, 0.17313793301582336, 0.21239615976810455], [-0.1743534505367279, 0.13364171981811523, 0.11918109655380249, 0.05719650536775589, 0.10925193876028061, 0.1256265640258789, 0.11612489074468613, -0.03738540783524513, -0.08135814964771271, -0.0046351635828614235, -0.03460368514060974, -0.0526919923722744], [-0.14354297518730164, -0.3998940587043762, -0.012664373964071274, -0.0030567648354917765, 0.035302113741636276, -0.09052173793315887, 0.30164834856987, -0.17291031777858734, -0.03693986311554909, 0.01859136112034321, 0.1686849147081375, -0.1192656084895134], [-0.004266567528247833, 0.055584944784641266, -0.019247189164161682, 0.02455606311559677, -0.25135618448257446, -0.07439406961202621, -0.2633861303329468, -0.15886791050434113, -0.4588570296764374, -0.22597146034240723, 0.005854346789419651, -0.09785757958889008], [-0.2721932530403137, 0.13857367634773254, -0.019714204594492912, -0.021570920944213867, 0.009227017872035503, 0.12356602400541306, -0.8550580739974976, -0.02050427719950676, 0.03154633194208145, -0.03741668164730072, -0.04773711785674095, -0.027858881279826164], [0.0003272096801083535, -0.21838128566741943, -0.19625526666641235, 0.011780250817537308, 0.059302814304828644, 0.012741141021251678, 0.224079892039299, -0.5743991136550903, 0.002541582565754652, -0.020060040056705475, -0.0065879859030246735, 0.06105105206370354], [-0.11428730934858322, -0.025060825049877167, -0.013620891608297825, 0.010268360376358032, 0.008452479727566242, 0.1316249519586563, -0.223154217004776, -0.14785638451576233, 0.14842265844345093, -0.002523488365113735, 0.057786960154771805, 0.11405511200428009], [-0.014069357886910439, 0.3724455237388611, -0.033728912472724915, -0.02435586228966713, 0.08080675452947617, -0.15180043876171112, -0.025640731677412987, -0.2724948525428772, 0.03464924916625023, 0.12488168478012085, -0.03560946136713028, -0.0969567745923996], [-0.27304893732070923, -0.09524748474359512, 0.05883249640464783, 0.014031892642378807, 0.05109837278723717, -0.04568641632795334, -0.26223239302635193, 0.46023067831993103, 0.004709512460976839, -0.055125702172517776, -0.15566813945770264, -0.23201943933963776], [-0.09983447939157486, 0.20461922883987427, 0.0006535330321639776, -0.1120888739824295, 0.13167810440063477, 0.021997155621647835, 0.43369024991989136, -0.09866592288017273, 0.11205614358186722, -0.0016528976848348975, -0.08318278193473816, -0.18734660744667053], [0.018210342153906822, -0.013820543885231018, -0.1935138702392578, 0.0580628402531147, 0.17098180949687958, 0.07865526527166367, -0.22278611361980438, -0.3034686744213104, -0.041266150772571564, 0.07235631346702576, 0.009287097491323948, -0.13709595799446106], [-0.020319662988185883, -0.0443040207028389, -0.08921274542808533, 0.14314046502113342, 0.05675610154867172, -0.07484648376703262, -0.11768586188554764, -0.046539194881916046, -0.18996065855026245, 0.3571668565273285, -0.0019729577470570803, -0.10123512893915176], [0.04939481243491173, -0.12122059613466263, -0.17967428267002106, 0.1334093064069748, 0.09800512343645096, -0.08099053800106049, 0.278510183095932, -0.14191076159477234, -0.22317585349082947, 0.08876298367977142, 0.022412246093153954, -0.059417784214019775], [0.02899947203695774, 0.394487202167511, 0.05636366456747055, -0.01179260853677988, -0.017719322815537453, 0.05532450973987579, 0.14860031008720398, -0.12607574462890625, -0.027621187269687653, 0.004832652863115072, -0.0435786247253418, -0.18458054959774017], [0.28874272108078003, 0.1947692483663559, 0.1726800799369812, 0.18582315742969513, 0.040494952350854874, -0.040264204144477844, -0.03871249780058861, 0.4239081144332886, -0.04269207641482353, -0.07222022861242294, 0.017895612865686417, 0.0467933714389801], [0.23239390552043915, -0.05307219550013542, 0.03606456518173218, 0.04142915830016136, 0.1304023563861847, -0.026020929217338562, 0.5315390825271606, 0.16129525005817413, 0.012510872446000576, 0.02143549919128418, 0.10472379624843597, 0.17478801310062408], [0.03261640667915344, 0.6140948534011841, -0.014448096044361591, -0.015355910174548626, -0.0057016778737306595, 0.18981771171092987, -0.31680652499198914, -0.10130788385868073, 0.02364484965801239, -0.038851846009492874, -0.011583471670746803, 0.008213797584176064], [0.0030480017885565758, 0.18996979296207428, -0.007243068423122168, 0.02213750034570694, 0.021212512627243996, 0.043277617543935776, 0.784915030002594, -0.8709912896156311, 0.03271804749965668, -0.015629900619387627, -0.025916924700140953, -0.07721902430057526], [0.010993951000273228, -0.24086415767669678, 0.13897860050201416, 0.11514873057603836, 0.004653956275433302, 0.01911827176809311, 0.42080026865005493, 1.006820559501648, -0.012110159732401371, -0.04004014655947685, -0.04095713794231415, -0.0228690467774868], [0.02732214890420437, -0.010900705121457577, -0.08057244122028351, -0.025468653067946434, 0.024798309430480003, 0.2110181748867035, 0.49882519245147705, -0.043031562119722366, -0.057470981031656265, 0.031959645450115204, 0.045715756714344025, 0.07904893159866333], [-0.14123006165027618, 0.1631043255329132, -0.022170495241880417, 0.0579492524266243, 0.15911930799484253, -0.08565588295459747, -0.11376268416643143, 0.3188903033733368, 0.1146588921546936, -0.040332451462745667, -0.07862336933612823, -0.0066584995947778225], [-0.028580129146575928, 0.08088880777359009, -0.00290926662273705, -0.021534325554966927, -0.01148407906293869, 0.00540217524394393, 0.4204428493976593, 0.893089234828949, 0.012525091879069805, 0.03499766066670418, -0.028164053335785866, -0.12971214950084686], [-0.22201859951019287, -0.22519806027412415, -0.0406159870326519, -0.04032621905207634, -0.22137926518917084, -0.18930615484714508, -0.14832043647766113, -0.5891275405883789, -0.031737733632326126, 0.01727147586643696, -0.05475730821490288, 0.12474668025970459], [-0.029298832640051842, 0.09243777394294739, -0.09756165742874146, -0.033006686717271805, 0.10122320055961609, -0.1911788433790207, 0.028360478579998016, 0.5667067170143127, 0.035408418625593185, -0.05400586873292923, -0.06996861100196838, 0.09981827437877655], [0.005936105269938707, -0.03486059978604317, 0.006763224024325609, 0.019584553316235542, -0.08737749606370926, -0.034976132214069366, -0.7466434240341187, -0.49988481402397156, 0.02851918339729309, -0.10628509521484375, -0.0065203397534787655, -0.07039907574653625], [-0.10706661641597748, 0.13180384039878845, -0.20087343454360962, -0.030784670263528824, -0.19293014705181122, -0.11189189553260803, -0.6735391616821289, -0.4904114007949829, 0.06787912547588348, -0.04099719971418381, -0.024237489327788353, 0.004104135558009148], [-0.1214512512087822, 0.20390665531158447, 0.11584648489952087, -0.0180948656052351, -0.015459439717233181, -0.12250132113695145, 0.07832465320825577, 0.6866435408592224, 0.03475654870271683, -0.031144827604293823, -0.04098549112677574, -0.006830159574747086], [0.015985870733857155, 0.0768795907497406, 0.02519500069320202, 0.018253831192851067, 0.00415557948872447, -0.01638220064342022, -1.1641079187393188, -0.35417819023132324, -0.007271616719663143, -0.0048652831465005875, 0.0049457005225121975, 0.0023832640144973993], [-0.17556226253509521, -0.11326496303081512, -0.002072010189294815, 0.10018590837717056, 0.054169874638319016, -0.05452803149819374, 0.2205558568239212, 0.34407907724380493, -0.13607990741729736, -0.004502543713897467, -0.026362566277384758, 0.02490304596722126], [0.008586433716118336, -0.19906967878341675, 0.3583717942237854, -0.04340853914618492, 0.0764583945274353, 4.687146883952664e-06, 0.20182256400585175, 0.14924535155296326, 0.0035218652337789536, -0.04535548761487007, -0.012535681016743183, 0.03025350533425808], [-0.10730496048927307, -0.05397624894976616, -0.19694438576698303, 0.1318952888250351, 0.07999088615179062, -0.009459534659981728, 0.4466937482357025, -0.16404978930950165, 0.10098934173583984, -0.09530248492956161, -0.0913233757019043, -0.09540221095085144], [0.20438499748706818, -0.130281001329422, -0.04103946313261986, 0.048090994358062744, -0.0053978110663592815, 0.010289853438735008, -0.4667590856552124, 0.1110684871673584, 0.03820345550775528, 0.013139299117028713, -0.052780888974666595, -0.01098483894020319], [-0.1053939163684845, 0.003389475168660283, -0.08174402266740799, -0.012524919584393501, -0.022573472931981087, 0.00676189549267292, 0.6194552183151245, 1.2912534475326538, 0.012894749641418457, 0.002609558869153261, -0.020382752642035484, -0.05943511053919792], [0.22254963219165802, 0.16386176645755768, -0.07341046631336212, 0.17902815341949463, 0.06990726292133331, -0.06877108663320541, -0.18440832197666168, -0.2578774094581604, 0.08285754173994064, -0.11914501339197159, 0.047616396099328995, 0.09525015205144882], [-0.05395286902785301, -0.21313315629959106, 0.00328344339504838, 0.008995805867016315, 0.001380606205202639, -0.12392382323741913, 0.1721733808517456, 0.1784306913614273, 0.03296945244073868, -0.6754453182220459, -0.0826265960931778, 0.02573271282017231], [-0.040345873683691025, 0.07299932092428207, 0.10178320109844208, 0.09984628111124039, 0.06622227281332016, 0.02578720450401306, -0.031024882569909096, -0.766499400138855, 0.04799836874008179, 0.04610616713762283, -0.021409446373581886, -0.04006357118487358], [-0.16341644525527954, 0.029128726571798325, 0.01648678258061409, 0.1711333692073822, -0.4390711188316345, -0.09080921858549118, 0.17201171815395355, 0.06026444211602211, -0.03021286055445671, -0.026862965896725655, -0.022998960688710213, 0.19552719593048096], [-0.15968956053256989, -0.029694639146327972, 0.03157365322113037, 0.006419781129807234, -0.03468596562743187, -0.004754158202558756, 0.48582693934440613, 0.1894138604402542, 0.010928359813988209, 0.05244030803442001, 0.19737555086612701, -0.16355553269386292], [0.02287617139518261, -0.009236552752554417, 0.012136892415583134, 0.0004092575691174716, -0.6264635324478149, -0.015117032453417778, 0.23627066612243652, -0.2723408043384552, -0.48456260561943054, 0.3440711498260498, -0.0003931007522623986, -0.036669954657554626]], "b": [0.37919360399246216, 0.3363040089607239, -0.13107843697071075, -0.023332811892032623, -0.049020372331142426, -0.1780935674905777, 0.26069021224975586, -0.3474106192588806, -0.303767591714859, -0.054321419447660446, -0.31359562277793884, -0.5004297494888306, 0.029457826167345047, -0.15963898599147797, 0.2145998179912567, 0.08265626430511475, -0.15588130056858063, -0.2387535274028778, 0.3346509635448456, -0.24157190322875977, -0.21609348058700562, 0.36474207043647766, -0.5379862189292908, 0.271895170211792, -0.3031594455242157, -0.4529545307159424, 0.07419459521770477, -0.2459583580493927, -0.16342148184776306, 0.09909377992153168, -0.3537668287754059, 0.17134124040603638, -0.15491236746311188, 0.38332781195640564, -0.5537242889404297, 0.05533336102962494, -0.12144603580236435, -0.33234867453575134, -0.14188770949840546, 0.10642439872026443, 0.1738671511411667, -0.3484068214893341, -0.5439249277114868, 0.41482481360435486, -0.14323797821998596, 0.25624343752861023, 0.29004335403442383, -0.3803979158401489, 0.30194947123527527, 0.148084357380867, -0.05506577715277672, 0.32019421458244324, 0.3044925332069397, 0.2952622175216675, -0.2296988070011139, -0.289824515581131, 0.24647954106330872, 0.5407696962356567, 0.11049912124872208, -0.36925557255744934, -0.3237784206867218, -0.08815152943134308, -0.0910414457321167, -0.28625982999801636]}, {"w": [[-0.02642151527106762, -0.06163094565272331, -0.2156796157360077, 0.18589764833450317, -0.12532351911067963, 0.027809180319309235, 0.07300204783678055, -0.030650056898593903, -0.0791415423154831, -0.10368331521749496, -0.1819450855255127, -0.11928132176399231, -0.13627050817012787, -0.21391774713993073, 0.018495555967092514, 0.0204178299754858, -0.10730303078889847, -0.010545555502176285, 0.06798475235700607, -0.11035910248756409, -0.06415540724992752, -0.048179008066654205, 0.05516654625535011, 0.1201564148068428, 0.027209728956222534, 0.05668564513325691, 0.010269330814480782, 0.19352054595947266, 0.1041126549243927, -0.0720059722661972, 0.0922037735581398, -0.18162435293197632, -0.06695772707462311, 0.12219761312007904, 0.0678255558013916, 0.061268094927072525, 0.05026569589972496, -0.06542577594518661, 0.0745246559381485, 0.15113671123981476, -0.008448049426078796, 0.07520570605993271, -0.052402179688215256, -0.13281352818012238, 0.062294431030750275, -0.049327850341796875, 0.09643727540969849, -0.1501147449016571, 0.0666913166642189, 0.024005401879549026, 0.014264607802033424, 0.06411366909742355, 0.16805872321128845, 0.1874622255563736, -0.002927460242062807, -0.13333678245544434, -0.18507057428359985, 0.16249459981918335, -0.08853553980588913, 0.02904316410422325, -0.009335246868431568, -0.1323404312133789, 0.05089563503861427, 0.04076293855905533], [-0.06943216919898987, 0.21018651127815247, -0.18814241886138916, 0.3063456416130066, 0.04058529809117317, -0.04392673075199127, 0.25694581866264343, -0.2663528025150299, -0.006837571505457163, -0.3424379229545593, 0.291947603225708, 0.10154853016138077, -0.0006893147365190089, -0.12787772715091705, -0.18626952171325684, -0.02572847530245781, -0.08698789030313492, 0.07131776213645935, -0.1126147136092186, 0.20796261727809906, -0.4249951243400574, 0.10972543805837631, -0.15789896249771118, 0.012143464758992195, -0.18989601731300354, -0.028891751542687416, -0.09290176630020142, -0.15847325325012207, 0.04370216280221939, -0.14766843616962433, -0.14655351638793945, 0.08002541959285736, -0.23562274873256683, -0.015848802402615547, -0.1662624031305313, 0.0023170586209744215, 0.25620943307876587, -0.11307606846094131, -0.175094872713089, -0.29323190450668335, -0.023244459182024002, 0.16689689457416534, -0.13287551701068878, -0.2821231186389923, 0.14788281917572021, 0.09244699776172638, 0.13207028806209564, -0.01873892731964588, -0.02851048856973648, 0.04378509521484375, 0.006146245636045933, -0.16312101483345032, 0.12628518044948578, 0.21220283210277557, -0.0466039665043354, 0.060421764850616455, -0.05053507164120674, 0.33144786953926086, 0.39969170093536377, 0.014475790783762932, -0.11086616665124893, -0.18311452865600586, 0.0183208417147398, 0.0006056329584680498], [0.02874654531478882, -0.01142092701047659, 0.05733342468738556, -0.07314255088567734, 0.031188011169433594, 0.20471492409706116, 0.08494214713573456, -0.2734231948852539, 0.09445545822381973, -0.047521188855171204, -0.19146426022052765, -0.054349228739738464, -0.007102711591869593, -0.28953415155410767, 0.01258882973343134, 0.26444926857948303, 0.138893723487854, -0.028572365641593933, -0.008153436705470085, 0.0433046855032444, 0.028095928952097893, 0.0743357315659523, -0.42721760272979736, -0.07358101010322571, -0.08688388764858246, 0.06767293065786362, -0.024510348215699196, -0.14188364148139954, 0.005297299474477768, 0.07194042950868607, -0.07294614613056183, -0.08498234301805496, 0.008522099815309048, -0.05213493853807449, -0.3221558928489685, -0.12465479224920273, 0.046265844255685806, -0.1308794617652893, -0.08204574882984161, 0.045331113040447235, 0.13333091139793396, 0.20067209005355835, -0.3641265630722046, 0.24189670383930206, -0.05914781615138054, 0.06432624161243439, 0.12789364159107208, -0.05048059672117233, 0.26308879256248474, -0.1250806748867035, -0.03514351695775986, 0.21387243270874023, -0.523307740688324, 0.15581151843070984, 0.0828741118311882, 0.23684674501419067, 0.04906780645251274, 0.5510708093643188, 0.04807668551802635, -0.008710302412509918, -0.22046718001365662, 0.12007232755422592, 0.042928870767354965, -0.11131362617015839], [0.1059211790561676, 0.08493726700544357, -0.03138546645641327, 0.25024476647377014, 0.09425503015518188, -0.12370619922876358, 0.18051667511463165, -0.27053287625312805, 0.12142804265022278, 0.06276340782642365, 0.03897697106003761, 0.05118642374873161, 0.10175041854381561, -0.04416704550385475, -0.021719468757510185, -0.024150222539901733, -0.44743812084198, 0.068916454911232, 0.04745303466916084, 0.01827116124331951, 0.1497211456298828, -0.16374555230140686, 0.07109072804450989, -0.17211836576461792, -0.14613400399684906, -0.03652793541550636, 0.05161983519792557, 0.024070218205451965, 0.08156336098909378, 0.23618166148662567, 0.13319486379623413, 0.07221939414739609, 0.03431498259305954, -0.20367009937763214, -0.005136577878147364, -0.002146890154108405, -0.22971756756305695, 0.17578908801078796, 0.1871337890625, 0.0008281654445454478, -0.06591793894767761, 0.07511212676763535, 0.01749001257121563, 0.049071069806814194, 0.2282835990190506, 0.05527899041771889, 0.34844735264778137, 0.09883712232112885, -0.18340574204921722, -0.0462593249976635, -0.30222493410110474, 0.10617838054895401, -0.33429595828056335, -0.08476950228214264, 0.00488683208823204, -0.0018282344099134207, 0.10215166211128235, -0.011348492465913296, 0.023142728954553604, -0.039632976055145264, 0.1859712153673172, 0.022183196619153023, 0.23179376125335693, 0.2158212661743164], [0.24370968341827393, -0.0644686222076416, -0.013277377001941204, 0.5201764106750488, 0.1379322111606598, -0.045036956667900085, -0.037411827594041824, -0.1776007115840912, -0.23789893090724945, -0.018622538074851036, -0.4643954932689667, -0.10588947683572769, -0.019359083846211433, 0.00014683498011436313, -0.2806932330131531, 0.11500023305416107, -0.35206693410873413, 0.41784101724624634, 0.08779923617839813, -0.0758453831076622, 0.16151857376098633, -0.16993772983551025, -0.37232089042663574, -0.04954392835497856, -0.4013058841228485, 0.2399941384792328, 0.058591436594724655, -0.005634019151329994, 0.10891151428222656, 0.17656846344470978, -0.16372177004814148, 0.1438407599925995, -0.17488211393356323, 0.061159610748291016, 0.012038858607411385, -0.005111402831971645, -0.09083395451307297, 0.1424233764410019, -0.02329954504966736, 0.17706747353076935, -0.22187943756580353, 0.1875743567943573, -0.261584997177124, 0.11416260153055191, -0.11157453060150146, 0.12275642901659012, 0.11495525389909744, -0.21610569953918457, -0.29540032148361206, 0.03496524691581726, 0.14082466065883636, 0.055669791996479034, 0.7149970531463623, 0.029656577855348587, 0.07216189801692963, 0.08816569298505783, 0.16865600645542145, -0.514028012752533, -0.22585874795913696, 0.09599601477384567, 0.1588338315486908, -0.11224327236413956, 0.039013348519802094, 0.05238241329789162], [-0.04678314924240112, -0.10872073471546173, -0.11520431190729141, 0.07535400986671448, 0.16204984486103058, -0.09122681617736816, -0.10724662989377975, 0.16092459857463837, 0.06891166418790817, 0.16348397731781006, 0.058584973216056824, 0.0647825300693512, 0.03128283470869064, 0.13255718350410461, -0.0025562597438693047, 0.05564182251691818, -0.08184294402599335, -0.2108587622642517, 0.25406840443611145, -0.17410311102867126, 0.06226854398846626, 0.08810123801231384, 0.025118431076407433, 0.09776052087545395, -0.013890203088521957, -0.4513019919395447, 0.006569927092641592, -0.020355472341179848, -0.03449132665991783, 0.009070001542568207, -0.10434529930353165, -0.058890897780656815, -0.018662162125110626, 0.03453606367111206, 0.025253888219594955, 0.020902657881379128, 0.011535736732184887, -0.03744235262274742, -0.12742361426353455, 0.08756734430789948, 0.003060119692236185, -0.10297109931707382, -0.18091513216495514, -0.16189415752887726, 0.06556365638971329, -0.024984782561659813, -0.4084168076515198, -0.3655346632003784, -0.02889259345829487, 0.08020774275064468, 0.10741059482097626, 0.11117721349000931, 0.0008905519498512149, -0.022866463288664818, -0.15016481280326843, -0.019277166575193405, -0.0713348463177681, -0.5163099765777588, 0.17460127174854279, -0.2574774920940399, 0.07841526716947556, -0.09310749173164368, -0.10493332147598267, -0.06458765268325806], [0.047093428671360016, -0.14544594287872314, 0.27182435989379883, 0.25884097814559937, -0.04120901599526405, 0.20655542612075806, 0.09543740749359131, -0.17110897600650787, -0.012418701313436031, 0.0684335008263588, -0.119864821434021, 0.225715771317482, -0.06272685527801514, -0.23622845113277435, -0.07276758551597595, 0.002559032291173935, 0.04174829646945, 0.4990827143192291, -0.2611014246940613, -0.21110929548740387, -0.6176722645759583, 0.0527077242732048, 0.29623448848724365, -0.026982270181179047, 0.1459982842206955, 0.14663732051849365, -0.040436603128910065, -0.14459872245788574, -0.07833835482597351, -0.08199389278888702, 0.21021391451358795, -0.05392024293541908, -0.050833560526371, 0.10698457807302475, 0.013629463501274586, -0.3082006275653839, -0.12469761818647385, -0.1221621185541153, -0.2002316266298294, -0.05078938975930214, -0.14198467135429382, -0.16435852646827698, 0.5843623876571655, 0.29709354043006897, 0.13208113610744476, -0.19170914590358734, -0.06670960783958435, 0.03235475718975067, 0.0013047577813267708, -0.43554043769836426, -0.07537274807691574, -0.1431608498096466, -0.5106258392333984, -0.1989557296037674, 0.08086127042770386, -0.16622745990753174, -0.040304820984601974, -0.25968819856643677, -0.37001752853393555, -0.031163575127720833, 0.23274831473827362, 0.05708605423569679, 0.24676276743412018, 0.1433132290840149], [-0.44520989060401917, -0.0037778718397021294, -0.01362777128815651, 0.04668426141142845, -0.021029986441135406, 0.20910902321338654, -0.021881479769945145, -0.49678200483322144, 0.06632614135742188, 0.052459001541137695, 0.02814805507659912, 0.05441416800022125, 0.08559776097536087, -0.09294795244932175, 0.027248520404100418, 0.0180526003241539, 0.017395898699760437, -0.03150324895977974, -0.017179464921355247, 0.12412233650684357, -0.12805764377117157, 0.01746544986963272, -0.041483234614133835, 0.031823307275772095, -0.4558579921722412, 0.14803291857242584, 0.041217781603336334, 0.0407085195183754, -0.00764146912842989, 0.12141089141368866, 0.07487965375185013, 0.14952515065670013, -0.0010814970592036843, -0.183224156498909, 0.15136978030204773, -0.08945433050394058, 0.05992330610752106, 0.02757301554083824, -0.32111454010009766, -0.011433744803071022, -0.10678273439407349, -0.05250405892729759, 0.14403532445430756, -0.15055660903453827, -0.1481090635061264, -0.05975353345274925, -0.4829106032848358, 0.2205600142478943, -0.0419502891600132, -0.21408382058143616, 0.04774957150220871, -0.03822848200798035, 0.6237002015113831, 0.10813556611537933, -0.06483481824398041, 0.07051544636487961, -0.06399768590927124, -0.10101795941591263, -0.0667508915066719, -0.14068691432476044, -0.10634086281061172, 0.045444510877132416, 0.05805537849664688, -0.04258311539888382], [0.2157439887523651, -0.03170442208647728, 0.041123103350400925, 0.142131969332695, 0.043476928025484085, -0.05472661927342415, -0.22547730803489685, 0.007064039818942547, 0.05843625217676163, -0.011735288426280022, 0.349022775888443, -0.4097975790500641, -0.06584351509809494, 0.09282475709915161, 0.06098232418298721, 0.005556371994316578, -0.06023436039686203, -0.02028392069041729, -0.07392307370901108, 0.0028807867784053087, 0.13805192708969116, -0.092434361577034, -0.04499790072441101, 0.08277101814746857, -0.09478583186864853, -0.35330459475517273, -0.14492736756801605, 0.3841968774795532, -0.0200096033513546, -0.036999527364969254, -0.17615017294883728, 0.12028156965970993, -0.13101854920387268, -0.05184638500213623, -0.06179066747426987, 0.2621186673641205, 0.02218715101480484, -0.11840929090976715, 0.09525575488805771, 0.0025687539018690586, 0.03681541234254837, -0.02936796098947525, -0.044755060225725174, 0.10829011350870132, -0.0729026198387146, 0.07509288191795349, 0.025985345244407654, 0.048070501536130905, -0.10144951194524765, 0.13294579088687897, -0.018071355298161507, -0.05844235047698021, 0.14091730117797852, 0.02559604123234749, -0.005749319680035114, 0.038128066807985306, -0.14466199278831482, -0.7258555293083191, -0.14744217693805695, -0.12282945215702057, -0.05063314363360405, 0.03393477201461792, 0.010382222943007946, 0.04143217206001282], [0.1692429780960083, 0.018351107835769653, -0.04442441090941429, 0.1403459757566452, 0.7029358148574829, 0.01971282623708248, -1.125629186630249, 0.523658275604248, 0.3437003791332245, -0.22065477073192596, 0.05098650977015495, 0.1342860907316208, -0.19504807889461517, 0.0279774758964777, -0.4902867376804352, -0.1561010181903839, -0.06193600222468376, -0.621657133102417, 0.09883572906255722, -0.2327170968055725, 0.11338303238153458, -0.19539092481136322, 0.12878356873989105, 0.20875047147274017, 0.060423482209444046, 0.02921474538743496, -0.06906630843877792, -0.06392402201890945, -0.019131522625684738, 0.5333201885223389, -0.33422282338142395, 0.06881947070360184, -0.16170014441013336, 0.2964351177215576, 0.23781710863113403, -0.19268794357776642, -0.6560878753662109, -0.35632359981536865, 0.10853197425603867, 0.29237672686576843, -0.1586117297410965, -0.19820058345794678, 0.1195315271615982, -0.7300618886947632, -0.06692595779895782, 0.2030496597290039, 0.18807058036327362, -0.16890312731266022, 0.13994033634662628, -0.02653689868748188, 0.30264201760292053, -0.030124938115477562, -0.3946819305419922, -0.009523351676762104, -0.0954514667391777, -0.22094424068927765, -0.15379564464092255, -1.970285177230835, 0.10749051719903946, 0.1683831810951233, 0.09100382030010223, -0.2035507708787918, -0.11504106968641281, 0.056294918060302734], [-0.22585654258728027, -0.1077057346701622, 0.026418412104249, -0.014297635294497013, -0.061411697417497635, -0.14790920913219452, 0.11070262640714645, -0.318916380405426, -0.13316790759563446, -0.10011734068393707, 0.4082908630371094, 0.22758163511753082, -0.15969476103782654, -0.16764315962791443, -0.03561371937394142, 0.025013471022248268, 0.15608125925064087, 0.23889930546283722, -0.14678288996219635, 0.06930536776781082, 0.1690244972705841, -0.06606555730104446, 0.07710201293230057, -0.259400337934494, -0.03999411687254906, 0.03028201498091221, 0.017635133117437363, -0.22897319495677948, -0.07404053956270218, -0.1545773148536682, 0.04990699142217636, -0.00012517916911747307, -0.0042779818177223206, -0.16016696393489838, 0.07241958379745483, -0.10102517157793045, -0.0023994785733520985, -0.032621122896671295, 0.14169025421142578, 0.10682308673858643, 0.025590501725673676, 0.03586579114198685, 0.3683210611343384, 0.33045998215675354, 0.03362156078219414, 0.05040604993700981, 0.2836639881134033, -0.10936783999204636, -0.01582854986190796, -0.20406696200370789, -0.15045011043548584, 0.13076002895832062, -0.3510749042034149, -0.020674077793955803, 0.0570068359375, 0.005431313067674637, 0.010294090956449509, 0.3431238830089569, -0.10573673993349075, -0.09038756042718887, -0.19780446588993073, 0.2038455307483673, 0.0014072490157559514, 0.04341021180152893], [-0.003292070236057043, -0.09086711704730988, -0.07081558555364609, -0.05133341625332832, -0.09864728897809982, 0.08024269342422485, 0.002922735409811139, 0.08323793858289719, -0.003138661617413163, -0.0007982610259205103, 0.027951430529356003, -0.011814331635832787, -0.11595837771892548, -0.12286336719989777, -0.0840226262807846, -0.0198363047093153, -0.010851339437067509, -0.0002525457239244133, 0.037493083626031876, -0.00792231410741806, -0.065491683781147, -0.12436161935329437, -0.10257112234830856, -0.11063355207443237, 0.006331365555524826, 0.03320181369781494, 0.07977115362882614, -0.05024024471640587, -0.07204832881689072, -0.06379394978284836, -0.06130548566579819, 0.012943975627422333, -0.05475227162241936, -0.021992282941937447, -0.005087687633931637, -0.016115427017211914, -0.06345336884260178, -0.0954570323228836, -0.024002842605113983, -0.03299562260508537, -0.1034497395157814, 0.022105475887656212, -0.04327470064163208, -0.029474401846528053, -0.11985436081886292, -0.050905823707580566, -0.15206705033779144, 0.020048776641488075, 0.0023256822023540735, 0.011779079213738441, -0.004627750255167484, 0.0014976176898926497, 0.004796755965799093, 0.07638159394264221, -0.08996371179819107, 0.042072396725416183, -0.02115933783352375, -0.10167297720909119, 0.016974635422229767, -0.07293085008859634, -0.06691807508468628, -0.06492640823125839, -0.1166168823838234, 0.0388256274163723], [0.12546071410179138, 0.06070183590054512, -0.15524639189243317, 0.013173135928809643, 0.2722744047641754, -0.16478367149829865, 0.02418847195804119, -0.2497492879629135, -0.2887108325958252, 0.034607045352458954, 0.07460318505764008, -0.10265275835990906, -0.07456137984991074, -0.1499621421098709, 0.00928590726107359, 0.08448633551597595, -0.16301466524600983, -0.030804337933659554, 0.30224716663360596, -0.21484890580177307, -0.17712420225143433, 0.039342861622571945, -0.30133622884750366, -0.04538233205676079, -0.3307603895664215, -0.013248153030872345, 0.08557389676570892, -0.22304800152778625, 0.24939735233783722, 0.1411367952823639, 0.02993733063340187, 0.061456404626369476, -0.10522949695587158, 0.11963389813899994, -0.010064296424388885, -0.00264691817574203, 0.005226874258369207, -0.05389094352722168, 0.08450397849082947, -0.02529342845082283, -0.08358421921730042, -0.14855772256851196, -0.26262617111206055, 0.04691765829920769, 0.03221575543284416, 0.0009710458689369261, 0.13933537900447845, -0.2275713086128235, 0.16295450925827026, -0.3756592273712158, 0.22884772717952728, -0.2018054872751236, 0.5343247056007385, -0.06435331702232361, 0.04346799477934837, -0.07248158007860184, 0.15946809947490692, 0.027266094461083412, -0.036091890186071396, 0.12805110216140747, 0.26684248447418213, -0.1822095662355423, 0.058771807700395584, 0.195127472281456], [-0.7747957706451416, 0.019058039411902428, -0.1153331771492958, 0.03738417848944664, 0.1053936704993248, -0.1436453014612198, -0.0031897081062197685, -0.16450078785419464, 0.1962253451347351, 0.11955875158309937, 0.4386332631111145, 0.1597069501876831, -0.09228884428739548, -0.057342518121004105, 0.09843909740447998, -0.10870705544948578, 0.36057019233703613, -0.040118761360645294, -0.13131900131702423, 0.03973865881562233, 0.006333346012979746, -0.13963276147842407, 0.1104295551776886, 0.13317075371742249, -0.31816959381103516, 0.2596180737018585, -0.27230024337768555, -0.015047719702124596, -0.14318205416202545, -0.11458148062229156, -0.2249050736427307, -0.06174939125776291, -0.09390050172805786, -0.05233114957809448, -0.09257379174232483, -0.10500895977020264, 0.31130141019821167, -0.3089979588985443, 0.06804561614990234, -0.06141462177038193, 0.21573826670646667, 0.19659119844436646, 0.3682754933834076, -0.22537808120250702, -0.060606278479099274, -0.03213728964328766, 0.043715402483940125, 0.13332302868366241, -0.11077415943145752, 0.105067677795887, -0.2563479542732239, -0.08014334738254547, 0.14663982391357422, -0.071065753698349, 0.266451895236969, 0.12151048332452774, 0.19317156076431274, 0.29019781947135925, -0.048501864075660706, 0.1551772952079773, 0.00130303087644279, -0.00857833493500948, -0.017979608848690987, -0.3796423077583313], [-0.28400999307632446, 0.04528733715415001, 0.04579760134220123, 0.22016212344169617, 0.207643061876297, -0.10995421558618546, 0.22889135777950287, -0.21901680529117584, -0.20261259377002716, -0.06738075613975525, -0.29442298412323, 0.2607225775718689, -0.14414361119270325, -0.10669636726379395, 0.05146220326423645, -0.03676890581846237, -0.32371985912323, -0.10254940390586853, 0.023639878258109093, -0.05130758136510849, -0.4803018271923065, 0.10620593279600143, 0.23348674178123474, 0.15114928781986237, -0.029355758801102638, 0.1858166605234146, 0.15594185888767242, -0.03146188706159592, 0.04054713249206543, -0.08547601848840714, 0.08123935014009476, 0.15037117898464203, -0.03309716656804085, -0.1686878353357315, 0.014460988342761993, -0.0654430091381073, 0.053525298833847046, -0.0006285624112933874, -0.14558112621307373, 0.16746960580348969, 0.10002098977565765, 0.17930738627910614, -0.11828771978616714, -0.06790163367986679, -0.48796749114990234, 0.030415521934628487, -0.3946305811405182, 0.18590445816516876, -0.08325280994176865, 0.21473783254623413, 0.13818663358688354, -0.2610495388507843, 0.7562680840492249, 0.06801513582468033, -0.04456951469182968, -0.1377304345369339, -0.13267098367214203, -0.5102077722549438, -0.13571101427078247, 0.11016316711902618, -0.005334028508514166, -0.06600761413574219, -0.0030030012130737305, -0.10938961803913116], [-0.04019222408533096, 0.1869620829820633, -0.015139441937208176, -0.10292498767375946, -0.06603817641735077, -0.0707167536020279, -0.07417992502450943, -0.0025633573532104492, -0.13166706264019012, -0.07492968440055847, 0.12819615006446838, -0.08398520201444626, -0.002844723640009761, -0.09494316577911377, 0.024998793378472328, -0.002047177404165268, 0.0746014192700386, 0.049836862832307816, -0.06974903494119644, -0.0378846749663353, -0.048654329031705856, 0.0999656468629837, 0.0822439193725586, 0.09246362000703812, -0.09025347232818604, -0.028831712901592255, -0.08505484461784363, 0.19321374595165253, -0.15127208828926086, -0.03719786927103996, 0.0938771516084671, 0.044778600335121155, 0.08182574063539505, -0.043459899723529816, 0.14120133221149445, -0.10890369117259979, -0.009071094915270805, 0.036489710211753845, -0.00814608484506607, 0.044412411749362946, 0.01263431366533041, -0.10429057478904724, 0.011811251752078533, -0.07034678012132645, -0.03527570143342018, 0.017306657508015633, 0.07436394691467285, 0.015669090673327446, 0.02038392797112465, 0.08531510084867477, 0.07910265028476715, -0.10871504992246628, -0.057249516248703, 0.018427181988954544, 0.11302172392606735, -0.005855210591107607, 0.04609355330467224, -0.1385829895734787, 0.02149292454123497, -0.0878060981631279, 0.10663450509309769, 0.04354218393564224, 0.03595120459794998, 0.056071870028972626], [-0.050479307770729065, -0.1172340139746666, -0.04405353218317032, 0.18026690185070038, 0.057707779109478, -0.07447504252195358, -0.05091232433915138, 0.19672811031341553, 0.06547102332115173, -0.10067269206047058, 0.03950512781739235, 0.16641347110271454, 0.08081383258104324, 0.114384725689888, 0.009190117940306664, 0.17313075065612793, 0.3639236390590668, 0.004645206034183502, -0.36290687322616577, 0.27581509947776794, -0.09087596088647842, 0.08715923875570297, -0.07149159908294678, -0.03571652993559837, -0.009009051136672497, 0.16107752919197083, 0.11950603872537613, 0.16913709044456482, -0.2892277240753174, -0.20783783495426178, -0.21701452136039734, -0.15529200434684753, -0.07798337191343307, -0.13480375707149506, -0.05758648365736008, -0.11786336451768875, -0.08648594468832016, 0.15578721463680267, 0.0490494929254055, -0.022338751703500748, 0.021152274683117867, 0.2515302002429962, 0.23298709094524384, 0.06950133293867111, -0.06052480638027191, -0.06180023401975632, -0.07854954898357391, -0.18351705372333527, 0.17754456400871277, 0.055339738726615906, -0.14301928877830505, 0.12699785828590393, -0.4892267882823944, 0.013189572840929031, 0.01951117441058159, 0.13843950629234314, -0.22841942310333252, 0.34393736720085144, -0.13697077333927155, 0.11207407712936401, -0.013933357782661915, -0.030412031337618828, -0.04018993675708771, -0.27200421690940857], [-0.09491311013698578, -0.05195289105176926, 0.008091786876320839, 0.19508138298988342, 0.2990805506706238, 0.03696456924080849, 0.03340110555291176, -0.05094241723418236, 0.21838785707950592, 0.13637740910053253, 0.1771201193332672, 0.1973721981048584, -0.15894050896167755, -0.11569137871265411, -0.32871779799461365, 0.1536131352186203, 0.015073432587087154, -0.042947132140398026, -0.032363418489694595, 0.09508034586906433, 0.13617265224456787, 0.009221099317073822, 0.3200733959674835, -0.010054214857518673, 0.14643032848834991, 0.11864304542541504, -0.10031009465456009, 0.04518584534525871, -0.024678613990545273, 0.05918010696768761, -0.3930809795856476, 0.002320376457646489, 0.13137008249759674, -0.11693194508552551, -0.12640920281410217, 0.07085438072681427, 0.23829472064971924, 0.04464110732078552, 0.08159846812486649, 0.054325103759765625, -0.02871435321867466, 0.07100949436426163, 0.2556724548339844, -0.18439622223377228, 0.16299371421337128, -0.27399230003356934, 0.05724409967660904, 0.1579904556274414, 0.09441883116960526, -0.017509346827864647, 0.22608517110347748, -0.6347586512565613, -0.46712279319763184, -0.060683075338602066, -0.3156771957874298, 0.3474670350551605, -0.16230332851409912, -0.014228377491235733, 0.1946732997894287, 0.05329691246151924, -0.027126360684633255, 0.12717042863368988, -0.0445186011493206, -0.084792859852314], [0.38449645042419434, -0.10243107378482819, 0.08021874725818634, 0.4898446500301361, 0.003198173362761736, 0.10919902473688126, 0.0571928434073925, -0.5707142353057861, 0.03171679377555847, -0.132317453622818, -0.3794737458229065, -0.013132637366652489, 0.00841843243688345, 0.15634964406490326, -0.02852344512939453, -0.09672161191701889, -0.051292311400175095, -0.13804346323013306, -0.2319861650466919, 0.04682786017656326, -0.4397687017917633, 0.11264461278915405, -0.47857823967933655, -0.19558221101760864, -0.06861255317926407, -0.0409710630774498, 0.0131154153496027, 0.014630970545113087, -0.5387899875640869, -0.1061595231294632, -0.2702978253364563, -0.14951469004154205, -0.11112265288829803, 0.153133824467659, -0.08320023119449615, -0.030644292011857033, -0.07624408602714539, 0.22255299985408783, 0.06117812171578407, -0.07917007058858871, -0.16341613233089447, -0.07242493331432343, -0.32024049758911133, 0.17933274805545807, -0.08332028239965439, -0.0055546541698277, 0.1994643211364746, 0.07007044553756714, -0.03306630253791809, 0.16102541983127594, -0.14535537362098694, 0.2637117803096771, 0.043097179383039474, 0.033056337386369705, 0.031446654349565506, 0.05803248658776283, -0.22397947311401367, 0.5323957204818726, -0.07194991409778595, -0.009835775941610336, -0.035173676908016205, 0.05833122879266739, -0.0870157852768898, -0.04498349502682686], [0.09107252210378647, 0.0756809338927269, -0.12636370956897736, -0.19285383820533752, -0.059494830667972565, -0.1139143779873848, -0.08135241270065308, -0.004462485667318106, 0.38881567120552063, 0.006315803620964289, 0.047677330672740936, -0.641013503074646, 0.031143253669142723, 0.09421227872371674, -0.07934915274381638, -0.008702941238880157, 0.13164053857326508, -0.009161806665360928, 0.011744217947125435, -0.12333919107913971, -0.09197309613227844, -0.04200506582856178, -0.4052298069000244, 0.1735685169696808, -0.027359193190932274, -0.08605260401964188, 0.005485495086759329, -0.06612637639045715, 0.27723538875579834, 0.14252077043056488, -0.018399985507130623, 0.051509447395801544, -0.04174954071640968, 0.3033117651939392, -0.042785532772541046, 0.02985478565096855, -0.08281322568655014, 0.0887240618467331, -0.01595241203904152, -0.1658785194158554, 0.07289198786020279, -0.14850953221321106, -0.008858084678649902, 0.07927575707435608, -0.18917566537857056, 0.10472429543733597, -0.13884827494621277, -0.0027764327824115753, 0.039280522614717484, -0.03732536360621452, 0.12070014327764511, -0.05369884893298149, 0.7610344886779785, -0.0712275579571724, -0.06640779227018356, -0.25597888231277466, -0.06931480020284653, 0.2909488379955292, 0.09782903641462326, 0.12220337986946106, -0.2145370990037918, 0.029022563248872757, 0.09637869149446487, 0.09546791017055511], [-0.1786646842956543, -0.02069133147597313, 0.12521758675575256, 0.051902204751968384, 0.17321760952472687, -0.015523714013397694, 0.1261327713727951, -0.09006375074386597, 0.20428167283535004, -0.02276471070945263, 0.027666348963975906, 0.10110418498516083, 0.028769483789801598, 0.04254550114274025, 0.07743673771619797, -0.09772949665784836, -0.029007552191615105, 0.04075917601585388, 0.050052233040332794, 0.07187607884407043, -0.03043459542095661, 0.05416574329137802, -0.16104747354984283, 0.0528535321354866, 0.029332062229514122, -0.11304553598165512, 0.03987390920519829, -0.11395086348056793, 0.08874884992837906, -0.01583605818450451, 0.15628375113010406, -0.04884891211986542, -0.012646115384995937, 0.14192236959934235, -0.07047516107559204, -0.05937349796295166, 0.10074059665203094, 0.03248995542526245, 0.04329078271985054, -0.1997106820344925, -0.09832180291414261, 0.035287775099277496, 0.13135641813278198, 0.1444898098707199, 0.06268686801195145, 0.10476767271757126, -0.1847192794084549, -0.07509404420852661, -0.1225576102733612, -0.01120293140411377, 0.08169608563184738, 0.08882209658622742, 0.08972548693418503, 0.02538764476776123, -0.06559927761554718, -0.023038454353809357, 0.1666809618473053, -0.09800120443105698, 0.09811540693044662, 0.13226298987865448, -0.15574130415916443, 0.014129921793937683, -0.010837998241186142, -0.07060503214597702], [-1.1543645858764648, 0.016505276784300804, -0.1917455494403839, -0.5211129784584045, 0.008644894696772099, -0.11093191057443619, 0.08473467826843262, 0.16913875937461853, -0.10528994351625443, 0.24365003407001495, 0.23089003562927246, -0.4070812463760376, 0.2348383069038391, 0.0046722618862986565, -0.10611561685800552, 0.08897596597671509, -0.2856994867324829, -0.09798326343297958, 0.3885956406593323, 0.022888684645295143, 0.07680267840623856, 0.01650126278400421, 0.1629921942949295, 0.24333399534225464, 0.16772796213626862, -0.12674768269062042, 0.032916195690631866, 0.0511881560087204, 0.08154451847076416, 0.29251959919929504, 0.024653971195220947, 0.23580391705036163, -0.007381362374871969, 0.1457080841064453, 0.17124372720718384, -0.15138612687587738, 0.016873780637979507, 0.14843913912773132, 0.08514582365751266, 0.03066682443022728, -0.29045775532722473, -0.46097493171691895, 0.19720841944217682, -0.3371332883834839, -0.2000492364168167, -0.07206795364618301, -0.8548129200935364, 0.012758683413267136, 0.26464489102363586, 0.23258046805858612, -0.2675257921218872, -0.2512492537498474, 0.2641673684120178, -0.20649683475494385, -0.08675248175859451, -0.26802247762680054, -0.12878236174583435, 0.14040732383728027, -0.1352013796567917, 0.08537372201681137, 0.21213221549987793, -0.19131971895694733, -0.3031806945800781, 0.07336491346359253], [-0.004807980265468359, -0.04799748957157135, 0.01519839558750391, -0.09962481260299683, 0.03735150769352913, -0.11396302282810211, -0.0782560408115387, -0.08093459904193878, 0.04606599360704422, -0.01320820115506649, -0.1334562599658966, -0.08613555133342743, -0.06879781186580658, -0.13466663658618927, 0.0022737798281013966, 0.028540460392832756, -0.033292386680841446, -0.03179365023970604, -0.01691339910030365, -0.11646301299333572, -0.08970243483781815, -0.016296623274683952, 0.09680049121379852, -0.054833684116601944, 0.04806175082921982, -0.06724783778190613, -0.05432448908686638, -0.12711431086063385, 0.09348443150520325, 0.10977310687303543, -0.007690430153161287, 0.05830724164843559, 0.08723321557044983, 0.043887123465538025, 0.04712163656949997, -0.13579753041267395, -0.13204599916934967, -0.10349351912736893, 0.02110997959971428, -0.1178584098815918, -0.11115845292806625, -0.0677211731672287, -0.12929123640060425, -0.01682889461517334, -0.0006829246412962675, -0.07982131093740463, 0.06503138691186905, -0.05843833088874817, -0.04796633869409561, 0.07859271764755249, 0.09259055554866791, -0.025458425283432007, -0.11338795721530914, -0.05457484722137451, 0.031545694917440414, 0.0649353414773941, 0.05348209664225578, -0.07673323899507523, -0.1321839839220047, -0.11325118690729141, -0.05419923737645149, -0.013225672766566277, -0.07064592093229294, -0.11066342145204544], [-0.5296344757080078, 0.10279607027769089, -0.010481903329491615, -0.6510640382766724, 0.13690726459026337, 0.16978643834590912, 0.0027213578578084707, 0.1862400770187378, 0.29571041464805603, -0.08182398229837418, -0.052510663866996765, -0.6234142184257507, 0.03428049013018608, -0.18987950682640076, -0.008043245412409306, -0.19015105068683624, 0.15019646286964417, -0.09569963812828064, 0.09331775456666946, -0.01072684209793806, -0.13037046790122986, -0.05702592059969902, -0.2236369550228119, 0.08321996033191681, -0.43438461422920227, 0.046562567353248596, -0.01613352634012699, 0.07674980163574219, 0.00821009837090969, 0.055041395127773285, 0.0106395548209548, 0.048043832182884216, -0.005697597283869982, -0.22372716665267944, -0.69525146484375, 0.05684802681207657, 0.08205679804086685, -0.17745469510555267, -0.08143632858991623, -0.09217368811368942, -0.19465535879135132, 0.5395029783248901, 0.2375497668981552, 0.2258969247341156, -0.19246867299079895, 0.11544786393642426, 0.09097369015216827, -0.11869378387928009, -0.057716239243745804, -0.029205285012722015, 0.37073129415512085, -0.3282238245010376, 0.4099835455417633, 0.08129552006721497, 0.06970972567796707, 0.20585258305072784, -0.14675751328468323, 0.040003132075071335, 0.12229979038238525, 0.1394171565771103, 0.06823240965604782, 0.026476137340068817, 0.02164231613278389, 0.06285053491592407], [-0.33353519439697266, 0.10949335992336273, -0.20903480052947998, -0.33473721146583557, 0.6788903474807739, -0.1522785723209381, -1.306766390800476, 0.4610038101673126, 0.10105344653129578, -0.19433945417404175, 0.4420009255409241, -0.32772141695022583, 0.3771747350692749, 0.35441258549690247, -0.4916824698448181, -0.06528283655643463, -0.2556232511997223, -0.8365264534950256, 0.09700694680213928, 0.6787546277046204, -0.4396422505378723, -0.38878485560417175, 0.16052104532718658, 0.1714462786912918, 0.071870356798172, 0.2682918906211853, -0.04273487627506256, -0.20917291939258575, -0.1696843057870865, 0.08425407856702805, -0.07818076014518738, 0.025211870670318604, 0.08178377151489258, 0.3176487386226654, 0.01569550856947899, -0.12360944598913193, -0.2498168647289276, -0.08396989107131958, 0.23693525791168213, 0.2537938952445984, -0.16776272654533386, 0.1938224881887436, 0.07885666936635971, -1.3162248134613037, -0.17618884146213531, 0.017385926097631454, 0.0953245609998703, 0.21733298897743225, -0.1985773891210556, 0.19912327826023102, 0.3807639479637146, -0.17887426912784576, 0.33244678378105164, -0.2827093303203583, 0.13125742971897125, -0.06359836459159851, -0.011781755834817886, -0.9956677556037903, -0.029919153079390526, 0.2424643486738205, 0.2029593288898468, -0.2120998352766037, -0.005701825954020023, -0.06407593190670013], [-0.639605700969696, 0.17406314611434937, -0.004197748377919197, 0.04653261601924896, 0.15798382461071014, -0.06856157630681992, 0.06881867349147797, -0.39670804142951965, -0.07655058801174164, 0.0837215781211853, 0.34944015741348267, 0.11276629567146301, 0.07388732582330704, -0.2154485136270523, -0.1728089600801468, -0.24217632412910461, 0.010919318534433842, -0.17743465304374695, -0.25269389152526855, -0.020863501355051994, 0.055328890681266785, 0.04487617313861847, 0.24350318312644958, -0.298272043466568, 0.26938286423683167, 0.025245878845453262, 0.029388977214694023, -0.12963207066059113, 0.1384599357843399, 0.13120359182357788, 0.22971037030220032, 0.060496896505355835, -0.042864155024290085, -0.015493463724851608, -0.01156242098659277, -0.02837478369474411, -0.13659356534481049, -0.1450377106666565, -0.14289207756519318, -0.0804373100399971, -0.05579815059900284, -0.289399653673172, -0.07676029205322266, -0.25388476252555847, -0.04393937811255455, -0.008016025647521019, -0.12809163331985474, -0.005522009916603565, -0.059471435844898224, 0.13060878217220306, 0.01261288020759821, -0.1812925934791565, -0.06067310646176338, -0.09381970018148422, -0.03466775268316269, 0.07658304274082184, -0.13126416504383087, -0.6878275871276855, 0.0009386070305481553, 0.12989605963230133, 0.20329144597053528, 0.29124289751052856, 0.019369453191757202, -0.12022386491298676], [0.07132837921380997, -0.032700203359127045, 0.12578628957271576, 0.09803100675344467, 0.0663185864686966, -0.06828735023736954, -0.04983678460121155, -0.1484730839729309, -0.3367162048816681, 0.09447207301855087, -0.19383592903614044, 0.36239373683929443, 0.05707985907793045, -0.0779082253575325, -0.08243255317211151, 0.035431649535894394, 0.11025337874889374, 0.15782390534877777, 0.028781738132238388, -0.1163344606757164, 0.16282595694065094, 0.03954007849097252, 0.2811450958251953, -0.058049194514751434, 0.0880434438586235, -0.2363957315683365, -0.21112197637557983, -0.03202507272362709, 0.02701997198164463, 0.020599763840436935, -0.0643705278635025, -0.16877757012844086, 0.11697705835103989, 0.11034826934337616, 0.03739267215132713, -0.06402157247066498, -0.13864172995090485, -0.06347721815109253, 0.11436093598604202, 0.05053179711103439, 0.011153408326208591, 0.1619696021080017, 0.10520157217979431, -0.0024667999241501093, -0.0056327516213059425, 0.017626924440264702, -0.0407891646027565, -0.001827635453082621, 0.023514527827501297, 0.100056491792202, -0.038536813110113144, -0.10573549568653107, -0.10481871664524078, 0.030291276052594185, 0.050034575164318085, -0.025964856147766113, 0.05361360311508179, -0.09932897984981537, -0.06724052131175995, -0.27815547585487366, 0.07360337674617767, 0.10433168709278107, 0.05688947066664696, 0.050025824457407], [0.11752139031887054, 0.045239806175231934, -0.019110528752207756, -0.10874757170677185, -0.078117236495018, -0.16757653653621674, 0.035111986100673676, 0.13997432589530945, -0.002601764863356948, -0.02580898441374302, 0.23365522921085358, 0.098574697971344, -0.04049716889858246, 0.10259485989809036, 0.11992313712835312, -0.13434121012687683, 0.15496312081813812, -0.0745939314365387, -0.0678132027387619, -0.0978730097413063, -0.29245737195014954, -0.05830654501914978, 0.2943408489227295, -0.049076661467552185, 0.05977681651711464, -0.002038043225184083, -0.002796360058709979, -0.48055610060691833, -0.03414645045995712, -0.0527883805334568, 0.01615232601761818, -0.0024942010641098022, 0.2165592461824417, 0.21560102701187134, -0.08476117253303528, 0.07763233780860901, -0.02037041075527668, 0.019933996722102165, -0.0037928109522908926, -0.10121577978134155, -0.25669634342193604, -0.13453854620456696, 0.11651360243558884, -0.012586887925863266, 0.04491648077964783, 0.08801066875457764, -0.060991790145635605, -0.43751782178878784, -0.09044357389211655, 0.12147746235132217, 0.3469926714897156, -0.0018921926384791732, 0.46113333106040955, -0.1276698112487793, -0.06296220421791077, -0.018644148483872414, 0.13101473450660706, -0.13037380576133728, 0.03402533382177353, 0.20000560581684113, 0.1438077986240387, -0.0824446976184845, -0.1475059539079666, -0.01024733018130064], [-0.2668996751308441, 0.034411557018756866, -0.16140002012252808, -1.3309556245803833, 0.006169659551233053, -0.05705218017101288, -0.2798878848552704, 0.08522091060876846, 0.3263489603996277, -0.09107353538274765, -0.061617378145456314, -0.5842738747596741, 0.10004738718271255, 0.13240474462509155, 0.038204606622457504, 0.205320805311203, -0.13780592381954193, -0.299185574054718, 0.20970432460308075, -0.17503945529460907, 0.054692916572093964, -0.1417960673570633, -0.786787748336792, 0.25972631573677063, -0.0031953868456184864, 0.13208240270614624, -0.17532551288604736, 0.04852605238556862, 0.21144896745681763, -0.0912390798330307, -0.010531961917877197, -0.1491260677576065, 0.2208564579486847, 0.011233488097786903, 0.029294120147824287, -0.03863011673092842, -0.32909107208251953, 0.22682951390743256, 0.02965843863785267, 0.16110824048519135, -0.009854931384325027, 0.24395503103733063, -0.23681709170341492, 0.20157848298549652, -0.09119702875614166, 0.10735726356506348, -0.2894734740257263, 0.18772059679031372, -0.04273408651351929, -0.16529417037963867, -0.002408874686807394, 0.1461470127105713, 0.21733374893665314, -0.039589278399944305, -0.2641245722770691, -0.0527196079492569, -0.007068346720188856, 0.038010768592357635, -0.07428374141454697, 0.30635035037994385, -0.3619162440299988, 0.0013808738440275192, -0.14529050886631012, 0.035541076213121414], [-0.19145454466342926, 0.12490146607160568, 0.06122056022286415, 0.06912244856357574, -0.010293577797710896, -0.08835482597351074, 0.050297800451517105, 0.008364361710846424, -0.2343256175518036, -0.062476858496665955, 0.0650557354092598, -0.16498811542987823, 0.11036821454763412, -0.034396979957818985, -0.16252195835113525, -0.014936277642846107, -0.11474521458148956, 0.11081996560096741, 0.07555154711008072, -0.23879176378250122, -0.014615644700825214, -0.10251010954380035, 0.04726910963654518, -0.11895682662725449, -0.024370765313506126, 0.18288350105285645, 0.09738652408123016, 0.09557662159204483, 0.17361687123775482, 0.015538391657173634, 0.07826346904039383, 0.06435054540634155, 0.0027937896084040403, -0.05229233205318451, 0.05970720574259758, -0.04509775713086128, 0.052158694714307785, -0.061994146555662155, 0.016611561179161072, -0.049631521105766296, 0.03893198445439339, -0.14122316241264343, 0.06473856419324875, -0.09981969743967056, 0.015445167198777199, -0.029051339253783226, -0.05674154683947563, -0.12494248896837234, 0.11258792132139206, 0.10463158786296844, -0.0034355639945715666, -0.0974927693605423, 0.17452304065227509, -0.11206547915935516, -0.0693589523434639, 0.05490977689623833, 0.040865764021873474, 0.08089316636323929, -0.14237426221370697, -0.022325430065393448, 0.07813555747270584, -0.12316936254501343, 0.13710744678974152, 0.0870043933391571], [0.5789473056793213, -0.12176083028316498, 0.08780425786972046, -0.24696914851665497, -0.20771174132823944, -0.02734510973095894, -0.040066879242658615, -0.7762449979782104, -0.3492498993873596, 0.10498697310686111, 0.29090580344200134, 0.2269544005393982, 0.023442162200808525, 0.056238673627376556, 0.09871797263622284, -0.043411724269390106, 0.07764840871095657, 0.4113479554653168, -0.03039955534040928, 0.12465498596429825, 0.052186865359544754, -0.24340564012527466, 0.2592996656894684, -0.29774168133735657, -0.4827597439289093, -0.8702125549316406, 0.07496286183595657, -0.7347070574760437, -0.21354074776172638, -0.14802952110767365, 0.3609452247619629, 0.0776180699467659, 0.07408488541841507, -0.5944731831550598, -0.002537738997489214, 0.20155878365039825, -0.10906457901000977, -0.5118371844291687, -0.04503175616264343, -0.3192357122898102, 0.019645076245069504, -0.19416961073875427, 0.23972530663013458, 0.18029332160949707, 0.3362634479999542, -0.2846408784389496, 0.3648547828197479, -0.9832319021224976, -0.37973397970199585, -0.204059898853302, 0.12888969480991364, -0.2761189341545105, -0.39549779891967773, -0.3640458285808563, 0.08796581625938416, 0.4428413212299347, 0.05303056538105011, -0.45645055174827576, -0.25085094571113586, 0.17658081650733948, -0.010268904268741608, -0.1660933494567871, 0.06916201859712601, 0.06935067474842072], [0.205964595079422, -0.0996791198849678, -0.09578363597393036, 0.05414939299225807, -0.19689823687076569, -0.18941174447536469, 0.09149696677923203, 0.39726996421813965, 0.50681072473526, 0.11506951600313187, 0.1999359130859375, -0.21904362738132477, 0.21988648176193237, 0.07486981153488159, 0.03222234547138214, -0.10988836735486984, -0.2169729471206665, -0.3180135190486908, 0.040186695754528046, -0.012298015877604485, -0.042546141892671585, -0.06341779977083206, -0.3579024374485016, 0.23782934248447418, -0.08115234971046448, -0.08906478434801102, 0.06634444743394852, -0.004770302213728428, 0.0702705830335617, -0.25333091616630554, 0.006624793633818626, -0.010599871166050434, -0.07089895009994507, 0.1542644202709198, -0.06321927905082703, -0.025997888296842575, 0.0007575896452181041, 0.045865628868341446, 0.15391205251216888, 0.06483292579650879, -0.050703469663858414, -0.08714926242828369, -0.14256559312343597, 0.13348320126533508, -0.04971010237932205, 0.038474615663290024, 0.201242133975029, -0.17144538462162018, -0.02842641994357109, 0.07107589393854141, -0.5156265497207642, 0.07565538585186005, -0.041482262313365936, 0.03588016331195831, -0.0032786300871521235, 0.007604867219924927, -0.27251023054122925, 0.34844234585762024, -0.10237322002649307, 0.09244789183139801, -0.02962832897901535, 0.09581281244754791, -0.024012116715312004, 0.09209530055522919], [0.4943529963493347, -0.1655646711587906, 0.05912932753562927, -0.9022112488746643, 0.18164224922657013, 0.2843833863735199, -0.04765832796692848, -0.07852336764335632, 0.1952509880065918, 0.13951465487480164, 0.27238643169403076, 0.5842760801315308, 0.14189715683460236, -0.1398153156042099, -0.05388824641704559, -0.005889671389013529, -0.020420560613274574, -0.0007172140758484602, -0.42219507694244385, 0.10215573757886887, 0.03740658983588219, -0.09995447099208832, 0.12102551013231277, -0.2024860680103302, 0.06492312997579575, 0.12078196555376053, 0.009904240258038044, -0.004043665714561939, 0.06759359687566757, -0.025960316881537437, -0.1032821387052536, 0.16237060725688934, -0.7149336338043213, -0.20244529843330383, 0.40973225235939026, -0.0389527902007103, 0.06993049383163452, -0.12038276344537735, -1.09231698513031, 0.002568327821791172, 0.05980117619037628, -0.836307942867279, 0.3158619999885559, -0.47471001744270325, 0.16746531426906586, -0.15583373606204987, -0.420867919921875, 0.15879365801811218, 0.024947209283709526, 0.12187228351831436, 0.035845797508955, -0.23837141692638397, 0.22854363918304443, -0.03901316970586777, -0.32013389468193054, -0.04310794174671173, 0.016274042427539825, -0.18546465039253235, -0.1499999463558197, 0.047165852040052414, -0.20537641644477844, -0.13735607266426086, -0.25120800733566284, 0.10962308943271637], [0.19814123213291168, -0.04692098870873451, -0.027960821986198425, -0.03881193697452545, -0.07525923103094101, -0.20349407196044922, 0.3951525092124939, -0.19171133637428284, 0.013339299708604813, 0.34961193799972534, -0.6717145442962646, 0.2990304231643677, -0.030005088075995445, -0.051791977137327194, -0.007562297396361828, 0.27104589343070984, 0.19623667001724243, -0.14509321749210358, -0.092580646276474, 0.4052834212779999, -0.11631594598293304, -0.08334273099899292, 0.14860588312149048, -0.21438217163085938, -0.01716436818242073, 0.27771908044815063, -0.0005063832504674792, 0.003871326334774494, -0.18819677829742432, 0.2443985641002655, -0.09936756640672684, -0.1288975179195404, 0.03295118734240532, -0.1762896031141281, 0.381251722574234, 0.16581249237060547, -0.005372241605073214, -0.09016434103250504, -0.056289248168468475, 0.039435043931007385, -0.1196083351969719, -0.0836324393749237, 0.3388083279132843, 0.1334850937128067, 0.07015088200569153, -0.36986151337623596, -0.009266527369618416, -0.05114232376217842, 0.06956592202186584, 0.04775320738554001, -0.11216249316930771, -0.07644107937812805, -0.809654712677002, -0.3020385205745697, 0.11578964442014694, 0.04606083780527115, 0.053148820996284485, 0.06177404895424843, 0.06841978430747986, 0.09645133465528488, 0.23062123358249664, 0.002493936801329255, 0.09455561637878418, 0.11953439563512802], [0.053077924996614456, -0.24365361034870148, 0.06330915540456772, -0.23819705843925476, -0.0894864946603775, -0.21655449271202087, 0.16712231934070587, -0.23386968672275543, -0.18655942380428314, 0.26267215609550476, 0.07503192126750946, -0.10456765443086624, -0.05820344388484955, -0.10270220041275024, -0.055073533207178116, 0.11829480528831482, 0.12962459027767181, 0.04700832813978195, 0.15460358560085297, -0.13833333551883698, 0.39850109815597534, -0.23645560443401337, 0.1823246031999588, 0.054134901612997055, 0.020491164177656174, -0.25205299258232117, -0.012478326447308064, 0.19218049943447113, 0.09753260016441345, 0.010387642309069633, 0.055497895926237106, -0.04608739912509918, 0.2943437993526459, -0.02773655205965042, 0.018392743542790413, 0.20745466649532318, -0.0804625153541565, 0.08536240458488464, 0.10760720074176788, -0.1082940325140953, -0.12214797735214233, 0.002579557942226529, 0.11460386961698532, 0.2302834689617157, -0.11856041103601456, -0.12112801522016525, -0.06806646287441254, 0.009980653412640095, -0.13562923669815063, 0.049581389874219894, 0.05240800976753235, -0.28207796812057495, 0.10102903097867966, 0.09966590255498886, -0.1475091427564621, 0.06477123498916626, 0.21933618187904358, -0.3157747685909271, 0.169806107878685, 0.07744655013084412, 0.3915257453918457, 0.10014288872480392, -0.004526920150965452, -0.004648338537663221], [0.009570877067744732, 0.13007834553718567, -0.1062777191400528, -0.24324533343315125, -0.08364038169384003, -0.0725809782743454, -0.07842161506414413, 0.05645103007555008, 0.3324829339981079, -0.009762178175151348, 0.03814160078763962, -0.36889296770095825, -0.08892083913087845, -0.02520150877535343, -0.01982991024851799, 0.3119073510169983, 0.17715050280094147, -0.0348244309425354, 0.10759679228067398, 0.18069930374622345, 0.018252946436405182, 0.02062530256807804, -0.3097352087497711, 0.1468658149242401, -0.056280165910720825, 0.14498120546340942, -0.10554579645395279, -0.1489945352077484, -0.027859531342983246, 0.03171566501259804, -0.15699699521064758, -0.12931038439273834, 0.027788104489445686, 0.14799228310585022, -0.09267983585596085, 0.08354990184307098, -0.02370111644268036, -0.028165362775325775, -0.03889056295156479, 0.020461034029722214, -0.19312185049057007, 0.015169973485171795, -0.28709957003593445, 0.10721403360366821, -0.07653320580720901, 0.046784043312072754, -0.13481886684894562, -0.07090633362531662, 0.05021233856678009, -0.15101470053195953, 0.04719831794500351, 0.16343416273593903, 0.37080323696136475, -0.018360164016485214, -0.04550909996032715, -0.020511846989393234, -0.2622666656970978, 0.4463719129562378, 0.10366430133581161, -0.03234385699033737, 0.009939966723322868, 0.00010505899990675971, -0.06373494118452072, -0.10977866500616074], [0.09252648800611496, 0.05725719779729843, 0.052291389554739, 0.02080993354320526, -0.22916878759860992, -0.163455531001091, -0.1177344098687172, -0.08954598009586334, 0.2815995514392853, -0.09080948680639267, 0.0218774676322937, -0.106486976146698, 0.04675455018877983, 0.07015767693519592, 0.04354245960712433, 0.02732705883681774, 0.033614881336688995, -0.026355959475040436, 0.01614971272647381, 0.03655637800693512, -0.8056138753890991, 0.06855423003435135, 0.030041750520467758, -0.0006174340378493071, 0.0494367815554142, -0.03265776485204697, -0.2650241255760193, 0.007676700130105019, -0.15052978694438934, -0.10628071427345276, 0.09599965065717697, -0.07942034304141998, -0.006083755288273096, -0.08836646378040314, 0.13370659947395325, 0.06373688578605652, 0.09405592828989029, -0.18101730942726135, -0.0703488364815712, -0.14022588729858398, 0.14047253131866455, -0.05606577917933464, -0.043081287294626236, 0.18868975341320038, -0.013761039823293686, -0.03293541446328163, 0.02726581133902073, -0.26259487867355347, 0.08817290514707565, 0.11570710688829422, 0.04484836384654045, 0.07215060293674469, 0.10668643563985825, 0.07068624347448349, 0.05278146639466286, 0.13852612674236298, -0.12690137326717377, 0.11820565909147263, 0.019792266190052032, -0.000561630236916244, 0.053903572261333466, 0.04639960825443268, 0.12231609225273132, 0.040019795298576355], [-0.2576873302459717, 0.2616420090198517, 0.06739018112421036, 0.029944907873868942, 0.008984816260635853, 0.03886222466826439, 0.13285697996616364, 0.29562854766845703, -0.00618748227134347, -0.11390499770641327, 0.11510448157787323, -0.15054552257061005, -0.020940175279974937, 0.3317509591579437, 0.09629854559898376, -0.1286391019821167, 0.2057761549949646, -0.34539595246315, -0.044778116047382355, 0.004572032485157251, 0.1215130165219307, -0.012359727174043655, -0.16429515182971954, -0.11128471791744232, -0.03201793134212494, 0.16919605433940887, -0.056837305426597595, 0.07607485353946686, 0.04072393476963043, 0.10308895260095596, 0.007843147963285446, -0.011996997520327568, -0.3633660674095154, -0.011268988251686096, -0.050234537571668625, 0.18665964901447296, -0.2574726343154907, 0.1241450235247612, -0.2530645430088043, 0.14334623515605927, -0.21128475666046143, -0.08226980268955231, -0.1621607542037964, 0.23535999655723572, -0.24798676371574402, 0.02634894847869873, 0.12913274765014648, -0.07237344235181808, -0.14041560888290405, 0.06769539415836334, 0.3078935146331787, -0.05095921829342842, -0.26226606965065, -0.10636656731367111, 0.09526275843381882, 0.12532632052898407, 0.17838217318058014, 0.002933001844212413, -0.2067568600177765, 0.012479926459491253, -0.05394911766052246, 0.3381730914115906, -0.04945499449968338, -0.12970386445522308], [0.043042343109846115, 0.03316723555326462, -0.1126895546913147, -0.022010665386915207, 0.12539295852184296, 0.032671332359313965, 0.0012999357422813773, 0.03402116149663925, -0.3933089077472687, 0.0965128242969513, -0.19497250020503998, 0.14310522377490997, -0.1617799550294876, 0.18902705609798431, 0.0462617389857769, 0.01980961672961712, -0.022898251190781593, -0.015759382396936417, 0.1855076402425766, -0.04251580312848091, -0.39731496572494507, 0.3603686988353729, 0.06763290613889694, 0.08810947835445404, -0.08242111653089523, -0.08301049470901489, -0.06309710443019867, -0.18672429025173187, -0.09988375753164291, 0.002870615804567933, 0.10382349789142609, -0.04532771185040474, -0.16701263189315796, 0.22697941958904266, -0.7597064971923828, -0.20331400632858276, 0.05713445693254471, 0.1976344883441925, 0.07121583819389343, -0.06421200931072235, -0.04667314887046814, -0.034905266016721725, -0.28824183344841003, 0.08285915106534958, -0.07536203414201736, 0.04247784987092018, 0.007346038706600666, -0.18635427951812744, 0.06418702751398087, -0.39941227436065674, -0.18141596019268036, 0.0943036675453186, 0.3349778950214386, -0.03979223966598511, 0.2509337067604065, -0.4773311913013458, 0.006212106440216303, 0.41888853907585144, -0.18151989579200745, 0.09266643226146698, 0.05282023176550865, -0.13113544881343842, -0.06060782074928284, -0.15136376023292542], [-0.09301085025072098, -0.18020154535770416, -0.011861375533044338, -0.014262941665947437, -0.10207878798246384, -0.046444833278656006, -0.2383849173784256, 0.025210438296198845, -0.1327892243862152, 0.037030525505542755, -0.2036494016647339, 0.04875948652625084, -0.05349718779325485, -0.09538517147302628, 0.1408657282590866, -0.015984872356057167, -0.07552305608987808, 0.06412506848573685, 0.04040411859750748, -0.10935640335083008, 0.18128201365470886, -0.03365907818078995, 0.06601714342832565, 0.10360701382160187, 0.05298309400677681, -0.23557618260383606, -0.09612121433019638, -0.03759950399398804, -0.14277467131614685, -0.12245328724384308, 0.08234766125679016, -0.0027505243197083473, 0.06689427047967911, -0.007361697033047676, -0.02032269537448883, 0.013872873038053513, -0.022085092961788177, -0.09847095608711243, 0.03933800384402275, -0.028065649792551994, 0.039048682898283005, -0.03742654621601105, -0.07022034376859665, -0.041987206786870956, -0.03991285711526871, -0.15753643214702606, 0.07137036323547363, -0.12166909873485565, -0.04141644015908241, 0.11566248536109924, 0.11060398072004318, -0.15396146476268768, 0.13775593042373657, 0.055821601301431656, -0.01888452284038067, 0.2785167694091797, -0.08063919842243195, -0.08494880795478821, -0.09319674968719482, -0.15399661660194397, -0.029812170192599297, 0.02210535854101181, 0.14758510887622833, 0.04793541505932808], [-0.03460615500807762, -0.18165598809719086, 0.08119574934244156, -0.03159235790371895, -0.18954499065876007, -0.015144925564527512, 0.08875694125890732, 0.026683304458856583, 0.04572996497154236, -0.050248537212610245, -0.14036035537719727, 0.14153066277503967, 0.12989376485347748, 0.029268797487020493, -0.07873877882957458, -0.08905024826526642, 0.048961982131004333, 0.1150214895606041, -0.1784585863351822, 0.28788185119628906, 0.32469162344932556, -0.07108353078365326, 0.18206994235515594, -0.25537118315696716, 0.07362498342990875, 0.0923393964767456, 0.0631711557507515, 0.09689797461032867, -0.006364124361425638, 0.04840874299407005, 0.023665597662329674, 0.020289629697799683, 0.06798654049634933, -0.3064415454864502, 0.16387541592121124, 0.00731453625485301, 0.07165268063545227, -0.19640794396400452, 0.1071554571390152, -0.012239722535014153, 0.08352697640657425, -0.06040707975625992, 0.16433456540107727, -0.5281521081924438, 0.13802555203437805, -0.2974932789802551, 0.2775636315345764, -0.012859922833740711, -0.07845467329025269, -0.14361192286014557, 0.11780160665512085, -0.17194359004497528, -0.2692153751850128, 0.05766952037811279, 0.17698203027248383, 0.022073980420827866, -0.13110968470573425, -0.2452268749475479, 0.07018319517374039, -0.04712394252419472, 0.14090240001678467, 0.03515835478901863, -0.08725935965776443, 0.016871416941285133], [-0.11056762933731079, 0.19874164462089539, -0.1835709661245346, 0.006141649559140205, -0.04184992238879204, -0.3231147527694702, 0.170272096991539, 0.1382462978363037, 0.13040241599082947, 0.13684114813804626, 0.2372686266899109, -0.09797158092260361, 0.11126702278852463, 0.016875850036740303, 0.013618185184895992, 0.11692426353693008, -0.2145320028066635, 0.1201319471001625, 0.25826165080070496, 0.008194850757718086, -0.30324167013168335, -0.02341885305941105, -0.12793821096420288, -0.8885892033576965, 0.007709848694503307, -0.13889066874980927, 0.13437841832637787, 0.06762836873531342, 0.06196914613246918, -0.15154407918453217, 0.09968112409114838, 0.20326334238052368, -0.12968459725379944, -0.17376625537872314, -0.4465000629425049, 0.08282466977834702, 0.08973284065723419, -0.10794033855199814, -0.01209317333996296, -0.06552610546350479, -0.12825462222099304, 0.031874313950538635, -0.046800438314676285, 0.2085619568824768, 0.08261140435934067, 0.018106037750840187, 0.33414873480796814, -0.2491149604320526, -0.23543165624141693, -0.06874611973762512, 0.2569347321987152, 0.2301279455423355, -0.13896913826465607, 0.09863957017660141, -0.02057921513915062, 0.018296677619218826, -0.0317230150103569, -0.31619054079055786, 0.11692735552787781, -0.0024537891149520874, -0.18731313943862915, 0.06084008142352104, 0.044040754437446594, -0.05608456954360008], [0.500140368938446, 0.17499470710754395, -0.16668792068958282, 0.3144088089466095, 0.0354660265147686, -0.34732064604759216, 0.12400244176387787, -0.007903528399765491, 0.10023297369480133, 0.20236901938915253, -0.32910656929016113, -0.43001922965049744, 0.05426877364516258, 0.24566678702831268, 0.2724766731262207, 0.10649864375591278, -0.1419605016708374, -0.1731165200471878, 0.3318157196044922, 0.03085116483271122, -0.18726664781570435, 0.0721869245171547, -0.16604800522327423, -0.031589459627866745, -0.12681078910827637, -0.3544102907180786, -0.37629517912864685, -0.0785335823893547, 0.025576697662472725, -0.5498105883598328, -0.0911732017993927, 0.027039701119065285, 0.18816590309143066, -0.19214953482151031, -0.36426860094070435, 0.1576078087091446, -0.08172544836997986, -0.09392008930444717, -0.007023210637271404, 0.1414492130279541, -0.07968760281801224, -0.45225563645362854, -0.45657113194465637, -0.07471224665641785, -0.24697625637054443, -0.3623381555080414, -0.013829928822815418, 0.09130577743053436, 0.2670968472957611, 0.13802219927310944, 0.08846353739500046, 0.24949678778648376, 0.28301694989204407, -0.11893823742866516, -0.04882393404841423, -0.0072182253934443, -0.02955588884651661, -0.1099267229437828, -0.04090702906250954, 0.5182551741600037, -0.13108955323696136, -0.1379244178533554, -0.3156239688396454, 0.026145001873373985], [-0.1695142239332199, -0.028334802016615868, -0.12147195637226105, 0.04232051223516464, 0.05900105834007263, 0.08083850890398026, 0.01557004265487194, 0.1954433172941208, -0.17201218008995056, 0.09026768058538437, 0.1588287353515625, -0.4554399251937866, -0.10575561225414276, 0.14866629242897034, 0.01734023727476597, -0.13924728333950043, 0.07439024746417999, -0.02708255685865879, 0.02570069208741188, -0.3255477249622345, 0.1844920963048935, 0.035099659115076065, 0.09754519909620285, 0.13330867886543274, -0.16739237308502197, -0.048646099865436554, -0.004667934495955706, -0.09285106509923935, -0.1598060131072998, 0.00011281658225925639, -7.24038400221616e-05, 0.16072793304920197, -0.10715550929307938, -0.12140856683254242, -0.15996098518371582, 0.06764653325080872, -0.11354546993970871, 0.013349090702831745, -0.0721650943160057, -0.04634776711463928, 0.0772976279258728, 0.39986464381217957, -0.08244403451681137, -0.005810955073684454, -0.008411773480474949, -0.04702466353774071, 0.10641634464263916, -0.18082956969738007, -0.14681966602802277, 0.22810178995132446, 0.0795016959309578, -0.20271724462509155, 0.471560001373291, 0.01572156697511673, 0.17961740493774414, 0.2513914108276367, -0.052239179611206055, -0.08675717562437057, -0.12056697905063629, -0.049256134778261185, 0.060719821602106094, 0.09112554788589478, -0.12927024066448212, 0.006865676026791334], [0.11889869719743729, -0.11246584355831146, 0.014667392708361149, 0.10460317134857178, 0.13933856785297394, 0.06662134826183319, -0.1797698587179184, 0.06571962684392929, 0.10285655409097672, -0.07098663598299026, 0.07127834111452103, 0.2183040976524353, -0.2032914161682129, 0.08645670115947723, 0.015743106603622437, 0.09402050077915192, -0.03706766292452812, 0.22775132954120636, -0.017201552167534828, -0.183351069688797, -0.00903319101780653, -0.03769667446613312, -0.14317642152309418, -0.15859198570251465, 0.07000182569026947, -0.2091686725616455, -0.0412655845284462, -0.012637648731470108, -0.10597571730613708, 0.2827666997909546, 0.11915498971939087, 0.003935769200325012, -0.046718817204236984, 0.20852874219417572, 0.16326415538787842, -0.025233836844563484, 0.08670627325773239, -0.01677973009645939, 0.15663312375545502, 0.08046954870223999, -0.1033226028084755, 0.014112532138824463, 0.11320663243532181, 0.10414160788059235, -0.15297013521194458, -0.12377140671014786, 0.06187033653259277, 0.3095947206020355, -0.1297876089811325, -0.2931388318538666, -0.2150598168373108, -0.13894051313400269, -0.18072916567325592, -0.034660015255212784, -0.018780888989567757, 0.12426676601171494, -0.11229341477155685, -0.06886865943670273, -0.056003641337156296, -0.1301179826259613, -0.026009060442447662, -0.3171614706516266, 0.12022832036018372, 0.07001607865095139], [-0.03130043298006058, -0.12756922841072083, 0.005813345778733492, -0.08606573194265366, -0.029753156006336212, 0.027057547122240067, -0.04703165963292122, 0.09004218131303787, -0.018282297998666763, -0.19844010472297668, 0.268948495388031, -0.14459601044654846, 0.08568942546844482, 0.067510224878788, 0.005809354595839977, -0.012318339198827744, -0.14884795248508453, -0.11298339813947678, 0.15261533856391907, 0.017071200534701347, -0.06561168283224106, -0.04575566574931145, 0.14866071939468384, 0.11451401561498642, 0.09070638567209244, 0.007218620274215937, 0.05318862944841385, 0.1621699184179306, -0.288237601518631, -0.13587221503257751, -0.16640737652778625, -0.1827305555343628, 0.034678537398576736, -0.0862659141421318, 0.039517227560281754, 0.12075977772474289, -0.06731459498405457, 0.10543055832386017, -0.01490639429539442, -0.023620424792170525, -0.04225311800837517, -0.21755464375019073, 0.07011312991380692, -0.08339768648147583, -0.07980736345052719, -0.3256233036518097, 0.02218036726117134, 0.13115543127059937, -0.15298773348331451, 0.18276259303092957, 0.1291378140449524, -0.08680160343647003, 0.20669399201869965, 0.01455105934292078, 0.024056052789092064, -0.010839483700692654, 0.008734647184610367, -0.17441193759441376, 0.03728336840867996, 0.12462916970252991, 0.02194829285144806, 0.053275614976882935, -0.02144542522728443, 0.2216787189245224], [-0.11427900195121765, -0.21443215012550354, 0.16616174578666687, -0.2495279759168625, 0.02489929273724556, 0.22519344091415405, 0.13287587463855743, -0.0846601352095604, 0.1791698932647705, 0.09504175186157227, -0.020798010751605034, 0.2271895557641983, -0.059468626976013184, -0.20695605874061584, -0.09314128756523132, 0.07137350738048553, 0.014404107816517353, -0.3047487735748291, 0.016030889004468918, -0.2337273359298706, 0.21553610265254974, -0.12893109023571014, 0.2932705879211426, 0.030055833980441093, 0.17333917319774628, 0.07247468084096909, 0.0779920369386673, -0.05051542446017265, -0.020672205835580826, -0.3112005889415741, -0.07448767125606537, -0.12487397342920303, 0.06734935194253922, -0.13007411360740662, 0.1309589147567749, 0.13646961748600006, -0.09778308123350143, -0.06127967685461044, 0.131026029586792, 0.05048408731818199, 0.1510453224182129, 0.0873083844780922, 0.09302880614995956, -0.029016511514782906, -0.11471155285835266, -0.10179457813501358, -0.20729339122772217, -0.0009096285211853683, -0.060291752219200134, 0.020444272086024284, -0.24609370529651642, -0.042676374316215515, -0.41840073466300964, 0.1172720268368721, -0.039636123925447464, -0.11465957760810852, -0.23233644664287567, 0.06267393380403519, 0.07072341442108154, -0.031015610322356224, 0.1742676943540573, -0.14841879904270172, -0.03793352469801903, 0.03250022977590561], [-0.05984101817011833, 0.10299848020076752, -0.028863955289125443, -0.11999472230672836, 0.015897857025265694, 0.04552023485302925, 0.23652559518814087, 0.03920983523130417, -0.35101842880249023, 0.11069988459348679, 0.24683327972888947, 0.12042336165904999, -0.002085741376504302, 0.13657532632350922, -0.13956373929977417, 0.09325308352708817, 0.2990739345550537, 0.11484751850366592, -0.058573365211486816, 0.21485386788845062, 0.36824992299079895, 0.029934827238321304, -0.05255834013223648, -0.0030691877473145723, 0.1317986696958542, 0.017876626923680305, 0.07983569800853729, 0.010363951325416565, -0.06388607621192932, 0.2928413152694702, -0.1505035161972046, -0.12679758667945862, 0.059589117765426636, -0.16108159720897675, 0.06491363048553467, 0.0436055064201355, -0.12271320819854736, 0.10037215054035187, 0.33522018790245056, 0.015159063041210175, 0.002258568536490202, -0.2504903972148895, 0.03718867897987366, 0.2096877098083496, 0.18127141892910004, -0.08095449954271317, 0.09593934565782547, 0.07019662111997604, -0.01787102222442627, -0.4841858744621277, -0.0855342298746109, 0.15311303734779358, -0.4687750041484833, -0.16078349947929382, 0.14919514954090118, -0.17687605321407318, -0.032047390937805176, 0.20963406562805176, -0.21431882679462433, -0.07290756702423096, -0.1501988023519516, -0.024477649480104446, 0.0806444063782692, 0.044843509793281555], [-0.09478414803743362, -0.14738549292087555, -0.034116923809051514, -0.14022988080978394, 0.0791236087679863, 0.008539714850485325, 0.14060932397842407, -0.07578330487012863, 0.09259101003408432, -0.05744066461920738, -0.0964747816324234, -0.019406132400035858, 0.032928548753261566, -0.13746145367622375, -0.16779282689094543, 0.06583023071289062, -0.032238349318504333, -0.00228848191909492, 0.1615971028804779, 0.1762285828590393, 0.032234009355306625, -0.036914147436618805, -0.15906454622745514, 0.001393500017002225, 0.021620281040668488, 0.003233508439734578, 0.014393653720617294, -0.021162834018468857, -0.05287664756178856, 0.15740083158016205, -0.07777608931064606, 0.10372667759656906, 0.08062926679849625, 0.15505309402942657, 0.022114256396889687, -0.016175612807273865, -0.08056005835533142, 0.15906701982021332, 0.14090833067893982, -0.12319201231002808, 0.013226673007011414, 0.09977229684591293, 0.09881389886140823, 0.03143284097313881, 0.04662849381566048, -0.045800577849149704, 0.11885545402765274, -0.055367060005664825, -0.001496924553066492, -0.05428219959139824, 0.08611581474542618, -0.032391514629125595, -0.1518830806016922, -0.030038785189390182, -0.059068452566862106, -0.08515558391809464, 0.04353220760822296, -0.08353518694639206, 0.04381127282977104, 0.15399904549121857, -0.067569799721241, 0.024182142689824104, 0.027657439932227135, 0.04311910644173622], [0.021436531096696854, 0.12029382586479187, 0.11022090911865234, 0.14056336879730225, -0.04895997419953346, -0.030022868886590004, 0.05518621206283569, -0.1343415379524231, -0.16527672111988068, -0.01677260920405388, 0.10476835817098618, -0.07244996726512909, 0.05782805383205414, 0.018282461911439896, -0.20765802264213562, -0.06040959060192108, 0.14250066876411438, 0.002038914943113923, -0.06732680648565292, -0.02338379994034767, 0.05506513640284538, -0.08693523705005646, 0.03503750264644623, -0.1065886840224266, -0.09666163474321365, 0.08166148513555527, -0.06709073483943939, 0.11729485541582108, -0.062487855553627014, -0.01261700689792633, -0.00785751361399889, -0.023609666153788567, 0.07216032594442368, 0.04150776192545891, 0.05679789185523987, -0.07211083173751831, -0.2906072735786438, 0.011646674014627934, 0.08079806715250015, 0.09936495870351791, 0.0783785879611969, -0.25903671979904175, -0.0854082703590393, -0.06850158423185349, -0.10902778804302216, 0.009505979716777802, 0.483735591173172, 0.2782479226589203, 0.08367391675710678, 0.02072429470717907, 0.034332290291786194, 0.09908267855644226, 0.011754863895475864, 0.0850546583533287, -0.06692099571228027, 0.09541117399930954, -0.11944580078125, 0.01971859484910965, 0.048606548458337784, -0.07439543306827545, -0.20716844499111176, 0.1735474020242691, -0.08906766027212143, -0.029382824897766113], [0.059505924582481384, -0.09249918162822723, -0.03304094076156616, 0.03287479653954506, -0.009565576910972595, 0.001807955326512456, 0.058393243700265884, -0.09334173798561096, -0.004503860604017973, 0.0692053809762001, -0.10353983938694, 0.0037417588755488396, 0.08256025612354279, 0.05642151087522507, -0.02984699420630932, 0.10912211239337921, -0.07574291527271271, -0.015740787610411644, 0.06459026783704758, 0.08914811164140701, -0.05540787801146507, 0.02241232432425022, -0.16965343058109283, -0.1105055883526802, 0.05046270415186882, -0.17341607809066772, -0.007490428164601326, -0.16916941106319427, 0.013635087758302689, 0.11230091005563736, 0.056838568300008774, 0.02204827591776848, 0.06748257577419281, -0.2534746825695038, 0.08451501280069351, -0.014214660972356796, -0.01744314469397068, 0.03665148839354515, -0.030163558200001717, 0.08897674828767776, -0.36008745431900024, 0.03535444289445877, 0.08970028907060623, 0.014294108375906944, -0.027529120445251465, -0.12250914424657822, -0.06241407245397568, 0.06207399070262909, 0.06556202471256256, -0.2713799774646759, 0.008018041029572487, 0.012567486613988876, 0.3635168671607971, -0.12075475603342056, -0.028395870700478554, -0.07046123594045639, -0.1185496598482132, -0.12433622777462006, -0.11424072831869125, 0.10110896080732346, -0.10466849058866501, 0.055778756737709045, -0.09797164052724838, -0.0045899986289441586], [-0.26863306760787964, 0.037377435714006424, -0.26496317982673645, -0.18607112765312195, -0.08393314480781555, 0.06629472970962524, -0.21370398998260498, -0.06811381131410599, 0.4457995295524597, -0.052742280066013336, -0.27531296014785767, -0.10232225805521011, 0.09885717928409576, -0.10811030864715576, 0.11505301296710968, 0.19480903446674347, 0.1778770387172699, -0.06391433626413345, -0.032644208520650864, -0.14087067544460297, 0.31152570247650146, 0.016715500503778458, -0.05885358154773712, 0.13451097905635834, 0.13681842386722565, 0.450939804315567, -0.09525452554225922, 0.13740991055965424, -0.14472012221813202, -0.263650119304657, -0.14386099576950073, -0.17541395127773285, -0.02830819971859455, 0.009150994941592216, -0.10037480294704437, -0.08533988147974014, -0.10559877008199692, 0.021123506128787994, -0.11200794577598572, -0.06454765051603317, -0.08982318639755249, -0.15978072583675385, 0.06647897511720657, -0.32404571771621704, 0.0720948725938797, -0.16301482915878296, -0.19887351989746094, 0.07814306020736694, 0.1997210681438446, -0.08650846034288406, 0.03556672856211662, 0.13590452075004578, -0.36602070927619934, -0.043004121631383896, -0.055224474519491196, 0.04868004843592644, -0.1150604784488678, -0.2365618348121643, -0.051210835576057434, -0.11137861013412476, 0.1840745061635971, 0.15755638480186462, -0.2121046781539917, -0.06663815677165985], [0.35339027643203735, -0.11923320591449738, 0.2130284309387207, -0.062986820936203, -0.007217282894998789, 0.049371782690286636, -0.040929388254880905, -0.282961905002594, 0.19859330356121063, -0.09564301371574402, -0.3163915276527405, -0.4836884140968323, -0.18144604563713074, -0.30818191170692444, -0.239234060049057, 0.08762490749359131, -0.2756277620792389, -0.8183728456497192, -0.27624234557151794, -0.16422390937805176, 0.07473460584878922, -0.027217060327529907, -0.29069453477859497, 0.10536523163318634, -0.33483511209487915, 0.016184303909540176, -0.16810746490955353, 0.11008742451667786, -0.16583828628063202, 0.22823458909988403, -0.3598465919494629, -0.0027274589519947767, -0.012089197523891926, 0.058862052857875824, 0.3596267104148865, 0.133784681558609, -0.005953407846391201, -0.07984436303377151, -0.2745421826839447, -0.25208592414855957, 0.1587333381175995, -0.0949259102344513, -0.2663730978965759, 0.14444051682949066, -0.2592744529247284, 0.21238748729228973, 0.2649269998073578, 0.03193964436650276, -0.05865388363599777, 0.45184290409088135, 0.10976199060678482, -0.4675293564796448, 0.7578110694885254, 0.2701340615749359, -0.25808173418045044, -0.16799163818359375, 0.05740015581250191, 0.5174426436424255, 0.1929205060005188, 0.11284712702035904, -0.08278433978557587, 0.02246014215052128, -0.36252906918525696, -0.21423682570457458], [-0.15443970263004303, -0.24068044126033783, -0.07409272342920303, -0.014470363967120647, -0.20391735434532166, -0.07313637435436249, 0.05018328130245209, -0.06285769492387772, -0.11646122485399246, 0.010379028506577015, 0.23623952269554138, 0.08171024918556213, -0.1354207992553711, -0.03913159295916557, 0.07318078726530075, -0.11277628690004349, -0.5692510604858398, -0.16747422516345978, -0.2367592453956604, -0.02988673374056816, 0.12214356660842896, -0.2013617902994156, 0.2802254557609558, 0.2033151537179947, 0.2324637919664383, 0.31886154413223267, -0.04267429560422897, 0.06878591328859329, 0.18522849678993225, 0.07649780809879303, 0.03715529292821884, 0.21764560043811798, 0.18598423898220062, -0.08165587484836578, -0.044232264161109924, -0.13545338809490204, 0.022690610960125923, -0.03917205333709717, -0.12650394439697266, 0.1628861278295517, -0.08747614920139313, 0.056831371039152145, -0.8531630039215088, -0.07941780239343643, 0.12450990080833435, -0.3680306673049927, 0.13827162981033325, 0.1938854455947876, -0.058774348348379135, -0.08230116218328476, -0.20066317915916443, -0.3971622586250305, -0.2713688611984253, -0.0011398368515074253, -0.20784243941307068, -0.2659483850002289, 0.15370580554008484, -0.8568823933601379, -0.06567302346229553, -0.025146247819066048, -0.041247330605983734, 0.11604494601488113, -0.29105767607688904, -0.16248388588428497], [0.21204717457294464, 0.06528695672750473, -0.04277312755584717, -0.24894407391548157, 0.32529324293136597, -0.0723336711525917, 0.17733730375766754, -0.1438625305891037, -0.0398491770029068, 0.011931758373975754, -0.3692258894443512, -0.33529940247535706, 0.08408614248037338, -0.4069879949092865, 0.11975164711475372, -0.20124517381191254, -0.0350375697016716, 0.5984601974487305, -0.006420071702450514, 0.0989985540509224, -0.11452646553516388, -0.08526086807250977, 0.3703504204750061, 0.0672832652926445, -0.055139489471912384, 0.2799932062625885, -0.21042387187480927, -0.09164762496948242, 0.025536715984344482, 0.14725816249847412, -0.11716604977846146, -0.06096158176660538, -0.15591129660606384, 0.1704888790845871, -0.12936680018901825, 0.02174321375787258, 0.09055837243795395, -0.04438977688550949, -0.23974521458148956, 0.01159336045384407, 0.06234666332602501, -0.40022024512290955, 0.44562065601348877, -0.00039294056477956474, -0.27273979783058167, 0.08210601657629013, 0.3967371881008148, -0.21297043561935425, -0.18048997223377228, 0.0411800891160965, 0.10311230272054672, -0.07587375491857529, 0.3440866768360138, -0.008602391928434372, 0.026129592210054398, -0.06017268821597099, 0.15345388650894165, -0.11193142831325531, -0.16970551013946533, -0.004649344831705093, -0.043541524559259415, 0.31074801087379456, -0.012825327925384045, -0.013500651344656944], [-0.012616395018994808, 0.04019741714000702, 0.004205694887787104, -0.21614079177379608, -0.0008338670595549047, -0.008465733379125595, -0.24981454014778137, -0.2586599886417389, 0.10165740549564362, -0.03597462549805641, -0.3824063837528229, 0.11586952954530716, -0.03573151305317879, 0.03487255796790123, 0.04470821097493172, -0.08524390310049057, 0.1199285164475441, 0.023935720324516296, 0.03814331814646721, 0.2218247503042221, -0.16409343481063843, -0.0274343304336071, -0.26921412348747253, 0.16136124730110168, 0.0015649645356461406, 0.11050160229206085, -0.059493374079465866, 0.05262335017323494, 0.09735167026519775, 0.08483656495809555, -0.1426231414079666, 0.11711633950471878, -0.08915965259075165, 0.006673595402389765, 0.04277416691184044, -0.0407276451587677, 0.08115015178918839, 0.07073842734098434, -0.2661162316799164, -0.12036719918251038, 0.007898282259702682, -0.3810809552669525, -0.25836169719696045, -0.03587888926267624, 0.20490802824497223, 0.1437675952911377, -0.26407891511917114, 0.12972691655158997, -0.08108025789260864, 0.1687534600496292, 0.085724838078022, 0.014230487868189812, 0.6487807631492615, 0.07925977557897568, 0.11785432696342468, 0.01552620343863964, 0.09254240244626999, -0.06105402112007141, -0.04664367437362671, -0.018388550728559494, 0.024699831381440163, 0.012379969470202923, 0.24530547857284546, 0.029687270522117615], [0.0769665539264679, -0.11731557548046112, -0.08570978045463562, -0.008501023054122925, -0.12143836915493011, -0.11881610751152039, -0.11096656322479248, 0.10049860179424286, 0.027419373393058777, -0.03988391160964966, -0.005137354135513306, -0.10895232856273651, -0.11805632710456848, -0.08717238903045654, -0.12092980742454529, 0.0822390764951706, -0.043741375207901, -0.03374302387237549, -0.10764320194721222, 0.020702630281448364, -0.018754273653030396, -0.08509846031665802, 0.08014507591724396, 0.10536371171474457, -0.08909742534160614, 0.07082253694534302, -0.020297110080718994, -0.0011801272630691528, 0.05320607125759125, -0.022789716720581055, 0.10620541870594025, 0.07690823078155518, -0.08114148676395416, -0.07607030868530273, -0.12385000288486481, 0.04002074897289276, -0.09402334690093994, -0.10477237403392792, -0.08012089133262634, -0.12358397245407104, -0.10178038477897644, 0.11149561405181885, 0.06982317566871643, 0.11075325310230255, -0.06063513457775116, -0.051268935203552246, -0.04385848343372345, 0.002441316843032837, -0.08972068130970001, 0.018325254321098328, -0.08011235296726227, 0.019752517342567444, 0.11449968814849854, 0.021112382411956787, 0.09118051826953888, -0.08902613818645477, -0.01764047145843506, -0.07718481123447418, -0.013868361711502075, -0.04972460865974426, -0.07097354531288147, -0.12074257433414459, -0.04634910821914673, 0.016739800572395325], [0.10523288697004318, -0.04509982839226723, 0.2108798772096634, 0.4438134431838989, -0.08256660401821136, -0.001123074907809496, 0.014774159528315067, -0.2034989297389984, 0.13996170461177826, -0.11093208193778992, -0.5033894181251526, 0.0755016952753067, -0.08418701589107513, -0.3164285123348236, -0.09397006034851074, 0.137876495718956, -0.351689875125885, -0.3059433102607727, -0.03479599207639694, 0.034616563469171524, -0.05928148329257965, 0.07464853674173355, -0.44945502281188965, 0.025293752551078796, -0.051713649183511734, -0.06651633977890015, -0.15140479803085327, 0.04458305984735489, -0.294432669878006, 0.03801174834370613, -0.10346062481403351, 0.04577047750353813, -0.1365344375371933, 0.1147533729672432, 0.18936751782894135, -0.2101341336965561, -0.06586519628763199, 0.051081761717796326, -0.1070135235786438, -0.0993330106139183, -0.0051332637667655945, -0.01448898483067751, -0.4850378632545471, 0.10113957524299622, -0.09131782501935959, -0.27242806553840637, 0.5680251717567444, 0.08783286064863205, 0.2992417812347412, 0.18783609569072723, -0.09109614789485931, -0.011341127566993237, -0.3298494219779968, 0.11268088221549988, -0.2904339134693146, -0.006859206594526768, 0.0420873761177063, 0.4810729920864105, 0.04975798353552818, 0.15582945942878723, -0.5934838652610779, 0.11839582771062851, -0.11737857758998871, -0.2891632616519928], [-0.07790903002023697, -0.04017602652311325, 0.37589672207832336, -0.1560911387205124, 0.16303212940692902, 0.03820757940411568, 0.06264248490333557, -0.12337089329957962, 0.1420886069536209, 0.05695215240120888, -0.47717398405075073, 0.09256364405155182, -0.12946805357933044, 0.1389288604259491, -0.06616264581680298, -0.13407409191131592, -0.1914704591035843, -0.22682073712348938, -0.1791989654302597, -0.10896990448236465, -0.0048412238247692585, 0.1228908970952034, 0.11769647896289825, 0.0496179461479187, 0.25888895988464355, -0.05360263213515282, -0.08520419150590897, -0.03132903203368187, -0.1531497687101364, 0.007279964163899422, -0.05660426616668701, -0.13184694945812225, -0.053644150495529175, -0.07484500110149384, -0.36318275332450867, -0.14905431866645813, -0.1597723662853241, 0.08430618047714233, 0.17962177097797394, 0.04476245492696762, 0.09220541268587112, 0.22099128365516663, 0.08982528746128082, 0.13687753677368164, -0.10341867804527283, -0.07224328815937042, 0.014030152931809425, -0.0019650403410196304, -0.00974151212722063, 0.13012969493865967, -0.07808681577444077, -0.06317580491304398, -0.5716190934181213, 0.052927225828170776, 0.07305336743593216, -0.04141253978013992, -0.21745610237121582, 0.0348161943256855, 0.11427918821573257, 0.14969715476036072, -0.03618377074599266, 0.0016668849857524037, -0.06263468414545059, -1.6328173875808716], [-0.10511636734008789, -0.08261674642562866, 0.3540695905685425, -0.28302597999572754, 0.03087196871638298, 0.03882460668683052, 0.2774704098701477, -0.013548053801059723, -0.16064348816871643, -0.19255252182483673, -0.0787883922457695, -0.619022786617279, 0.06294599920511246, 0.004899364896118641, -0.07725045084953308, -0.009891950525343418, -0.022511079907417297, 0.005277864169329405, 0.136879563331604, 0.009148101322352886, -0.21305079758167267, -0.063022680580616, -0.024476468563079834, 