{"bias_net": [{"w": [[0.03341697156429291, -0.33105432987213135, -0.3322324752807617, -0.006184249185025692, 0.17424392700195312, 0.07036049664020538, 0.3040167987346649, 0.32393279671669006], [-0.24820734560489655, -0.011256369762122631, -0.3076663315296173, -0.14605800807476044, 0.2089695930480957, -0.2035655677318573, -0.027441391721367836, -0.33439722657203674], [0.2900347113609314, -0.1656476855278015, 0.17329321801662445, 0.22366438806056976, 0.03843514248728752, -0.13270892202854156, 0.021587742492556572, -0.17436817288398743], [-0.023377887904644012, 0.3216448426246643, 0.1809794008731842, -0.034194495528936386, -0.06839611381292343, 0.023946616798639297, 0.2646125257015228, -0.27734264731407166], [-0.01989681087434292, 0.1749165803194046, -0.061133962124586105, 0.32669493556022644, 0.2804998755455017, 0.04524531587958336, 0.25161072611808777, -0.05711205676198006], [-0.11055590212345123, 0.03570583835244179, -0.24711565673351288, -0.2105497270822525, 0.20469637215137482, -0.13134069740772247, 0.2726585865020752, 0.30135998129844666], [-0.1861020177602768, 0.22806178033351898, -0.26456180214881897, -0.1653479039669037, -0.337019681930542, -0.10400387644767761, -0.3307535946369171, 0.08113769441843033], [0.07267406582832336, -0.11921042203903198, 0.019426662474870682, 0.3246791660785675, -0.1960979402065277, -0.004801453091204166, 0.30787959694862366, -0.15372826159000397], [0.2890282869338989, -0.3320714235305786, 0.10237680375576019, -0.33754488825798035, -0.2171727567911148, 0.09301666170358658, -0.2087259441614151, -0.2503281533718109], [0.15212322771549225, -0.004239340778440237, -0.1327637881040573, 0.29893961548805237, 0.14284034073352814, -0.32205939292907715, 0.28363457322120667, -0.06030088663101196], [-0.1743924468755722, 0.33214569091796875, -0.11900099366903305, -0.10191356390714645, -0.020257966592907906, 0.1544753611087799, -0.27487456798553467, -0.006477506831288338], [-0.3133738338947296, 0.23087111115455627, -0.3410075008869171, 0.27902841567993164, -0.22340425848960876, 0.18226054310798645, 0.24811473488807678, -0.04697127267718315], [0.20403499901294708, 0.31718873977661133, 0.2758467495441437, -0.18611428141593933, 0.29524192214012146, 0.1362157016992569, -0.23768748342990875, -0.019320283085107803], [0.06238213926553726, -0.2970326542854309, 0.2082456350326538, 0.3510149121284485, 0.06628792732954025, -0.19062268733978271, 0.1841128170490265, -0.10186340659856796], [0.22997574508190155, -0.07373414188623428, 0.10692891478538513, -0.22764869034290314, 0.35050931572914124, 0.26737740635871887, 0.00575473066419363, 0.0973764955997467], [0.11756690591573715, -0.3480440378189087, -0.147966206073761, -0.18106883764266968, -0.028216809034347534, -0.3160054683685303, 0.23563037812709808, 0.25611260533332825], [-0.048395708203315735, 0.08812138438224792, -0.07361975312232971, -0.3112124800682068, 0.05998524650931358, 0.17881596088409424, 0.03778894618153572, -0.30127739906311035], [0.20239898562431335, -0.031027918681502342, -0.2403622567653656, -0.24550075829029083, 0.18934403359889984, -0.0554603636264801, -0.10444321483373642, -0.223190575838089], [-0.3399142324924469, -0.14958110451698303, 0.0229045357555151, 0.30535033345222473, 0.29012736678123474, 0.09595901519060135, -0.02891935408115387, 0.0728721097111702], [-0.2894270122051239, -0.18976597487926483, -0.13000641763210297, 0.34103772044181824, 0.18135544657707214, 0.1931592971086502, 0.32203924655914307, 0.30408596992492676], [-0.2054818570613861, -0.307537317276001, -0.2960551679134369, -0.23590800166130066, -0.15450064837932587, -0.029267234727740288, -0.15383464097976685, -0.15467265248298645], [0.09449394792318344, 0.28760647773742676, -0.12165717035531998, 0.10895247012376785, -0.03137723356485367, 0.3505611717700958, 0.32792139053344727, -0.0691985934972763], [-0.20034874975681305, -0.029203087091445923, -0.34380242228507996, 0.17425218224525452, 0.15962941944599152, -0.0378742516040802, -0.29993441700935364, -0.1455659419298172], [-0.14937655627727509, -0.14263585209846497, -0.03388471528887749, -0.2267935425043106, 0.00637702876701951, -0.19778811931610107, 0.33270543813705444, -0.31749236583709717], [-0.30470800399780273, 0.14754068851470947, 0.1572391390800476, 0.15867167711257935, -0.3474190831184387, 0.32076942920684814, -0.342864990234375, -0.15097485482692719], [0.10287771373987198, -0.3475985825061798, -0.2689566910266876, -0.010496166534721851, -0.04550262168049812, -0.1321277916431427, -0.25831326842308044, -0.07538275420665741], [-0.25063157081604004, 0.09454237669706345, -0.16825219988822937, 0.05271196737885475, -0.11204473674297333, -0.07550418376922607, -0.018569016829133034, -0.11601737141609192], [0.05064740404486656, 0.3397245407104492, 0.3288257122039795, -0.018238836899399757, 0.1376572996377945, -0.05797286331653595, 0.2533454895019531, -0.19333826005458832], [0.20338904857635498, 0.34822219610214233, 0.09062735736370087, -0.16663075983524323, 0.3095431923866272, -0.01051496434956789, -0.2618741989135742, 0.3298148810863495], [0.21837887167930603, 0.2717389464378357, -0.21653074026107788, -0.20047080516815186, -0.21645554900169373, -0.14312833547592163, -0.2641911208629608, -0.03886369243264198], [0.23618650436401367, 0.005312568042427301, 0.1409812867641449, -0.2006474882364273, 0.17481771111488342, 0.23961684107780457, 0.3238779604434967, 0.19538266956806183], [-0.23183134198188782, -0.1952325403690338, -0.2690548598766327, -0.2214227169752121, 0.14999274909496307, -0.31830236315727234, -0.3049069941043854, -0.23027461767196655], [-0.06272150576114655, 0.30851706862449646, -0.0918765440583229, -0.12532471120357513, -0.23769642412662506, 0.0773676186800003, -0.3061002194881439, -0.03809076175093651], [-0.2672560214996338, -0.2895924746990204, -0.24484853446483612, 0.32732030749320984, -0.07393547892570496, -0.12210367619991302, -0.16458916664123535, -0.271975040435791], [0.324893057346344, 0.20080658793449402, 0.08692315220832825, 0.0699913278222084, -0.11972052603960037, -0.21191920340061188, -0.32168814539909363, 0.01396995224058628], [-0.3363327383995056, -0.028967823833227158, 0.1275690197944641, -0.14433827996253967, -0.13675960898399353, -0.04849066585302353, 0.008700964041054249, -0.0010606675641611218], [-0.11582952737808228, 0.03558491915464401, -0.10879702866077423, 0.022038882598280907, 0.2974657416343689, -0.07073897123336792, 0.3175516724586487, 0.3350088596343994], [-0.30336183309555054, -0.10426658391952515, -0.32578369975090027, -0.30523282289505005, 0.25492507219314575, 0.0478699691593647, -0.008765153586864471, 0.30098775029182434], [0.27107760310173035, -0.2981254756450653, -0.2975090742111206, -0.011925281956791878, -0.01769442670047283, 0.062616266310215, -0.18183287978172302, 0.17995132505893707], [-0.07949485629796982, 0.12993578612804413, 0.2564162313938141, -0.12029199302196503, -0.00029355278820730746, -0.01541542075574398, -0.262971431016922, 0.15347880125045776], [-0.27205660939216614, -0.3406279683113098, -0.24624161422252655, -0.12380535155534744, -0.24270907044410706, 0.2158813327550888, -0.006949678063392639, -0.01984121836721897], [-0.24274864792823792, 0.2562031149864197, -0.0108155133202672, -0.047942377626895905, -0.23148038983345032, 0.07348412275314331, -0.09396989643573761, -0.31977584958076477], [0.1947210133075714, 0.14358651638031006, 0.19501039385795593, -0.14874398708343506, -0.034231964498758316, 0.1715320646762848, -0.11394653469324112, -0.34727898240089417], [-0.20199690759181976, 0.027160609140992165, 0.01725226454436779, -0.11017059534788132, -0.054507169872522354, -0.01893029920756817, 0.07804790884256363, -0.06705807894468307], [-0.062273528426885605, 0.33878293633461, 0.02317735180258751, -0.28481096029281616, -0.00801595114171505, 0.03016243316233158, -0.31005239486694336, 0.16944706439971924], [-0.0903845876455307, 0.059020210057497025, 0.026678912341594696, 0.26729729771614075, -0.03608166426420212, -0.23062299191951752, -0.19051648676395416, -0.2974262535572052], [-0.017159035429358482, -0.17363299429416656, 0.1521696299314499, 0.3466866612434387, 0.192990243434906, 0.16514980792999268, 0.08731453120708466, 0.05461999773979187], [-0.2919994592666626, 0.14082753658294678, -0.14493593573570251, 0.16855885088443756, 0.12036263197660446, -0.20794272422790527, 0.07766728103160858, 0.25376877188682556], [-0.10418544709682465, -0.15496927499771118, 0.06229173392057419, 0.06543824821710587, -0.21426454186439514, 0.007100268732756376, 0.3172704577445984, 0.12493695318698883], [-0.014558954164385796, 0.21728390455245972, -0.1519612967967987, 0.21534869074821472, -0.19831322133541107, -0.029103832319378853, -0.34094008803367615, 0.34125831723213196], [-0.038825467228889465, 0.272419273853302, -0.2724114656448364, -0.19579730927944183, -0.26242777705192566, 0.01919569820165634, 0.1867855191230774, 0.08279453217983246], [-0.037900932133197784, -0.1648719310760498, -0.10608049482107162, -0.02950199320912361, -0.26501622796058655, 0.07576148957014084, -0.03850346431136131, -0.06871259957551956], [-0.07348231226205826, -0.13275431096553802, 0.2808085083961487, -0.30533069372177124, -0.19876937568187714, 0.2930442988872528, -0.19292141497135162, 0.05710126459598541], [0.2866612374782562, -0.13468126952648163, 0.05873213708400726, 0.27027398347854614, -0.03927222266793251, 0.07992567867040634, -0.3198027014732361, 0.2005774825811386], [0.15259788930416107, 0.2627553641796112, -0.2795867323875427, -0.022797735407948494, -0.29989999532699585, 0.07906942814588547, 0.3527625501155853, -0.1806855946779251], [-0.29421865940093994, 0.2494105100631714, 0.009469553828239441, -0.2803804576396942, 0.28871846199035645, -0.30332180857658386, 0.2511477470397949, 0.32221299409866333], [-0.24937640130519867, 0.016557937487959862, -0.2019861489534378, 0.07508018612861633, 0.021708913147449493, -0.14849156141281128, -0.24593114852905273, 0.26197144389152527], [-0.13664792478084564, -0.15051616728305817, -0.1849525421857834, -0.16879154741764069, 0.11304707825183868, 0.2735843360424042, 0.31998035311698914, 0.20569920539855957], [0.19903279840946198, 0.2623438239097595, -0.3156972825527191, 0.12298538535833359, 0.11184694617986679, 0.32273733615875244, -0.03294564411044121, 0.03079889342188835], [0.05195210129022598, -0.2577744722366333, -0.14073814451694489, 0.005068706348538399, -0.35328444838523865, -0.1897488236427307, 0.025876646861433983, -0.14395445585250854], [-0.07133956998586655, 0.141984760761261, 0.07970976084470749, 0.3393193483352661, 0.04194365814328194, 0.18955422937870026, -0.31072452664375305, 0.09619246423244476], [-0.07239294052124023, -0.09014485776424408, 0.020284224301576614, -0.12698516249656677, 0.10251883417367935, -0.08713430911302567, -0.028688473626971245, -0.14221669733524323], [0.0642155259847641, -0.04639052972197533, -0.09221743047237396, -0.15418319404125214, 0.1665135622024536, -0.04691530019044876, 0.10349440574645996, -0.006522013805806637], [0.23569634556770325, -0.09913785755634308, -0.1393079310655594, -0.22987620532512665, 0.12354008108377457, 0.22218044102191925, 0.3199567496776581, 0.31765300035476685]], "b": [0.09409890323877335, 0.02284793183207512, 0.05588975548744202, 0.2720559239387512, 0.008277935907244682, -0.3052041530609131, 0.18366192281246185, 0.2925149202346802, -0.258299320936203, 0.049521155655384064, 0.3504677414894104, 0.19867703318595886, -0.2681935429573059, -0.043563615530729294, 0.11347629874944687, 0.05338551476597786, 0.2115175426006317, -0.14685402810573578, -0.06313133984804153, 0.2066531628370285, -0.18784256279468536, -0.2893630564212799, -0.32345205545425415, 0.021611090749502182, -0.14751005172729492, 0.13273024559020996, 0.027051912620663643, -0.1047087013721466, -0.1518254578113556, 0.08635370433330536, -0.1820894330739975, -0.27721109986305237, -0.17061221599578857, 0.09214127063751221, 0.2926848232746124, 0.29158875346183777, 0.3160604238510132, -0.07951217889785767, -0.03425244987010956, 0.15484751760959625, 0.025106413289904594, 0.21928603947162628, 0.15013937652111053, -0.28922244906425476, 0.29995885491371155, -0.1676558256149292, 0.1264539510011673, 0.24532689154148102, 0.2924487590789795, 0.33202823996543884, 0.271092027425766, -0.301921010017395, -0.12726737558841705, 0.25348037481307983, 0.11959922313690186, -0.30276912450790405, -0.09984681010246277, -0.1412912756204605, 0.0622786283493042, 0.1673109382390976, 0.33972182869911194, 0.18429876863956451, 0.14347967505455017, 0.27946779131889343]}, {"w": [[-0.04750479757785797, -0.052178964018821716, -0.014927491545677185, 0.0636523962020874, -0.09756581485271454, 0.08607228100299835, -0.0037268251180648804, -0.07502518594264984, 0.08087997138500214, 0.015891030430793762, -0.0619204044342041, -0.11166170239448547, 0.08974887430667877, 0.048611775040626526, -0.03606274724006653, 0.12390691041946411, -0.08673104643821716, 0.030108585953712463, 0.05215133726596832, 0.03821435570716858, 0.011356011033058167, -0.12029609084129333, -0.06239141523838043, 0.0479491651058197, 0.08154019713401794, 0.08059173822402954, -0.07867871224880219, -0.050919562578201294, 0.06653597950935364, -0.11062298715114594, 0.019695714116096497, 0.014786049723625183, 0.03340701758861542, -0.06526428461074829, 0.07286588847637177, -0.004391193389892578, -0.12215772271156311, -0.0247945636510849, 0.08058129251003265, -0.025373607873916626, -0.06648723781108856, -0.043200016021728516, -0.04656603932380676, -0.029208630323410034, -0.0007991045713424683, 0.007354468107223511, -0.08171679079532623, -0.02604435384273529, -0.08283740282058716, -0.11383752524852753, -0.09088942408561707, 0.032179802656173706, -0.05093878507614136, -0.03667113184928894, 0.09753584861755371, -0.0651562511920929, 0.11402839422225952, -0.10008043050765991, 0.10159662365913391, 0.00035309791564941406, 0.09977675974369049, 0.016777992248535156, 0.02061361074447632, 0.0029689520597457886], [-0.0861085057258606, -0.05718319118022919, -0.12181748449802399, 0.012548699975013733, -0.12132115662097931, -0.05090652406215668, -0.040054529905319214, 0.09862782061100006, 0.04943779110908508, -0.0468963086605072, -0.06050921976566315, 0.015345171093940735, 0.02238999307155609, 0.1170336902141571, -0.04798153042793274, 0.019398868083953857, 0.11543002724647522, -0.05839115381240845, -0.09811367094516754, -0.06441202759742737, -0.07324187457561493, -0.05688388645648956, -0.014553502202033997, 0.042870208621025085, -0.06307849287986755, -0.10666409134864807, 0.07021825015544891, 0.07529540359973907, 0.08138875663280487, -0.016374394297599792, -0.047167643904685974, 0.08305549621582031, 0.05485972762107849, 0.10446509718894958, -0.0993606299161911, 0.03379741311073303, 0.1030309647321701, -0.006955981254577637, 0.07196776568889618, -0.03163370490074158, -0.1158277690410614, -0.05740818381309509, 0.1237003356218338, -0.09617260098457336, 0.08730454742908478, 0.10573983192443848, 0.011325255036354065, -0.076780304312706, -0.04127117991447449, -0.02864016592502594, -0.10644343495368958, -0.005046054720878601, -0.028092771768569946, -0.03449845314025879, -0.12195008993148804, 0.010760992765426636, 0.11569362878799438, -0.056171953678131104, -0.06110796332359314, -0.09869475662708282, 0.07967035472393036, 0.08603005111217499, -0.08927354216575623, -0.04716441035270691], [-0.09231920540332794, 0.11288571357727051, 0.004289701581001282, -0.07786469161510468, 0.015567228198051453, 0.00010882318019866943, -0.021137788891792297, -0.10715878009796143, 0.11295473575592041, 0.0982658714056015, 0.024998769164085388, 0.0036271363496780396, -0.09218950569629669, 0.10572165250778198, 0.035236239433288574, 0.1000143438577652, 0.04502491652965546, 0.04917985200881958, -0.0004240870475769043, 0.035736262798309326, 0.09281489253044128, 0.03794659674167633, 0.004845380783081055, 0.05710078775882721, 0.04733516275882721, -0.010349184274673462, -0.07497134804725647, -0.10766717791557312, 0.09563224017620087, 0.011933714151382446, -0.11921253800392151, -0.08313097059726715, -0.10358689725399017, -0.11777110397815704, -0.055248185992240906, 0.08308710157871246, -0.05549481511116028, 0.11713539063930511, -0.027463555335998535, -0.03559403121471405, -0.013797178864479065, -0.04858562350273132, 0.0920526534318924, 0.011498332023620605, 0.02421802282333374, -0.08365301787853241, -0.04363270103931427, 0.10321491956710815, 0.050177961587905884, -0.08828508853912354, 0.12114933133125305, -0.06603024899959564, -0.10275070369243622, 0.034790754318237305, 0.05741108953952789, 0.030577316880226135, 0.07135084271430969, -0.0232551246881485, 0.07723617553710938, 0.02919796109199524, -0.008879080414772034, 0.10584023594856262, 0.06587527692317963, -0.08068819344043732], [-0.11959780752658844, -0.05404631793498993, 0.06888721883296967, 0.04836392402648926, 0.04136262834072113, -0.12266404926776886, -0.04240497946739197, -0.10627396404743195, -0.10711605846881866, 0.04786290228366852, 0.06861916184425354, -0.12241798639297485, 0.07363328337669373, 0.04067753255367279, -0.11026082932949066, -0.013903915882110596, 0.006231918931007385, 0.08469735085964203, 0.037496596574783325, 0.06921285390853882, 0.0753643810749054, -0.12307162582874298, -0.02752155065536499, -0.09322252869606018, 0.013812527060508728, -0.11983136832714081, 0.1176760196685791, 0.028822630643844604, 0.1168784499168396, 0.11794494092464447, 0.11113274097442627, -0.001026257872581482, -0.07423447072505951, -0.06337158381938934, -0.11025863885879517, -0.10886755585670471, 0.04079127311706543, 0.017646342515945435, -0.07467658817768097, -0.08985024690628052, 0.010536178946495056, -0.03812912106513977, 0.08418750762939453, -0.09962908923625946, 0.03683878481388092, 0.016316771507263184, 0.12081386148929596, 0.10652786493301392, -0.10336311161518097, -0.0020562857389450073, 0.0041990578174591064, -0.011738255620002747, 0.07548391819000244, 0.09545831382274628, 0.11785641312599182, 0.0544506311416626, -0.05922912061214447, -0.08260434865951538, -0.07643257081508636, 0.08899350464344025, 0.06379915773868561, -0.11870117485523224, 0.054586827754974365, -0.00610746443271637], [-0.09302125871181488, -0.11482782661914825, -0.09538571536540985, 0.1224607527256012, -0.11079446971416473, 0.05294401943683624, -0.11912417411804199, -0.04570452868938446, -0.04196663200855255, 0.033602192997932434, 0.10234047472476959, 0.03407607972621918, 0.11629961431026459, -0.12443512678146362, 0.06592132151126862, 0.06541605293750763, 0.05346082150936127, -0.046280637383461, -0.034481361508369446, 0.07719965279102325, -0.006853386759757996, -0.11688071489334106, -0.09669576585292816, -0.008927211165428162, 0.02595047652721405, -0.017056971788406372, -0.1069050282239914, -0.030940517783164978, 0.10903018712997437, 0.1220482587814331, 0.07808983325958252, -0.06145477294921875, 0.0823138952255249, -0.07076658308506012, -0.10288277268409729, -0.11221157014369965, 0.041144222021102905, -0.036027103662490845, 0.10701097548007965, 0.04007890820503235, 0.10700587928295135, 0.021153435111045837, -0.0035014599561691284, -0.023148223757743835, -0.009341761469841003, -0.057266607880592346, 0.03787590563297272, 0.04688379168510437, -0.11176733672618866, 0.04300090670585632, 0.08808910846710205, 0.03612314164638519, 0.07188104093074799, -0.10479746758937836, -0.09231863915920258, 0.07344666123390198, 0.0684770792722702, 0.09713110327720642, 0.005439922213554382, -0.11456356942653656, -0.054806098341941833, 0.08555720746517181, -0.023099109530448914, 0.011623397469520569], [-0.08333401381969452, 0.07634973526000977, 0.05825231969356537, -0.03242747485637665, -0.026584208011627197, -0.04395323991775513, -0.06465022265911102, -0.09107869863510132, -0.0022680163383483887, 0.0329882949590683, 0.004457563161849976, 0.08348134160041809, 0.09770026803016663, 0.04270254075527191, 0.014493778347969055, -0.06911960244178772, -0.03852678835391998, 0.09612511098384857, -0.07353882491588593, -0.021308302879333496, -0.09266351163387299, 0.01823633909225464, 0.024492546916007996, -0.0363471657037735, -0.08727948367595673, -0.07149937748908997, 0.053369924426078796, -0.03257507085800171, -0.04019789397716522, 0.007844552397727966, 0.11694160103797913, 0.0036251097917556763, -0.11578083038330078, -0.029274389147758484, -0.02888546884059906, 0.0643482506275177, -0.06307634711265564, -0.1171262264251709, 0.028486639261245728, -0.07666453719139099, -0.042639389634132385, 0.06250989437103271, -0.1151638925075531, -0.034605979919433594, 0.021380871534347534, -0.05725249648094177, -0.02951037883758545, -0.09284171462059021, -0.0010104924440383911, -0.06269411742687225, 0.09616024792194366, -0.11740678548812866, -0.05577331781387329, -0.06327544152736664, -0.028440117835998535, 0.0260760635137558, -0.10280376672744751, 0.10547924041748047, 0.0816352516412735, 0.11592826247215271, -0.10921098291873932, -0.034380942583084106, 0.12116159498691559, 0.004040434956550598], [0.009282141923904419, -0.12312448024749756, -0.011989235877990723, 0.020713195204734802, -0.020361512899398804, 0.1199992448091507, 0.05373743176460266, -0.09434826672077179, -0.007746174931526184, 0.011227235198020935, 0.07418020069599152, -0.11430498957633972, 9.976327419281006e-05, -0.0342191606760025, -0.04632049798965454, 0.002474084496498108, -0.09511089324951172, -0.09171698987483978, 0.06298200786113739, -0.043811142444610596, -0.031858935952186584, 0.01925671100616455, -0.11634688079357147, -0.01460634171962738, -0.11894455552101135, 0.10415944457054138, 0.006071984767913818, -0.09290650486946106, -0.1120714396238327, -0.017927557229995728, 0.005276724696159363, -0.06152878701686859, 0.09158051013946533, 0.09064318239688873, 0.02493588626384735, 0.08199824392795563, -0.0775093138217926, 0.02535317838191986, -0.02204585075378418, -0.026815056800842285, -0.07074028253555298, 0.032533496618270874, -0.024324819445610046, 0.05299481749534607, 0.019220858812332153, -0.09439203143119812, -0.05793386697769165, 0.06214015185832977, 0.06975649297237396, 0.09486401081085205, -0.0884973555803299, -0.055351853370666504, 0.040946006774902344, -0.07211153209209442, 0.09694412350654602, 0.08417379856109619, 0.038281410932540894, 0.052666664123535156, 0.056052908301353455, -0.040542781352996826, 0.0751609206199646, 0.0019256621599197388, 0.043628811836242676, 0.08331656455993652], [0.10425418615341187, 0.0824773758649826, 0.12359246611595154, -0.01803143322467804, -0.046899616718292236, 0.01845720410346985, -0.043204620480537415, 0.03792761266231537, -0.05712135136127472, 0.04727388918399811, 0.1171991378068924, -0.013112068176269531, -0.023474112153053284, 0.08284927904605865, -0.04215800762176514, -0.07824152708053589, 0.0740233063697815, 0.09354856610298157, 0.004063516855239868, 0.11681501567363739, -0.07582186162471771, -0.018790245056152344, -0.1005914956331253, 0.07178953289985657, 0.03054659068584442, -0.09516507387161255, -0.10294598340988159, 0.08572643995285034, 0.09554661810398102, -0.002853989601135254, -0.08043761551380157, -0.10150504112243652, 0.09056966006755829, 0.04986846446990967, 0.10802741348743439, 0.12067528069019318, 0.09751540422439575, 0.06085945665836334, -0.04849180579185486, -0.10421369969844818, -0.04817458987236023, -0.017876893281936646, -0.00163230299949646, 0.04385334253311157, 0.11082714796066284, 0.024489670991897583, -0.04333882033824921, -0.11912669241428375, 0.04167139530181885, -0.09757333993911743, 0.041327670216560364, -0.07637232542037964, 0.025948375463485718, 0.010201960802078247, -0.07756756246089935, -0.06124603748321533, 0.10689409077167511, 0.03304658830165863, 0.06587527692317963, 0.10599324107170105, 0.05184882879257202, -0.07402332127094269, 0.11003006994724274, 0.09470021724700928], [0.05430534482002258, 0.09288221597671509, 0.07436209917068481, 0.08242352306842804, -0.034145623445510864, 0.03478290140628815, -0.06778208911418915, -0.012667417526245117, -0.035310640931129456, -0.062210023403167725, 0.002519771456718445, 0.09703801572322845, 0.07094374299049377, 0.11369039118289948, -0.055435702204704285, -0.056494906544685364, 0.11753657460212708, -0.03855922818183899, 0.07022053003311157, -0.0313076376914978, -0.10225524008274078, -0.008327722549438477, 0.09259788691997528, 0.07769472897052765, -0.034280017018318176, -0.12054352462291718, 0.00376284122467041, -0.08579279482364655, 0.03785131871700287, 0.04540543258190155, 1.5020370483398438e-05, 0.11486603319644928, -0.11496047675609589, -0.1020524650812149, -0.11880631744861603, 0.06474775075912476, -0.07160012423992157, 0.05483311414718628, -0.0038487762212753296, -0.10796643793582916, 0.0793813019990921, -0.04844823479652405, 0.03444279730319977, 0.01649017632007599, 0.03833889961242676, -0.07429210841655731, 0.07315748929977417, 0.05875316262245178, 0.11444787681102753, -0.03550317883491516, -0.027529224753379822, 0.07927010953426361, 0.11958405375480652, -0.11306019127368927, -0.09161798655986786, -0.11466223001480103, 0.0327296257019043, -0.07022610306739807, -0.1153329610824585, 0.0811549723148346, 0.0023624300956726074, -0.029682472348213196, -0.008879274129867554, -0.030276700854301453], [-0.09824778139591217, -0.06212179362773895, 0.11648084223270416, 0.1240006685256958, 0.0834580510854721, -0.11611631512641907, -0.08332546055316925, 0.1047435998916626, 0.06961841881275177, -0.06262446939945221, 0.015493929386138916, 0.1172923892736435, -0.025602996349334717, -0.11917313933372498, -0.11399197578430176, 0.07615010440349579, 0.04979695379734039, -0.07446141541004181, 0.04670782387256622, -0.1097385436296463, -0.09346243739128113, 0.03794144093990326, -0.12164421379566193, 0.11683696508407593, 0.05539865791797638, -0.11141611635684967, -0.0894978940486908, -0.012354612350463867, -0.11276395618915558, -0.09178723394870758, 0.10844987630844116, -0.1194944828748703, 0.048900872468948364, -0.0615597665309906, -0.027618199586868286, -0.030022189021110535, 0.07143598794937134, -0.11469058692455292, -0.07120285928249359, 0.11894303560256958, 0.06369718909263611, -0.07695752382278442, 0.0877193957567215, 0.0741584450006485, 0.10588768124580383, -0.11653390526771545, 0.04901309311389923, -0.08843474090099335, 0.009715422987937927, 0.09744718670845032, -0.0020362883806228638, 0.11274401843547821, -0.07639913260936737, -0.09491851925849915, -0.04115571081638336, -0.05968448519706726, 0.10153140127658844, -0.0807226151227951, 0.12381571531295776, -0.07335375249385834, 0.034615129232406616, 0.05863426625728607, -0.07075169682502747, -0.024069562554359436], [0.12148422002792358, 0.07690839469432831, 0.10050332546234131, 0.07575654983520508, 0.02273331582546234, 0.08095517754554749, -0.022704556584358215, 0.03997159004211426, -0.01864299178123474, 0.016599759459495544, 0.1193481832742691, 0.037117600440979004, 0.10964749753475189, -0.08463701605796814, -0.04489210247993469, 0.008978843688964844, 0.10737238824367523, -0.09031794965267181, -0.03192836046218872, -0.07937182486057281, -0.021906152367591858, -0.09421496093273163, -0.10220010578632355, -0.006028294563293457, 0.059965431690216064, 0.01683323085308075, -0.11851346492767334, 0.08461211621761322, -0.08326755464076996, 0.01177525520324707, 0.06312055885791779, 0.05461299419403076, 0.08847244083881378, 0.11712948977947235, 0.1096828281879425, 0.005882084369659424, -0.06085960566997528, 0.018352270126342773, -0.006356269121170044, 0.05706608295440674, 0.09746560454368591, 0.023186177015304565, -0.05386930704116821, 0.04745069146156311, 0.11898304522037506, -0.06923496723175049, 0.08120866119861603, -0.039573296904563904, -0.01088055968284607, -0.0687924474477768, -0.12464214861392975, 0.007685407996177673, 0.035212770104408264, 0.08163006603717804, -0.09158177673816681, -0.11876364052295685, 0.07095330953598022, -0.002718031406402588, 0.08336767554283142, -0.09569701552391052, 0.001225978136062622, -0.08714476227760315, -0.08779758214950562, -0.044476404786109924], [-0.0215437114238739, -0.06873692572116852, 0.0572403222322464, 0.10705235600471497, 0.09745396673679352, -0.09511007368564606, 0.05310913920402527, -0.01700037717819214, -0.047402918338775635, 0.08162856101989746, 0.022906050086021423, -0.024957969784736633, 0.04606087505817413, -0.06293763220310211, -0.02203775942325592, -0.08059503138065338, -0.029850929975509644, -0.11990559101104736, -0.06314671039581299, -0.004193529486656189, 0.06537450850009918, 0.06303970515727997, 0.034231871366500854, 0.0023862123489379883, -0.022056609392166138, 0.0059313178062438965, -0.03696770966053009, 0.10743702948093414, 0.055030062794685364, -0.03209406137466431, -0.057301729917526245, -0.02867409586906433, 0.11761318147182465, 0.026218757033348083, 0.06010141968727112, 0.11247056722640991, -0.10388928651809692, 0.12386217713356018, -0.08312398195266724, 0.054268136620521545, 0.0451328307390213, 0.07438929378986359, -0.061566486954689026, 0.10957470536231995, -0.06914186477661133, -0.04223765432834625, 0.07313008606433868, 0.03547638654708862, 0.05786485970020294, 0.0014837831258773804, -0.0003288388252258301, -0.06858614087104797, 0.066065713763237, 0.10077770054340363, -0.051071181893348694, -0.05316838622093201, -0.008183926343917847, -0.0991416871547699, -0.11377814412117004, 0.028974637389183044, -0.11938181519508362, 0.10200195014476776, 0.07863593101501465, 0.06622341275215149], [-0.037636011838912964, -0.031053483486175537, -0.11573950946331024, -0.054889529943466187, -0.05258345603942871, 0.08624356985092163, -0.004135191440582275, 0.10735280811786652, -0.022162973880767822, -0.09791581332683563, 0.09479834139347076, -0.03890003263950348, 0.035276174545288086, -0.03195720911026001, -0.11965514719486237, 0.0161961168050766, -0.036817580461502075, -0.02748386561870575, -0.00953461229801178, 0.017918169498443604, -0.03687722980976105, -0.0023920685052871704, 0.053542181849479675, -0.1240202784538269, -0.11584731936454773, 0.0513494610786438, -0.07480765879154205, -0.10761664807796478, 0.06809656322002411, 0.07697586715221405, 0.08310188353061676, 0.05172291398048401, 0.07887181639671326, 0.011941835284233093, -0.09968870878219604, -0.1094641238451004, -0.10735052824020386, 0.1166316568851471, 0.07777610421180725, 0.02742093801498413, 0.0394551157951355, 0.004513263702392578, 0.010573059320449829, 0.03676654398441315, 0.08607105910778046, -0.07177406549453735, 0.09092740714550018, 0.05097131431102753, -0.02065703272819519, 0.011190041899681091, -0.11515849828720093, 0.0774078518152237, -0.002976462244987488, 0.08499892055988312, -0.004931211471557617, 0.10393916070461273, 0.08927598595619202, -0.07251402735710144, 0.1214846521615982, 0.09333954751491547, 0.06415818631649017, 0.08778834342956543, -0.002080753445625305, 0.06458576023578644], [0.0006835311651229858, 0.08781786262989044, -0.03708593547344208, -0.028076663613319397, -0.11931319534778595, 0.106859490275383, -0.10888996720314026, -0.09496155381202698, 0.061321720480918884, 0.031595394015312195, 0.033941492438316345, -0.12254896759986877, -0.04806181788444519, -0.1034805178642273, -0.1176130622625351, -0.0515255331993103, -0.015135705471038818, 0.07900300621986389, 0.067385733127594, -0.07325845956802368, 0.11527390778064728, -0.09258557856082916, 0.10314725339412689, 0.06842170655727386, 0.05348479747772217, -0.11307856440544128, -0.09342809021472931, 0.061312586069107056, -0.005776792764663696, 0.07979394495487213, 0.055594027042388916, -0.04002898931503296, -0.01824726164340973, 0.03341393172740936, 0.04508082568645477, -0.051523372530937195, -0.003888458013534546, 0.04852961003780365, -0.07312113046646118, 0.016871914267539978, 0.0036804676055908203, 0.0733889490365982, -0.12426653504371643, -0.09018635749816895, 0.12262018024921417, 0.02581167221069336, -0.11212445795536041, 0.07794679701328278, 0.05445736646652222, 0.009001269936561584, 0.07488112151622772, 0.05631162226200104, 0.11416590213775635, 0.11748380959033966, -0.10331331193447113, 0.04887166619300842, 0.08233779668807983, 0.01091088354587555, -0.04448312520980835, -0.09033258259296417, 0.05082595348358154, 0.07689230144023895, -0.0650922954082489, -0.0998644232749939], [-0.046506255865097046, -0.003944918513298035, 0.04784916341304779, -0.11440122127532959, 0.02415238320827484, -0.09901466965675354, -0.08791209757328033, -0.11949720978736877, -0.09673283994197845, -0.0038218051195144653, -0.11907155811786652, -0.039626240730285645, 0.04607382416725159, 0.11064217984676361, -0.08980406820774078, 0.039696499705314636, 0.1216924786567688, -0.11149141192436218, -0.09980680048465729, -0.07667285203933716, -0.06853628158569336, 0.005151242017745972, 0.11005102097988129, 0.07286140322685242, 0.08874969184398651, -0.02159653604030609, 0.10836420953273773, 0.06865391135215759, -0.07540005445480347, -0.09579895436763763, -0.1187012642621994, -0.046299561858177185, -0.05067981779575348, -0.11305306851863861, -0.05533914268016815, -0.09413516521453857, -0.12196210026741028, -0.06846040487289429, 0.04470323026180267, 0.11788240075111389, 0.03314504027366638, 0.02810908854007721, 0.05679900944232941, 0.12245900928974152, -0.02722787857055664, -0.007925853133201599, -0.004077479243278503, -0.020548015832901, -0.07172423601150513, 0.04427383840084076, -0.025824472308158875, 0.11940106749534607, -0.09955163300037384, -0.023778870701789856, 0.11086733639240265, 0.05306483805179596, -0.016690820455551147, 0.031652405858039856, 0.0020443499088287354, 0.06966274976730347, -0.014583498239517212, 0.11523357033729553, -0.04547496140003204, -0.11748279631137848], [-0.054043248295784, 0.10057561099529266, -0.09982816874980927, -0.0012885034084320068, -0.025249168276786804, -0.04280194640159607, 0.06257051229476929, 0.0040182918310165405, -0.08200529217720032, 0.05784359574317932, 0.09257772564888, 0.04198695719242096, -0.09244042634963989, 0.08935694396495819, -0.07732254266738892, -0.015509694814682007, 0.06512540578842163, 0.06406734883785248, -0.12426096200942993, 0.00020062923431396484, 0.09999296069145203, -0.07469499111175537, 0.08977919816970825, 0.0506192147731781, -0.08333809673786163, 0.10672859847545624, 0.02632911503314972, 0.06924429535865784, -0.03961031138896942, -0.11154760420322418, 0.11104615032672882, 0.05834071338176727, -0.1033061146736145, -0.10679832100868225, 0.06707894802093506, 0.08153614401817322, 0.049454376101493835, 0.05486859381198883, -0.12214089930057526, -0.02078680694103241, 0.1088910847902298, 0.016926825046539307, -0.05761320888996124, 0.004924684762954712, -0.09592771530151367, -0.046800047159194946, 0.014202788472175598, -0.004941597580909729, -0.023666292428970337, -0.07765160501003265, -0.09529857337474823, -0.017668917775154114, 0.12394319474697113, -0.0130300372838974, 0.04203017055988312, 0.09049053490161896, -0.10451415181159973, -0.08218613266944885, -0.07410179078578949, 0.05263982713222504, 0.030118554830551147, -0.06918250024318695, -0.012208104133605957, -0.09526766836643219], [-0.04263901710510254, -0.05541098117828369, -0.11862273514270782, 0.0928201824426651, 0.11846436560153961, 0.10853742063045502, 0.02356022596359253, -0.039152637124061584, 0.04755657911300659, -0.11117033660411835, -0.05133673548698425, -0.015893250703811646, 0.01823785901069641, 0.06214617192745209, -0.12257377803325653, -0.0430927574634552, -0.1078595221042633, -0.07085004448890686, -0.011068984866142273, -0.09311001002788544, 0.08568555116653442, 0.08480963110923767, -0.046028390526771545, -0.05796977877616882, 0.08063547313213348, 0.068452849984169, -0.06146872043609619, -0.06081177294254303, 0.039943546056747437, 0.06335701048374176, -0.10640683770179749, 0.09856760501861572, 0.04939596354961395, -0.12359367311000824, -0.04339782893657684, -0.12122936546802521, -0.059953704476356506, -0.03297865390777588, 0.008442908525466919, -0.07478372752666473, -0.11572997272014618, -0.010936275124549866, 0.031419992446899414, -0.08955539762973785, -0.014103278517723083, -0.11859191954135895, 0.11387181282043457, 0.1085975170135498, 0.05719931423664093, -0.04559825360774994, 0.10340958833694458, -0.07860438525676727, 0.11863711476325989, -0.07429829239845276, 0.014777421951293945, -0.09071224927902222, -0.058223843574523926, -0.004196375608444214, -0.04931184649467468, -0.05421173572540283, -0.012993007898330688, -0.08647757768630981, 0.09551374614238739, -0.055597856640815735], [-0.06965136528015137, 0.01102370023727417, -0.010206237435340881, -0.04944859445095062, 0.09927400946617126, -0.0791444182395935, -0.07031664252281189, 0.009165287017822266, 0.09683381021022797, -0.09596885740756989, -0.04037711024284363, -0.0435604453086853, -0.07699136435985565, 0.052868589758872986, -0.049334391951560974, -0.06574518978595734, -0.022010818123817444, -0.09072078764438629, 0.08975309133529663, 0.11466994881629944, 0.03589838743209839, 0.10921607911586761, -0.06254704296588898, 0.06681270897388458, -0.04253546893596649, 0.025703072547912598, -0.10672885179519653, 0.0009136348962783813, 0.09869076311588287, -0.03273400664329529, -0.03001224994659424, 0.045410484075546265, -0.08918243646621704, 0.012675344944000244, -0.06527207791805267, 0.0031579434871673584, 0.027978956699371338, -0.08410336077213287, -0.08811524510383606, -0.06891870498657227, -0.1024836003780365, 0.04554526507854462, 0.08534087240695953, -0.04919785261154175, 0.00481627881526947, -0.02277405560016632, -0.07905307412147522, -0.08938100934028625, -0.006839454174041748, -0.08468069136142731, -0.0461144894361496, -0.02970448136329651, -0.060984909534454346, -0.06171935796737671, 0.03536519408226013, 0.03686007857322693, 0.029025956988334656, -0.027225762605667114, -0.05839768052101135, 0.0499911904335022, 0.061457425355911255, 0.12121684849262238, -0.07879213988780975, 0.1155259907245636], [0.04466177523136139, 0.10064730048179626, -0.06573507189750671, 0.03088882565498352, -0.10829482972621918, -0.10633376240730286, 0.05175507068634033, -0.07641445100307465, -0.12167076766490936, -0.0530439168214798, -0.02923978865146637, 0.015327543020248413, -0.04317513108253479, 0.08744090795516968, -0.07704077661037445, -0.11951985955238342, -0.08971512317657471, -0.093146413564682, -0.06336718797683716, 0.009605392813682556, 0.047905340790748596, -0.10856010019779205, -0.07367312908172607, 0.06334884464740753, 0.1132550835609436, 0.05043894052505493, -0.025055870413780212, 0.05017305910587311, -0.09201346337795258, -0.10917018353939056, 0.002233728766441345, 0.1010565310716629, -0.04504385590553284, 0.11585745215415955, -0.07511104643344879, -0.10397595167160034, 0.11846871674060822, -0.11868052184581757, -0.08151458203792572, -0.08904312551021576, 0.11924894154071808, 0.006820559501647949, -0.08306391537189484, 0.10347795486450195, 0.12472131848335266, 0.012453630566596985, -0.09174126386642456, -0.09702838957309723, -0.05004698038101196, 0.08251135051250458, -0.021064653992652893, 0.0667453408241272, -0.04504650831222534, -0.07189798355102539, -0.1210099309682846, 0.014851614832878113, -0.08378735184669495, 0.10408809781074524, 0.09356112778186798, -0.11385051906108856, 0.05061592161655426, -0.026445239782333374, 0.048406392335891724, -0.10612872242927551], [0.11642739176750183, 0.10692287981510162, 0.015838995575904846, -0.04062257707118988, 0.01432529091835022, 0.05582234263420105, -0.09089335799217224, 0.0455600768327713, 0.031476497650146484, 0.08104124665260315, 0.11138387024402618, -0.007985368371009827, 0.08122424781322479, 0.12323640286922455, -0.10064645111560822, -0.1233755350112915, -0.08826865255832672, -0.029193446040153503, 0.09272034466266632, 0.07442890107631683, 0.08952160179615021, -0.11645647883415222, -0.020175114274024963, 0.11183616518974304, -0.021475687623023987, -0.09577493369579315, -0.02017734944820404, 0.09624515473842621, 0.055309414863586426, 0.11237215995788574, -0.0961790382862091, -0.03615802526473999, -0.06778866052627563, -0.028031304478645325, 0.041928306221961975, 0.06352299451828003, -0.05701534450054169, -0.01012374460697174, 0.017568975687026978, 0.0025375932455062866, -0.08528237044811249, 0.04799126088619232, -0.055986449122428894, 0.05474390089511871, 0.12080837786197662, -0.07919713854789734, -0.07705709338188171, -0.08118516206741333, 0.07562246918678284, -0.0012554675340652466, -0.04245997965335846, -0.09407930076122284, 0.032702863216400146, 0.10618899762630463, 0.020910680294036865, 0.06415964663028717, -0.010799184441566467, 0.09308549761772156, -0.1012161374092102, 0.1202557235956192, -0.018335074186325073, 0.027438193559646606, 0.12420155107975006, 0.06899204850196838], [0.11995008587837219, 0.09897373616695404, 0.08061151206493378, -0.06732888519763947, -0.05727773904800415, 0.005229458212852478, -0.05032940208911896, -0.031099647283554077, -0.025368928909301758, 0.043269962072372437, 0.03473837673664093, 0.12076164782047272, 0.0983147919178009, 0.08090274035930634, 0.07867145538330078, -0.0027409493923187256, -0.07776735723018646, 0.0725410133600235, 0.0580890029668808, -0.08667290210723877, -0.10237058997154236, 0.07724638283252716, 0.06065194308757782, -0.0489656925201416, 0.019471079111099243, -0.057095110416412354, -0.09927664697170258, 0.11528721451759338, -0.08391623198986053, 0.02708759903907776, 0.11789444088935852, -0.0659499317407608, 0.10473127663135529, -0.09125548601150513, -0.030971109867095947, 0.12040741741657257, 0.07760006189346313, -0.1081300675868988, -0.08581338822841644, -0.05715537071228027, -0.04139992594718933, -0.10420294106006622, 0.012590020895004272, 0.12072467803955078, 0.10980036854743958, 0.06571519374847412, -0.06416907906532288, -0.09151571989059448, 0.012995898723602295, -0.0122050940990448, -0.05072648823261261, -0.088740274310112, -0.08622492849826813, -0.035995543003082275, -0.06728819012641907, 0.10951420664787292, 0.010646417737007141, -0.06848946213722229, 0.026375815272331238, -0.055866509675979614, -0.07797886431217194, 0.05333980917930603, -0.06924931704998016, 0.04877676069736481], [-0.05970476567745209, -0.10329116880893707, -0.04927420616149902, -0.04853697121143341, -0.08722813427448273, 0.04454883933067322, -0.044803768396377563, -0.09705592691898346, -0.030795425176620483, 0.038580477237701416, -0.07206007838249207, 0.05792498588562012, -0.0013632327318191528, 0.017899274826049805, -0.10993337631225586, 0.09906545281410217, 0.02176053822040558, 0.06893500685691833, 0.08546283841133118, -0.06215241551399231, -0.0005092620849609375, -0.0656389445066452, 0.0026613622903823853, 0.08557119965553284, -0.025575906038284302, -0.015085563063621521, 0.03588707745075226, -0.06239946186542511, 0.025600075721740723, 0.09170815348625183, 0.06818273663520813, -0.10615265369415283, 0.06608821451663971, -0.059564024209976196, 0.07737000286579132, -0.0839877724647522, -0.06632532179355621, -0.06447963416576385, -0.10833446681499481, -0.015610113739967346, 0.055961042642593384, 0.029652535915374756, -0.018451005220413208, -0.020547807216644287, 0.007337749004364014, 0.02651040256023407, -0.12343268096446991, 0.0979398638010025, -0.024561449885368347, 0.07083004713058472, -0.007741391658782959, -0.03256919980049133, 0.043594300746917725, -0.039873868227005005, 0.03864172101020813, -0.02679993212223053, 0.07910570502281189, 0.09028205275535583, -0.03585276007652283, 0.04145132005214691, 0.0998886227607727, 0.003782615065574646, 0.016235247254371643, -0.10274267196655273], [-0.07149329781532288, -0.03834877908229828, 0.06070487201213837, 0.08547593653202057, -0.01727426052093506, 0.061152130365371704, 0.03341083228588104, 0.07628847658634186, -0.02146562933921814, -0.02453942596912384, 0.02230164408683777, 0.07126230001449585, 0.11750349402427673, 0.09442612528800964, -0.004747539758682251, 0.08201789855957031, -0.048057183623313904, -0.002536967396736145, 0.016664087772369385, -0.05282776057720184, -0.028572842478752136, -0.12130020558834076, 0.10779814422130585, -0.012343078851699829, 0.08199524879455566, 0.10609027743339539, -0.023040905594825745, -0.029885560274124146, -0.030987009406089783, 0.02145606279373169, -0.12350629270076752, 0.030744895339012146, 0.023530349135398865, -0.047285109758377075, 0.061553552746772766, 0.0010574162006378174, 0.05350743234157562, -0.013777032494544983, 0.02781064808368683, -0.04871290922164917, -0.05713559687137604, 0.015556126832962036, 0.10854847729206085, -0.06477487087249756, -0.020960360765457153, -0.012024536728858948, 0.029296964406967163, 0.07773342728614807, 0.06734484434127808, -0.035501331090927124, -0.04347015917301178, 0.07296925783157349, 0.04043939709663391, 0.018811196088790894, 0.09472960233688354, 0.05534715950489044, 0.039801523089408875, -0.037926554679870605, -0.11029060184955597, -0.048250213265419006, -0.0675540566444397, 0.07956072688102722, 0.05669727921485901, 0.009030357003211975], [0.11870986223220825, 0.11695466935634613, 0.1125788539648056, -0.014059573411941528, -0.12178169190883636, 0.09696473181247711, -0.03011240065097809, -0.06842255592346191, 0.08168038725852966, 0.06605522334575653, 0.08340789377689362, 0.019198641180992126, 0.08450645208358765, 0.06780268251895905, -0.10943704843521118, 0.11115020513534546, 0.046920910477638245, -0.05313245952129364, -0.021359235048294067, 0.10775434970855713, -0.0003499537706375122, 0.12479645013809204, 0.03432987630367279, -0.0613204687833786, -0.05793796479701996, -0.014039769768714905, -0.003817051649093628, -0.01937192678451538, -0.0326198935508728, 0.019355058670043945, 0.09622398018836975, -0.09702995419502258, 0.03062310814857483, 0.01306016743183136, -0.02245369553565979, -0.0941619724035263, 0.06345543265342712, -0.04598252475261688, 0.01686444878578186, -0.11667081713676453, -0.08905228972434998, -0.03436484932899475, 0.01595434546470642, -0.07142437994480133, -0.022016718983650208, 0.028809264302253723, 0.030483141541481018, -0.0919831395149231, -0.09305430948734283, -0.012680649757385254, -0.08637690544128418, 0.09563487768173218, 0.10069623589515686, -0.017015203833580017, 0.09854666888713837, -0.005964949727058411, -0.019703581929206848, 0.08481724560260773, 0.08322620391845703, 0.10182350873947144, -0.026416003704071045, 0.06382596492767334, 0.01953527331352234, -0.07625259459018707], [0.027894645929336548, -0.010099828243255615, -0.11040301620960236, -0.06571413576602936, -0.10430672764778137, 0.1148880273103714, 0.029868289828300476, 0.010769233107566833, -0.04645964503288269, 0.08793322741985321, 0.06345312297344208, 0.11016283929347992, 0.1244996041059494, -0.09499615430831909, 0.06749248504638672, -0.061958715319633484, 0.04586605727672577, 0.030411377549171448, -0.02651306986808777, -0.03498557209968567, -0.09439998865127563, -0.10776308178901672, -0.009301736950874329, -0.09797969460487366, 0.09797453880310059, 0.005924999713897705, -0.0007716268301010132, -0.10279324650764465, -0.07292582094669342, -0.0033360272645950317, -0.05388648808002472, 0.05330358445644379, -0.022894591093063354, 0.010863274335861206, -0.05518291890621185, 0.12045127153396606, 0.07418985664844513, 0.016132980585098267, 0.060716286301612854, 0.003896743059158325, -0.06183518469333649, 0.09506510198116302, 0.11933481693267822, -0.12164846062660217, 0.009811699390411377, 0.12156227231025696, -0.05444648861885071, -0.05333520472049713, -0.07717025279998779, -0.003563821315765381, -0.037822380661964417, 0.009341910481452942, -0.07249288260936737, 0.006570339202880859, -0.0440862774848938, 0.11959891021251678, 0.09799827635288239, 0.12387114763259888, -0.04427865147590637, 0.0920582115650177, -0.08585850894451141, -0.07906022667884827, -0.07943066954612732, -0.00827699899673462], [-0.01969270408153534, -0.05979757010936737, 0.11034519970417023, 0.07003633677959442, 0.09980279207229614, 0.07885126769542694, -0.12456460297107697, 0.006420135498046875, -0.04161675274372101, 0.004275098443031311, -0.06113937497138977, 0.04235337674617767, -0.07775920629501343, 0.009835392236709595, 0.012149795889854431, -0.07712465524673462, -0.044994696974754333, 0.10343150794506073, -0.007774978876113892, 0.09685930609703064, 0.10566292703151703, 0.021911144256591797, -0.10686591267585754, -0.09211836755275726, -0.11741289496421814, -0.014346450567245483, 0.09357650578022003, -0.1060362458229065, 0.008055359125137329, 0.09450116753578186, -0.08311662077903748, -0.08853766322135925, 0.05793944001197815, 0.07786862552165985, 0.015622541308403015, -0.034940704703330994, -0.034652382135391235, 0.03259769082069397, 0.08544963598251343, 0.00979679822921753, 0.02558310329914093, -0.08135874569416046, 0.07721312344074249, -0.11016006767749786, 0.0553494393825531, -0.09202897548675537, -0.015501335263252258, 0.08136340975761414, 0.11070343852043152, 0.062185510993003845, -0.02486516535282135, -0.03453649580478668, 0.062117233872413635, 0.028597384691238403, 0.04116475582122803, 0.05192543566226959, -0.04250785708427429, -0.04109208285808563, 0.0659785270690918, 0.12498974800109863, 0.044263213872909546, -0.04667814075946808, 0.0493304580450058, -0.06779471039772034], [0.07062026858329773, 0.05288912355899811, -0.06609450280666351, 0.09810782968997955, 0.10487960278987885, 0.12044920027256012, -0.056053951382637024, 0.05788317322731018, -0.11589956283569336, -0.1123751848936081, 0.027112692594528198, -0.08169920742511749, 0.09183697402477264, 0.024267688393592834, -0.05816759169101715, 0.11600211262702942, 0.08485464751720428, -0.12135253846645355, 0.015604883432388306, -0.0969579666852951, 0.02317759394645691, -0.08302295207977295, -0.028294891119003296, -0.04948602616786957, -0.0360444039106369, 0.0600043386220932, 0.07857252657413483, -0.12230917811393738, 0.016203761100769043, 0.09717272222042084, -0.03573848307132721, -0.09023632109165192, -0.031913191080093384, -0.11733219027519226, 0.1210644543170929, -0.06472226977348328, -0.07649049162864685, -0.02839753031730652, -0.014729604125022888, 0.051365748047828674, 0.080240398645401, 0.10377520322799683, -0.05510625243186951, -0.07541830837726593, 0.10254053771495819, -0.03903302550315857, 0.06289812922477722, 0.029103770852088928, 0.12336684763431549, 0.07311327755451202, -0.09091085195541382, -0.10515692830085754, -0.08553953468799591, 0.03178809583187103, 0.11972588300704956, -0.04374970495700836, -0.016454577445983887, 0.08075596392154694, -0.037909477949142456, -0.05648814141750336, 0.11653432250022888, -0.09057067334651947, 0.10261307656764984, -0.05786620080471039], [0.07120704650878906, 0.08075061440467834, 0.02463322877883911, 0.06425389647483826, -0.06092500686645508, 0.08025912940502167, 0.07870978116989136, 0.11018076539039612, 0.09692607820034027, 0.04728826880455017, 0.07880765199661255, 0.06411191821098328, -0.06180514395236969, 0.04598426818847656, 0.11864762008190155, -0.009569674730300903, 0.01051466166973114, 0.10450413823127747, 0.0027888715267181396, 0.020096823573112488, 0.10479862987995148, -0.0368155837059021, 0.021527141332626343, 0.033242061734199524, 0.025159060955047607, 0.019839301705360413, 0.03722487390041351, -0.02076047658920288, 0.10614638030529022, -0.005652010440826416, -0.0947476178407669, 0.023967474699020386, -0.03623056411743164, -0.08755531907081604, -0.052983298897743225, -0.11074887216091156, -0.03845326602458954, -0.09329763054847717, 0.02050831913948059, -0.05020466446876526, -0.06541173160076141, -0.021545693278312683, 0.12217102944850922, 0.031557321548461914, 0.1035245954990387, -0.10188466310501099, 0.10652992129325867, -0.048984020948410034, -0.11111296713352203, -0.01389274001121521, -0.11478261649608612, 0.03987117111682892, 0.08086501061916351, -0.08615922927856445, 0.0836155116558075, 0.01185058057308197, -0.11987520754337311, -0.08945238590240479, 0.08348308503627777, -0.07454878091812134, -0.09661844372749329, 0.09865778684616089, 0.07948118448257446, 0.03593960404396057], [-0.06770439445972443, -0.10844056308269501, -0.024132534861564636, -0.07890187203884125, 0.06510460376739502, 0.09965483844280243, 0.03469158709049225, -0.07223847508430481, 0.08145591616630554, 0.018686026334762573, 0.10865555703639984, 0.09749409556388855, 0.07960128784179688, -0.025846704840660095, -0.05076029896736145, -0.016797959804534912, -0.04611055552959442, 0.06026312708854675, -0.055111587047576904, -0.12086313962936401, -0.03874821960926056, -0.10053452849388123, 0.024934247136116028, -0.09709963202476501, 0.09748919308185577, -0.02566717565059662, 0.10673525929450989, -0.06312155723571777, -0.017318814992904663, -0.03591497242450714, -0.021628648042678833, -0.0616142600774765, -0.0820002406835556, 0.04385310411453247, -0.06344346702098846, -0.03226791322231293, -0.010659709572792053, -0.05801814794540405, -0.07860100269317627, -0.06242258846759796, 0.015547752380371094, -0.09589241445064545, 0.06296089291572571, -0.07835163176059723, -0.010053440928459167, -0.022081822156906128, -0.0013212114572525024, 0.03287602961063385, 0.04997694492340088, 0.10259616374969482, 0.06173540651798248, 0.022452056407928467, -0.07680778205394745, 0.028797239065170288, -0.01649656891822815, -0.11106927692890167, 0.06062383949756622, 0.0998314917087555, -0.006048217415809631, 0.04167573153972626, 0.04660314321517944, 0.07303169369697571, 0.013450011610984802, -0.004387840628623962], [0.09089729189872742, -0.11927413940429688, -0.033535853028297424, 0.01643867790699005, 0.06683135032653809, -0.06690645217895508, -0.05938555300235748, -0.0029942989349365234, 0.11763429641723633, -0.10518573224544525, -0.07767169177532196, 0.057261571288108826, 0.07377858459949493, 0.07818613946437836, -0.06060671806335449, 0.08240647614002228, -0.035051435232162476, -0.047503694891929626, -0.10628853738307953, 0.12159477174282074, 0.10099446773529053, -0.048200562596321106, 0.08650250732898712, 0.063632071018219, 0.026969820261001587, 0.015626907348632812, -0.06805609166622162, 0.12414583563804626, 0.11844460666179657, -0.11351245641708374, -0.09458062052726746, -0.03292931616306305, 0.09161828458309174, -0.01615351438522339, 0.10876139998435974, -0.10123096406459808, 0.11983801424503326, 0.11016067862510681, 0.05955372750759125, -0.09641321003437042, 0.016487345099449158, 0.01840965449810028, -0.12292084097862244, 0.00029681622982025146, 0.06647700071334839, 0.008417665958404541, -0.10084161162376404, 0.02369004487991333, 0.048059821128845215, 0.1209440529346466, 0.09935988485813141, 0.09454800188541412, 0.019690796732902527, 0.0018187910318374634, -0.03840963542461395, 0.026439666748046875, -0.035068243741989136, -0.07044146955013275, 0.10784028470516205, 0.07089252769947052, 0.0031648725271224976, -0.08099764585494995, 0.055503711104393005, -0.09530943632125854], [0.08120720088481903, -0.10797303915023804, -0.07992202043533325, -0.07262499630451202, -0.08658520877361298, -0.07798250019550323, 0.09034326672554016, 0.01634293794631958, -0.03239056468009949, -0.12403258681297302, 0.029922008514404297, 0.0054015666246414185, -0.077450692653656, 0.03408558666706085, 0.010665133595466614, 0.11304494738578796, -0.02309650182723999, -0.04555952548980713, -0.10718311369419098, 0.12024882435798645, 0.05557321012020111, -0.032690614461898804, 0.016675323247909546, -0.04903934895992279, 0.09644360840320587, 0.05475221574306488, -0.012172460556030273, 0.1015138030052185, -0.10623089969158173, 0.09159073233604431, 0.10726028680801392, -0.041977643966674805, -0.03675304353237152, 0.08661898970603943, 0.08506815135478973, 0.04669676721096039, 0.052209943532943726, -0.10010866820812225, -0.03474889695644379, 0.10922682285308838, 0.09704545140266418, 0.058742597699165344, -0.1004740297794342, -0.06582438945770264, -0.07521697878837585, -0.10977615416049957, -0.06826302409172058, 0.12463712692260742, -0.03673046827316284, 0.0386250764131546, -0.05915136635303497, 0.11128026247024536, -0.10219725966453552, -0.05621911585330963, 0.012678757309913635, 0.024378672242164612, -0.09636840224266052, -0.006240561604499817, 0.061802685260772705, 0.02736988663673401, -0.05455213785171509, -0.019869253039360046, -0.05287247896194458, -0.06298269331455231], [-0.026983022689819336, 0.01744130253791809, -0.009678438305854797, 0.015272900462150574, 0.10899174213409424, 0.008689090609550476, 0.05850878357887268, -0.10669057071208954, 0.04437611997127533, -0.04907603561878204, -0.06586982309818268, -0.1219063252210617, -0.0787278413772583, -0.038821130990982056, -0.11857832968235016, -0.06254424154758453, 0.11844319105148315, 0.08232393860816956, 0.04856155812740326, -0.11545248329639435, -0.06978750228881836, -0.11209623515605927, 0.09715835750102997, -0.09238289296627045, -0.12361077964305878, 0.0876741111278534, -0.04834580421447754, 0.10179392993450165, 0.10088573396205902, 0.10430797934532166, 0.07620039582252502, -0.07909297943115234, -0.05311916768550873, 0.004509523510932922, -0.09137514233589172, 0.0062188804149627686, -0.041668280959129333, -0.02596937119960785, 0.07063595950603485, 0.12285135686397552, 0.04267682135105133, 0.04221315681934357, 0.10564574599266052, -0.09856757521629333, 0.015511780977249146, 0.03364792466163635, 0.09203687310218811, -0.09480741620063782, -0.10215182602405548, 0.025587692856788635, -0.0836804062128067, 0.017420947551727295, 0.06653229892253876, 0.1009596586227417, 0.05165719985961914, -0.03778751194477081, -0.04267853498458862, 0.006739482283592224, 0.04303133487701416, 0.0158575177192688, -0.0010060667991638184, 0.08874933421611786, -0.03533764183521271, -0.09710344672203064], [-0.02813705801963806, -0.10599017143249512, 0.04545128345489502, 0.007550358772277832, -0.0990138053894043, 0.08415262401103973, -0.11767777800559998, -0.09608472883701324, 0.039108216762542725, -0.10655497014522552, 0.056741341948509216, 0.02361619472503662, -0.05142909288406372, 0.07931886613368988, -0.011407002806663513, 0.04668097198009491, -0.046587660908699036, 0.07700549066066742, -0.10207168757915497, -0.10141266882419586, 0.017627567052841187, -0.1061907559633255, -0.04424360394477844, 0.08322015404701233, -0.04800853133201599, 0.08203074336051941, 0.08777661621570587, 0.01761108636856079, -0.10358758270740509, 0.03570210933685303, 0.08850350975990295, 0.1224970668554306, -0.0058062076568603516, -0.036705270409584045, -0.037081196904182434, -0.10371947288513184, 0.03333526849746704, 0.023577392101287842, -0.09062753617763519, 0.01745706796646118, 0.11635573208332062, 0.10863234102725983, 0.11030490696430206, -0.06380103528499603, -0.104916512966156, -0.009888783097267151, 0.03563286364078522, 0.10095696151256561, -0.027718335390090942, 0.11753581464290619, -0.09825316071510315, 0.07233956456184387, -0.12019820511341095, -0.013000160455703735, 0.008713185787200928, -0.022934406995773315, -0.032126396894454956, -0.07715696096420288, -0.005138888955116272, 0.12006458640098572, 0.08078479766845703, -0.022649139165878296, 0.01525011658668518, 0.0003787130117416382], [-0.01023469865322113, 0.03615102171897888, 0.09891271591186523, 0.10447891056537628, 0.11412380635738373, -0.011277884244918823, 0.01378379762172699, -0.0013335347175598145, -0.09200379252433777, -0.08817817270755768, -0.009397774934768677, -0.005941212177276611, -0.004075735807418823, -0.11628496646881104, 0.03279486298561096, 0.057297542691230774, 0.047554969787597656, -0.12060198187828064, -0.02806711196899414, -0.07051725685596466, 0.10750719904899597, -0.021602332592010498, -0.0416596382856369, -0.036672696471214294, -0.09926667809486389, 0.07508505880832672, -0.06018562614917755, -0.01066581904888153, -0.11262102425098419, 0.0845324695110321, -0.02214778959751129, 0.0661524087190628, -0.10161221027374268, 0.05747726559638977, 0.07056179642677307, 0.12173737585544586, -0.009462475776672363, -0.10894951224327087, -0.10954269766807556, -0.0752374529838562, -0.05603314936161041, -0.0712929517030716, -0.0796414464712143, -0.04884219169616699, -0.023914366960525513, 0.040359750390052795, 0.12028239667415619, 0.11700324714183807, 0.029538720846176147, -0.11740043759346008, -0.0081491619348526, -0.11058259010314941, -0.07982286810874939, 0.09529286623001099, -0.10563704371452332, 0.08024273812770844, -0.08699068427085876, -0.07152839004993439, 0.1051834374666214, -0.07397320866584778, -0.042016804218292236, 0.03406555950641632, 0.06336711347103119, -0.0484253466129303], [-0.05614474415779114, 0.009492158889770508, -0.02822194993495941, -0.11875256896018982, 0.02327670156955719, -0.06346556544303894, -0.0921131819486618, 0.10232585668563843, -0.028760910034179688, 0.014720067381858826, 0.051787763833999634, 0.014153018593788147, 0.014277726411819458, 0.028624102473258972, 0.011673569679260254, 0.035960957407951355, 0.06945197284221649, -0.09363143146038055, 0.07581400871276855, 0.08848325908184052, 0.006832510232925415, 0.10094203054904938, -0.041104719042778015, 0.06472736597061157, 0.06813901662826538, 0.004441738128662109, 0.07981647551059723, 0.04638643562793732, 0.018804877996444702, -0.0971808135509491, -0.1032046228647232, -0.05600851774215698, -0.06401365995407104, 0.07278020679950714, -0.12492610514163971, 0.081240713596344, -0.0027968883514404297, 0.12205642461776733, 0.08611632883548737, 0.05635102093219757, 0.05483953654766083, -0.05982397496700287, 0.09909240901470184, 0.0640583336353302, -0.0005493015050888062, 0.02925752103328705, 0.049537673592567444, 0.0785263329744339, -0.06086935102939606, 0.08459196984767914, 0.01186034083366394, -0.11066153645515442, 0.08292567729949951, 0.11302611231803894, 0.09865023195743561, -0.008781254291534424, 0.12176644802093506, -0.11610759794712067, 0.11684831976890564, -0.06691230833530426, 0.037758663296699524, -0.0786694586277008, -0.04379338026046753, 0.10403028130531311], [-0.08214028179645538, -0.03915046155452728, -0.07844461500644684, -0.12226538360118866, -0.03790818154811859, 0.07751524448394775, -0.11788918077945709, -0.06548634171485901, -0.0885966569185257, -0.03740993142127991, -0.023341089487075806, -0.03359174728393555, 0.03628264367580414, -0.045937180519104004, -0.04060332477092743, -0.044247061014175415, 0.11530962586402893, 0.05470189452171326, 0.11715172231197357, 0.02009454369544983, 0.03190168738365173, 0.09812118113040924, 0.021305710077285767, -0.014982610940933228, 0.08707652986049652, -0.09159412980079651, 0.06946153938770294, -0.11759190261363983, 0.04508848488330841, -0.02464139461517334, 0.057049185037612915, 0.11301015317440033, -0.09463319182395935, -0.10325726866722107, 0.012903079390525818, 0.11942777037620544, 0.10627575218677521, 0.05433832108974457, -0.02924157679080963, 0.0979975014925003, -0.05571581423282623, -0.01295401155948639, 0.04831092059612274, -0.050883859395980835, -0.050441861152648926, -0.0907297134399414, -0.06977038085460663, 0.04715150594711304, -0.08509638905525208, -0.11191755533218384, -0.026950061321258545, 0.018500223755836487, 0.11537531018257141, 0.08022727072238922, -0.0007806271314620972, 0.08109328150749207, -0.05905620753765106, -0.07563121616840363, -0.003297671675682068, 0.0576213002204895, -0.029791951179504395, -0.07275968790054321, 0.01187509298324585, -0.08762578666210175], [-0.07760810852050781, -0.11608096957206726, 0.03263683617115021, 0.08790987730026245, -0.11228139698505402, 0.010077103972434998, -0.006993547081947327, 0.06870712339878082, 0.06583939492702484, -0.007725998759269714, -0.05563102662563324, 0.007453173398971558, -0.062294721603393555, 0.07083472609519958, -0.04661743342876434, -0.09129202365875244, 0.03322236239910126, -0.04634007811546326, -0.05574052035808563, 0.048374295234680176, 0.012811169028282166, 0.03081411123275757, -0.07290567457675934, 0.06179468333721161, -0.0005415827035903931, 0.06901292502880096, -0.08522103726863861, -0.0914846658706665, -0.12266840040683746, -0.03502547740936279, 0.06751766800880432, -0.041802778840065, -0.006369054317474365, 0.00028261542320251465, 0.10515941679477692, -0.03354574739933014, -0.11131907999515533, -0.019544556736946106, -0.122316375374794, 0.030636489391326904, -0.09539636969566345, 0.046915456652641296, -0.05267387628555298, -0.06850361824035645, 0.03890767693519592, 0.04472765326499939, 0.10584336519241333, 0.11353923380374908, -0.06560215353965759, -0.11822052299976349, 0.010682746767997742, -0.09967000782489777, 0.0067669302225112915, -0.07742355763912201, 0.051676034927368164, 0.07362569868564606, -0.031670987606048584, 0.04753489792346954, -0.005686655640602112, -0.022495388984680176, -0.04226584732532501, 0.027474209666252136, 0.011444836854934692, -0.06227223575115204], [0.0025462806224823, -0.041854336857795715, 0.08838748931884766, -0.12034031748771667, -0.05294741690158844, 0.0831649899482727, -0.07543081045150757, -0.015108883380889893, 0.10643121600151062, -0.12490381300449371, -0.055220380425453186, -0.069300577044487, -0.012035682797431946, 0.001490667462348938, 0.013902857899665833, 0.03941582143306732, 0.09261968731880188, 0.12045550346374512, 0.05797773599624634, -0.03165510296821594, 0.11010736227035522, 0.08243447542190552, -0.1167897880077362, -0.04806353151798248, 0.055041685700416565, 0.09689167141914368, 0.05619919300079346, -0.009398356080055237, 0.014938965439796448, 0.008074387907981873, 0.004865795373916626, -0.030692771077156067, -0.021998345851898193, 0.04007498919963837, -0.01061268150806427, 0.06632861495018005, 0.036736100912094116, 0.07776068150997162, -0.053293243050575256, -0.04271700978279114, -0.10022492706775665, 0.04209908843040466, -0.06195010244846344, -0.0196545273065567, 0.12222921848297119, 0.08420734107494354, 0.04673565924167633, 0.03001081943511963, -0.07502627372741699, -0.07529346644878387, -0.0009492039680480957, -0.0683063268661499, -0.06763000786304474, 0.013552263379096985, 0.010208353400230408, -0.08106774091720581, -0.03466293215751648, 0.059709325432777405, -0.01634494960308075, -0.08031241595745087, -0.08745437860488892, -0.0170133113861084, 0.11459094285964966, -0.08860345184803009], [0.07670757174491882, 0.06140159070491791, 0.11347644031047821, 0.055389970541000366, 0.06575621664524078, -0.10440900921821594, -0.017533347010612488, -0.08818674087524414, 0.10176213085651398, -0.09094949066638947, 0.07704469561576843, 0.007165968418121338, 0.10533148050308228, 0.10815481841564178, 0.11282965540885925, -0.07342840731143951, 0.003245323896408081, 0.09877069294452667, -0.08626845479011536, -0.06913125514984131, 0.12074074149131775, 0.11732225120067596, 0.12010213732719421, 0.11850312352180481, 0.01732581853866577, -0.031876832246780396, -0.06239405274391174, -0.044771745800971985, 0.004246726632118225, -0.01689082384109497, 0.12338392436504364, 0.06671832501888275, 0.004132330417633057, -0.004099354147911072, 0.04840981960296631, -0.07701949775218964, -0.11864429712295532, -0.09128017723560333, 0.004105463624000549, 0.09521721303462982, 0.07382155954837799, -0.09187999367713928, 0.10328201949596405, -0.07063859701156616, -0.07344631850719452, -0.08429461717605591, -0.07553248107433319, -0.03943409025669098, 0.10948777198791504, 0.07348756492137909, 0.047536998987197876, -0.07463118433952332, 0.1219320297241211, 0.022421613335609436, -0.005967289209365845, -0.1136290580034256, -0.004643499851226807, 0.056229785084724426, -0.11491481959819794, -0.007973983883857727, -0.0819578766822815, 0.06284387409687042, 0.06791628897190094, -0.12028896808624268], [0.01864725351333618, 0.036044880747795105, 0.00010463595390319824, -0.014354825019836426, -0.08057552576065063, 0.004649296402931213, 0.029197290539741516, -0.0899411290884018, -0.03804458677768707, 0.0271136611700058, -0.12146914005279541, -0.07082973420619965, -0.10564784705638885, 0.010184496641159058, 0.10075163841247559, 0.0014555156230926514, -0.013267844915390015, -0.025470539927482605, 0.07908335328102112, -0.10278359055519104, 0.03963841497898102, 0.03094397485256195, -0.07926104962825775, 0.0903136283159256, -0.011437907814979553, 0.05313745141029358, -0.029205724596977234, -0.09850066900253296, 0.03667731583118439, 0.11959980428218842, -0.08293305337429047, -0.0654546469449997, -0.03889918327331543, 0.08285608887672424, -0.0017223507165908813, -0.06287682056427002, 0.07467219233512878, -0.014510154724121094, 0.09860968589782715, 0.02905064821243286, 0.03024810552597046, -0.06309609115123749, -0.015036314725875854, 0.11539220809936523, 0.0034620165824890137, -0.08514322340488434, -0.04351218044757843, -0.039737775921821594, -0.029243767261505127, 0.00941719114780426, -0.057658031582832336, -0.08927267789840698, -0.07007262110710144, 0.0605921745300293, -0.0543757826089859, -0.09302867949008942, 0.07976296544075012, 0.03770579397678375, -0.049521446228027344, 0.1024467796087265, -0.07754111289978027, 0.03267355263233185, -0.07767277956008911, 0.12180611491203308], [0.11144846677780151, 0.01779422163963318, -0.08604519069194794, 0.018159255385398865, 0.05641065537929535, 0.06344489753246307, 0.06152793765068054, 0.09807763993740082, -0.08436872065067291, -0.10113765299320221, 0.12485632300376892, 0.058487340807914734, -0.009077399969100952, -0.05061347782611847, -0.09402868151664734, 0.11500217020511627, 0.11949780583381653, 0.08717308938503265, -0.09291502833366394, -0.10313479602336884, -0.0018191337585449219, 0.09029853343963623, 0.010193675756454468, 0.04014848172664642, 0.057725414633750916, -0.07412254810333252, -0.11554737389087677, -0.06687566637992859, -0.09336777031421661, -0.017175614833831787, 0.10400186479091644, -0.08229593932628632, 0.09638097882270813, 0.07823140919208527, 0.03658820688724518, -0.04834744334220886, -0.07742208242416382, 0.09231477975845337, 0.007972344756126404, -0.033537790179252625, 0.08652187883853912, 0.012581095099449158, 0.03281649947166443, -0.09545403718948364, 0.1087278425693512, -0.09678378701210022, -0.08080403506755829, -0.042782559990882874, -0.09416329860687256, -0.04538273811340332, 0.11111022531986237, 0.1087552160024643, -0.12436600029468536, -0.029736638069152832, -0.047472551465034485, 0.03396753966808319, 0.12045428156852722, -0.12488925457000732, 0.0859716534614563, -0.05626598000526428, 0.11268708109855652, 0.08937840163707733, 0.11569491028785706, 0.03691259026527405], [0.012442708015441895, 0.01574072241783142, -0.015240684151649475, 0.019547641277313232, -0.03442518413066864, -0.050181448459625244, -0.04566064476966858, -0.06669476628303528, 0.053451716899871826, -0.10517226159572601, 0.03291800618171692, 0.04864737391471863, -0.018425211310386658, -0.10930207371711731, 0.001597777009010315, -0.09396301209926605, -0.11772958934307098, -0.023456454277038574, 0.03962627053260803, 0.0513293594121933, 0.04850202798843384, 0.03661355376243591, -0.009081915020942688, -0.10015413165092468, 0.03593261539936066, 0.0948886126279831, -0.09531131386756897, -0.09298616647720337, -0.10158760845661163, 0.0005778223276138306, 0.0205744206905365, -0.05593241751194, 0.11024737358093262, 0.08738680183887482, 0.09158338606357574, 0.06758058071136475, 0.06782080233097076, 0.012864872813224792, -0.06753407418727875, -0.04377608001232147, 0.03462564945220947, -0.0567636638879776, -0.003869190812110901, -0.09670668840408325, -0.024545609951019287, -0.052310511469841, -0.0683327168226242, 0.05053737759590149, 0.109161376953125, 0.11066588759422302, 0.08680547773838043, -0.02426689863204956, 0.06777516007423401, 0.12469333410263062, -0.09205880761146545, 0.0754927545785904, -0.02334563434123993, 0.03162749111652374, 0.10941265523433685, -0.037764772772789, 0.0627608448266983, 0.12189558148384094, -0.08548629283905029, -0.032156169414520264], [-0.10802793502807617, -0.039498552680015564, 0.10160881280899048, 0.049986839294433594, -0.09896780550479889, -0.050154536962509155, 0.040308669209480286, -0.07998664677143097, 0.022364646196365356, -0.09620089828968048, 0.0517759770154953, 0.04735440015792847, 0.07859174907207489, 0.025043264031410217, 0.07674889266490936, -0.02619422972202301, -0.09659451246261597, 0.010579243302345276, -0.0412103533744812, 0.05270025134086609, -0.03630645573139191, -0.0669025182723999, -0.026515275239944458, -0.09102162718772888, 0.01264779269695282, -0.08042766153812408, -0.01910501718521118, -0.03238779306411743, 0.11848366260528564, -0.037385642528533936, 0.08020780980587006, -0.03410431742668152, -0.09421296417713165, -0.04898998141288757, -0.062287211418151855, -0.030078992247581482, -0.056936055421829224, 0.03010319173336029, 0.07957190275192261, -0.08793133497238159, -0.08132590353488922, 0.016376107931137085, -0.05150917172431946, -0.07744219899177551, 0.05305798351764679, -0.05453243851661682, 0.058867812156677246, 0.019169539213180542, 0.048385486006736755, 0.034722521901130676, -0.10827843844890594, 0.06275688111782074, -0.08918055891990662, 0.05972126126289368, -0.04144693911075592, -0.04124101996421814, -0.055007174611091614, 0.07450713217258453, 0.022404521703720093, -0.02434605360031128, -0.04849348962306976, 0.09234623610973358, 0.03115321695804596, -0.012568607926368713], [-0.09377250075340271, 0.034274786710739136, -0.0470893532037735, 0.06100408732891083, -0.0924382209777832, -0.031785935163497925, -0.01167362928390503, 0.11983087658882141, -0.0069036781787872314, 0.01592428982257843, -0.07336576282978058, -0.10618403553962708, 0.007736071944236755, -0.0008884817361831665, 0.05804479122161865, 0.04602755606174469, -0.03370527923107147, 0.03631642460823059, 0.08556963503360748, -0.02921965718269348, -0.0205327570438385, -0.035748839378356934, -0.0874624103307724, 0.06458775699138641, -0.021483689546585083, 0.04829859733581543, -0.004148349165916443, -0.0845034271478653, -0.06601139903068542, -0.08137321472167969, -0.04707133769989014, -0.007791832089424133, 0.07210731506347656, -0.02187378704547882, -0.08616183698177338, 0.11209185421466827, -0.05298963189125061, -0.007313132286071777, 0.029117539525032043, -0.03387036919593811, -0.10071989893913269, -0.07965987920761108, 0.0020209401845932007, 0.04664495587348938, 0.10756582021713257, -0.024331003427505493, 0.03890511393547058, 0.02211625874042511, -0.03230276703834534, 0.05706958472728729, 0.02294035255908966, -0.12036748230457306, -0.00555872917175293, 0.007275179028511047, 0.024522855877876282, -0.03587524592876434, -0.10995830595493317, 0.007679194211959839, -0.07212339341640472, 0.06466425955295563, -0.0015754550695419312, -0.09205929934978485, -0.07570284605026245, -0.09137119352817535], [-0.03586186468601227, -0.022427096962928772, -0.03870394825935364, -0.0023392438888549805, 0.035397544503211975, 0.04878515005111694, 0.05502922832965851, 0.07170814275741577, -0.12384089827537537, -0.06204625964164734, -0.029798373579978943, 0.0865492969751358, 0.045310914516448975, -0.0241098552942276, -0.11323079466819763, 0.05318047106266022, -0.1125861257314682, 0.06291009485721588, -0.11552047729492188, 0.11732897162437439, 0.08011305332183838, -0.05375760793685913, 0.124754399061203, 0.06602229177951813, -0.01101653277873993, -0.05455562472343445, 0.003513738512992859, 0.019152328372001648, -0.04544566571712494, 6.22868537902832e-05, -0.0744466483592987, -0.11207683384418488, -0.018873825669288635, 0.049551427364349365, -0.10386621952056885, 0.06996053457260132, 0.011593356728553772, -0.10447843372821808, -0.12352322041988373, -0.035295143723487854, -0.006859511137008667, 0.11464981734752655, 0.0390990674495697, -0.05411820113658905, -0.07892286777496338, -0.08053910732269287, 0.1164996325969696, -0.04400661587715149, 0.04972654581069946, -0.079310342669487, 0.03560066223144531, 0.1118612140417099, 0.06676073372364044, -0.06201471388339996, -0.06739628314971924, -0.0342644602060318, 0.035104140639305115, 0.12475906312465668, -0.03202413022518158, -0.10856309533119202, 0.08382786810398102, -0.07878264784812927, 0.11938515305519104, -0.09369784593582153], [-0.06119745969772339, 0.049974068999290466, 0.11680001020431519, 0.12473410367965698, -0.10688123106956482, -0.03530159592628479, 0.05955341458320618, -0.08168050646781921, 0.08345821499824524, 0.10561946034431458, -0.03112354874610901, 0.03205445408821106, 0.08075383305549622, -0.11131356656551361, 0.012681126594543457, 0.09737089276313782, 0.050942376255989075, -0.005973711609840393, -0.0006753802299499512, -0.024664506316184998, -0.04798167943954468, -0.06947800517082214, 0.05110415816307068, 0.012492150068283081, 0.049386829137802124, -0.07588790357112885, 0.06961044669151306, -0.08436833322048187, 0.043164655566215515, 0.017714709043502808, -0.06759870052337646, 0.08125351369380951, -0.10663415491580963, -0.08489277958869934, -0.10282276570796967, 0.0013537853956222534, -0.06823460757732391, 0.007934868335723877, 0.041571423411369324, -0.07401874661445618, -0.11217391490936279, 0.10941863059997559, -0.10132262110710144, -0.08424681425094604, 0.027627259492874146, -0.07663720846176147, 0.008082151412963867, -0.02229948341846466, 0.004592284560203552, 0.020900830626487732, 0.08189699053764343, 0.05505263805389404, 0.12389740347862244, 0.10396018624305725, 0.10846753418445587, -0.01985900104045868, -0.03592906892299652, 0.11252151429653168, 0.03133268654346466, -0.08698795735836029, -0.024801626801490784, 0.10909219086170197, 0.07469691336154938, -0.062352314591407776], [0.018369928002357483, -0.017655208706855774, -0.07712027430534363, -0.06100983917713165, -0.0484171062707901, 0.05135166645050049, -0.09011240303516388, -0.013886362314224243, -0.08045384287834167, -0.12387768924236298, -0.10686372220516205, -0.03815077245235443, -0.009438619017601013, 0.11913429200649261, -0.012121707201004028, 0.08257842063903809, 0.083092600107193, 0.02559162676334381, -0.1185784637928009, 0.0019062310457229614, 0.046709224581718445, 0.07098706066608429, -0.04658938944339752, -0.09300307929515839, -0.08636513352394104, -0.09734602272510529, 0.04054073989391327, -0.05054593086242676, -0.08585847914218903, 0.05891349911689758, 0.054699137806892395, -0.016873449087142944, 0.006183698773384094, 0.08519217371940613, -0.049345508217811584, 0.09817790985107422, 0.00815322995185852, -0.07872343063354492, 0.036984920501708984, 0.06346036493778229, -0.11405469477176666, 0.10068744421005249, -0.07328677177429199, 0.017606347799301147, 0.06885914504528046, -0.05410949885845184, -0.11925315856933594, 0.06095360219478607, 0.014759913086891174, -0.08891324698925018, 0.08850067853927612, 0.10049547255039215, -0.03915122151374817, 0.08693788945674896, 0.09554098546504974, 0.04313451051712036, 0.01727116107940674, -0.05551435053348541, -0.06382964551448822, -0.09687840938568115, -0.05218750238418579, -0.0369429737329483, 0.0913553386926651, -0.023590579628944397], [-0.08795338869094849, -0.060122519731521606, 0.08767770230770111, 0.006252676248550415, 0.0036780983209609985, 0.02772316336631775, 0.0789056271314621, -0.022708341479301453, 0.09242530167102814, -0.06468035280704498, 0.03079846501350403, 0.014853507280349731, -0.043734654784202576, 0.05463489890098572, -0.054379358887672424, 0.01602037250995636, 0.026995554566383362, -0.03313221037387848, -0.12488539516925812, -0.04595978558063507, 0.09709182381629944, -0.12440350651741028, 0.07156628370285034, 0.0939604789018631, 0.11366137862205505, -0.019828155636787415, 0.09774340689182281, -0.09497225284576416, -0.1247810572385788, 0.05684247612953186, 0.08769823610782623, 0.11637455224990845, 0.031935468316078186, -0.0017749220132827759, 0.09726710617542267, 0.0656270831823349, -0.0067703574895858765, 0.011578395962715149, -0.0826321393251419, 0.04559624195098877, -0.10150204598903656, 0.11634492874145508, -0.10097970068454742, 0.05731569230556488, -0.09889352321624756, -0.09221582114696503, 0.03944075107574463, -0.056620001792907715, 0.038664668798446655, 0.030251920223236084, 0.06461584568023682, 0.08523599803447723, 0.02408197522163391, 0.10168364644050598, -0.008410334587097168, -0.020726323127746582, 0.027703478932380676, -0.07238170504570007, -0.08903844654560089, 0.09729394316673279, 0.009240835905075073, 0.01584121584892273, 0.11095002293586731, -0.04672540724277496], [0.10196556150913239, 0.0653955340385437, -0.05730123817920685, 0.05795964598655701, 0.10695834457874298, 0.07336375117301941, 0.0563693642616272, -0.04167255759239197, 0.042116180062294006, 0.07138992846012115, -0.0999746322631836, -0.10873425006866455, -0.09094327688217163, -0.0450870543718338, -0.05503176152706146, -0.019857138395309448, -0.044306740164756775, -0.08865199983119965, 0.11704227328300476, 0.05152289569377899, 0.100070521235466, 0.11703945696353912, 0.10055160522460938, -0.02385646104812622, -0.0805017501115799, 0.12457364797592163, -0.0026582032442092896, 0.005482286214828491, -0.12292821705341339, -0.03923007845878601, -0.0013646334409713745, -0.1048736721277237, -0.05223532021045685, -0.006797656416893005, 0.09648101031780243, 0.07030443847179413, 0.09651064872741699, -0.05939118564128876, -0.050487399101257324, 0.11801040172576904, -0.03033280372619629, -0.01621466875076294, -0.0475999116897583, -0.07968296110630035, 0.009173646569252014, 0.03956413269042969, 0.017010614275932312, 0.014452159404754639, -0.10982196033000946, 0.01606370508670807, -0.062343478202819824, 0.10967466235160828, -0.1135866791009903, 0.12099295854568481, -0.05011412501335144, 0.09149803221225739, -0.007157817482948303, 0.01725773513317108, -0.09813976287841797, 0.012417614459991455, 0.0721590518951416, -0.08891043066978455, -0.10193192958831787, -0.025828436017036438], [-0.10167400538921356, -0.11875711381435394, 0.054640740156173706, 0.022607773542404175, -0.03592880070209503, 0.11501890420913696, 0.0557866096496582, -0.009795933961868286, 0.02363090217113495, 0.018677860498428345, 0.10558938980102539, 0.06316782534122467, 0.061748310923576355, -0.056454822421073914, -0.03284554183483124, 0.06361445784568787, -0.08645083010196686, -0.10997436940670013, -0.07455828785896301, -0.037240177392959595, 0.01614534854888916, -0.12313464283943176, 0.008725598454475403, -0.052304044365882874, -0.08411546051502228, -0.09806516766548157, 0.03357553482055664, 0.009487316012382507, 0.07071314752101898, -0.03777901828289032, 0.09803923964500427, 0.0676836371421814, 0.0791543573141098, -0.06262300908565521, -0.03190162777900696, -0.11754748225212097, 0.10316677391529083, 0.050299063324928284, 0.03761465847492218, 0.11289827525615692, 0.11127473413944244, -0.034576237201690674, 0.03210604190826416, -0.10096071660518646, -0.01056380569934845, 0.018121972680091858, -0.09480166435241699, -0.07934954762458801, 0.06511104106903076, -0.049973517656326294, 0.07462319731712341, 0.03902497887611389, -0.10720941424369812, -0.051625534892082214, 0.014960169792175293, -0.06404368579387665, -0.006860896944999695, 0.06015133857727051, -0.0549553781747818, 0.0894189178943634, 0.04456046223640442, -0.11253271996974945, 0.027474448084831238, 0.09343500435352325], [-0.03428313136100769, -0.04655978083610535, -0.059026822447776794, 0.07401466369628906, -0.0523238480091095, 0.020938441157341003, -0.09034128487110138, -0.03285995125770569, 0.01573832333087921, -0.08846724033355713, 0.0646500438451767, 0.11993633210659027, 0.028687193989753723, -0.04152335226535797, 0.11770473420619965, 0.10928601026535034, -0.10633537173271179, 0.08874359726905823, -0.09652043879032135, 0.061686769127845764, 0.054512739181518555, 0.023693904280662537, -0.12337279319763184, -0.014783084392547607, 0.02769649028778076, -0.049215883016586304, 0.10293149948120117, 0.12092845141887665, 0.10869283974170685, 0.10236576199531555, -0.018306970596313477, -0.10009065270423889, 0.1233641654253006, 0.00033843517303466797, 0.007072344422340393, -0.03530678153038025, -0.038550734519958496, 0.10581168532371521, -0.06527779996395111, -0.027088284492492676, -0.07423853874206543, -0.02790011465549469, -0.08840399980545044, -0.055598825216293335, 0.11778707802295685, 0.002293333411216736, -0.11171193420886993, 0.12000440061092377, 0.001633673906326294, -0.1151522696018219, 0.10114820301532745, -0.043291300535202026, -0.07914654910564423, -0.03823763132095337, 0.102552130818367, 0.002259761095046997, -0.0942305475473404, -0.03296010196208954, 0.12378577888011932, -0.11640912294387817, -0.0681806355714798, -0.09911927580833435, 0.09420657157897949, -0.07308359444141388], [0.05477873980998993, -0.0881977379322052, 0.0865698903799057, -0.021202221512794495, 0.11946308612823486, 0.027809977531433105, -0.04424808919429779, 0.052273228764534, 0.012295663356781006, 0.023916468024253845, -0.08937369287014008, -0.028658628463745117, 0.049814656376838684, 0.017301633954048157, 0.07474829256534576, 0.07993119955062866, 0.04559198021888733, 0.05646304786205292, 0.02639630436897278, -0.02589765191078186, 0.08243998885154724, 0.036859795451164246, 0.1001608818769455, -0.02813178300857544, -0.1033148318529129, 0.08454318344593048, -0.1059628427028656, -0.12268108129501343, -0.0015724003314971924, -0.041228801012039185, -0.03661397099494934, -0.07299058139324188, -0.07156738638877869, -0.018115714192390442, 0.07083068788051605, 0.06525835394859314, -0.04611468315124512, 0.0028321295976638794, -0.09355717897415161, -0.11624570190906525, -0.06680099666118622, 0.012126699090003967, 0.010638445615768433, -0.0556471049785614, -0.07632732391357422, -0.03342270851135254, 0.08343398571014404, -0.10453149676322937, 0.11593867838382721, 0.12192630767822266, 0.008983075618743896, 0.10729685425758362, 0.012725099921226501, 0.09410345554351807, 0.029028788208961487, -0.029599785804748535, 0.12265431880950928, 0.08878923952579498, -0.06832572817802429, -0.10010194778442383, -0.05821095407009125, 0.019507423043251038, 0.06852366030216217, 0.11473855376243591], [0.11027070879936218, 0.09553949534893036, -0.10323742032051086, -0.04390177130699158, 0.03931961953639984, 0.031567707657814026, -0.12003274261951447, -0.07479248940944672, 0.06530140340328217, 0.03769838809967041, 0.013520479202270508, -0.01861332356929779, -0.07396957278251648, 0.08777929842472076, 0.007897809147834778, -0.06808939576148987, -0.07960604131221771, 0.0419461727142334, -0.06654512882232666, -0.05668877065181732, -0.0013973861932754517, 0.01677049696445465, 0.06801100075244904, 0.03257074952125549, 0.0662631243467331, 0.10517114400863647, 0.01919560134410858, 0.023760586977005005, 0.028402134776115417, -0.06943626701831818, 0.03043968975543976, 0.06326422095298767, -0.03533533215522766, -0.10480795800685883, -0.008872807025909424, 0.10754911601543427, 0.12285245954990387, -0.012452811002731323, 0.12411001324653625, 0.05976191163063049, -0.04256749153137207, 0.0017487704753875732, -0.03980064392089844, -0.014729663729667664, -0.055714428424835205, 0.07715275883674622, 0.026397496461868286, -0.09412829577922821, 0.11820435523986816, -0.022228851914405823, -0.09473416209220886, -0.06820885837078094, -0.11504025757312775, -0.07225343585014343, 0.039478376507759094, 0.04349695146083832, 0.07778842747211456, 0.10888980329036713, -0.10177414119243622, -0.07740487158298492, -0.09739525616168976, -0.0834575742483139, -0.10710877180099487, 0.059354767203330994], [0.10506147146224976, 0.010808557271957397, 0.034031376242637634, 0.0728280246257782, -0.04958483576774597, 0.07191094756126404, -0.07887417078018188, 0.06869252026081085, -0.0017995238304138184, -0.02772560715675354, 0.1189756691455841, 0.0734868049621582, -0.09471631050109863, -0.03799779713153839, 0.003755524754524231, 0.07072538137435913, -0.0646408349275589, 0.011030808091163635, -0.03870132565498352, 0.08654244244098663, 0.002329811453819275, 0.07485072314739227, 0.05768747627735138, 0.046014055609703064, 0.010560557246208191, 0.03853084146976471, -0.023388788104057312, 0.11035533249378204, 0.11391502618789673, 0.12027888000011444, -0.10215198993682861, 0.008907467126846313, -0.014184936881065369, -0.03688766062259674, -0.09355863928794861, 0.0007303059101104736, -0.06969413161277771, -0.041775986552238464, -0.11181138455867767, -0.05755093693733215, -0.09940817952156067, -0.10302464663982391, -0.11669686436653137, 0.0934300422668457, -0.09456203877925873, -0.030413120985031128, 0.003365740180015564, -0.09243817627429962, 0.09869527816772461, -0.0032095611095428467, 0.029634878039360046, 0.08273836970329285, -0.11314953863620758, -0.11011448502540588, 0.008658096194267273, 0.10041666030883789, 0.06820094585418701, -0.11786137521266937, -0.043420448899269104, 0.017451658844947815, -0.09432606399059296, 0.09851011633872986, -0.09960716962814331, 0.054103463888168335], [-0.08264179527759552, 0.009505867958068848, -0.01355956494808197, 0.005694210529327393, 0.1141735166311264, 0.10886374115943909, 0.009863048791885376, 0.11200007796287537, 0.10983897745609283, 0.03038807213306427, -0.04026098549365997, -0.0991448163986206, -0.10525798797607422, -0.04913829267024994, -0.028998762369155884, 0.10979223251342773, 0.08665525913238525, 0.002354353666305542, 0.007790550589561462, 0.04510462284088135, -0.028813451528549194, 0.10061343014240265, 0.09775970876216888, -0.11105844378471375, 0.069430410861969, 0.04697759449481964, 0.11808398365974426, 0.09179922938346863, -0.08651991188526154, -0.02478139102458954, 0.08581265807151794, 0.08904825150966644, 0.07676756381988525, 0.04709029197692871, -0.09778857231140137, -0.020901799201965332, 0.07492338120937347, -0.06950467824935913, -0.005483224987983704, 0.11579734086990356, -0.0371885746717453, 0.0350559800863266, -0.0039266496896743774, -0.04184514284133911, -0.07439069449901581, -0.05236315727233887, 0.09017139673233032, 0.03829197585582733, -0.08592012524604797, 0.048280805349349976, -0.009878084063529968, 0.11771488189697266, 0.0055715590715408325, 0.06832125782966614, -0.022919654846191406, -0.0004797130823135376, -0.030967846512794495, -0.10766004025936127, 0.11823104321956635, 0.0622965544462204, 0.00789371132850647, 0.0051003992557525635, -0.12068210542201996, -0.09921504557132721], [0.079003244638443, -0.11458316445350647, -0.0684666782617569, -0.003146126866340637, 0.10933440923690796, 0.07536211609840393, -0.11309763789176941, -0.025439977645874023, -0.07923328876495361, 0.04402215778827667, 0.09597325325012207, -0.04873071610927582, -0.11226505041122437, 0.12048876285552979, -0.0012711137533187866, -0.00659981369972229, 0.1050700843334198, -0.05740049481391907, 0.0034618228673934937, 0.05245417356491089, -0.031070873141288757, 0.11672315001487732, -0.10203711688518524, 0.08775518834590912, -0.09257939457893372, 0.061747223138809204, 0.03343234956264496, 0.006810128688812256, 0.08626587688922882, -0.09148173034191132, 0.052392229437828064, 0.07491888105869293, -0.11609616875648499, -0.05819360911846161, -0.048650696873664856, -0.0784020870923996, 0.022718772292137146, -0.11229631304740906, -0.08823752403259277, 0.07529938220977783, 0.05040109157562256, 0.0688035637140274, 0.0334097295999527, 0.022280052304267883, 0.04686570167541504, 0.01169353723526001, -0.08635759353637695, 0.12265710532665253, 0.07517082989215851, -0.03755095601081848, 0.06364309787750244, 0.007506668567657471, -0.006262928247451782, 0.06431010365486145, -0.102889284491539, 0.10190650820732117, -0.11083859205245972, -0.03473937511444092, 0.12299846112728119, -0.0017674118280410767, 0.016423210501670837, -0.00554811954498291, 0.10623890161514282, -0.0870276391506195], [0.01647213101387024, 0.07947458326816559, -0.08657066524028778, 0.027196034789085388, -0.06687258183956146, 0.05601148307323456, 0.11988575756549835, 0.057608217000961304, -0.047240763902664185, -0.09013961255550385, 0.10598215460777283, -0.018269062042236328, 0.07553544640541077, 0.07924675941467285, 0.07823234796524048, -0.09672486782073975, 0.06914074718952179, -0.06728474795818329, -0.05834069848060608, -0.11080604791641235, -0.11857329308986664, -0.05302676558494568, -0.027771204710006714, 0.03382430970668793, 0.10798868536949158, 0.0009118318557739258, 0.023186564445495605, -0.03219674527645111, -0.12058404088020325, -0.10878591239452362, 0.11319516599178314, 0.03669559955596924, -0.06642748415470123, -0.07155142724514008, 0.08421164751052856, -0.08574829995632172, 0.07609252631664276, 0.0013416409492492676, -0.02698846161365509, 0.022065669298171997, 0.01898251473903656, -0.012964293360710144, 0.004765912890434265, 0.0369681715965271, 0.1107480376958847, -0.025839462876319885, -0.06873990595340729, -0.06729099154472351, -0.07134774327278137, -0.01865573227405548, 0.12406843900680542, -0.04697290062904358, -0.05140756070613861, -0.0617731511592865, -0.08250299096107483, -0.11786992847919464, 0.12491604685783386, -0.05490374565124512, -0.016542822122573853, -0.09603224694728851, -0.08519817888736725, 0.09039799869060516, 0.057766661047935486, 0.12148965895175934], [-0.03278335928916931, 0.1240459531545639, -0.04529079794883728, -0.014203771948814392, 0.016220256686210632, 0.05907838046550751, -0.03921346366405487, 0.006489157676696777, -0.01706083118915558, -0.023294195532798767, -0.08516688644886017, -0.12367424368858337, 0.06510689854621887, -0.07088562846183777, 0.023127898573875427, -0.04008546471595764, -0.033535584807395935, 0.09195689857006073, 0.012184709310531616, -0.0753454864025116, 0.08410649001598358, 0.06211964786052704, -0.006274163722991943, 0.10692763328552246, 0.08164070546627045, -0.11243042349815369, 0.04116949439048767, 0.014094173908233643, -0.08917708694934845, -0.018025025725364685, 0.057846635580062866, 0.037463024258613586, -0.00010089576244354248, -0.03633497655391693, 0.025526806712150574, 0.10703803598880768, -0.011934131383895874, -0.0012274980545043945, -0.007017701864242554, 0.09631477296352386, -0.08511584997177124, -0.006094127893447876, 0.11904981732368469, -0.09386593103408813, 0.002632707357406616, -0.05340297520160675, -0.057096853852272034, 0.0037008076906204224, 0.03286677598953247, -0.11771215498447418, -0.08545573055744171, 0.10402080416679382, 0.08495397865772247, -0.0795050710439682, 0.10789582133293152, 0.11751222610473633, 0.1211957186460495, 0.045001134276390076, -0.08275406062602997, 0.10090175271034241, -0.00622028112411499, -0.02257002890110016, -0.017343059182167053, -0.11614105105400085], [0.10307095944881439, 0.11959940195083618, 0.08580777049064636, -0.0094127357006073, 0.07301056385040283, 0.11599336564540863, -0.026876434683799744, 0.07423226535320282, -0.1198934018611908, -0.021561548113822937, -0.030753210186958313, -0.07368262112140656, -0.03575977683067322, -0.10066720843315125, 0.02805343270301819, -0.0671795904636383, -0.099930539727211, -0.05328786373138428, 0.057547762989997864, 0.12374243140220642, -0.11543425917625427, -0.07785344123840332, -0.028858482837677002, 0.015189096331596375, 0.01652868092060089, 0.03196021914482117, -0.0550246387720108, -0.0287034809589386, 0.023179128766059875, 0.06717322766780853, 0.05867655575275421, 0.06782428920269012, 0.10324445366859436, 0.054223060607910156, -0.07407645881175995, -0.004144445061683655, -0.08338114619255066, 0.060720667243003845, -0.02290201187133789, -0.009739115834236145, -0.00910891592502594, 0.08876782655715942, 0.07174290716648102, 0.05482739210128784, 0.1122676432132721, 0.07734590768814087, -0.08121776580810547, 0.06111299991607666, 0.08793169260025024, 0.09256841242313385, 0.06568926572799683, -0.014711275696754456, -0.10563553869724274, 0.003797784447669983, -0.037807971239089966, 0.008878305554389954, -0.04595206677913666, -0.10731720924377441, -0.07966668903827667, 0.08995398879051208, 0.04761388897895813, 0.11009357869625092, 0.018639355897903442, 0.03958740830421448], [-0.023144856095314026, -0.04142893850803375, -0.044547587633132935, 0.08791404962539673, -0.11370645463466644, 0.08520212769508362, 0.052512481808662415, 0.019061118364334106, -0.08498097956180573, 0.08482897281646729, 0.001816973090171814, 0.12226474285125732, -0.11994944512844086, -0.11669771373271942, -0.022472068667411804, -0.09455613791942596, 0.11780580878257751, -0.08232322335243225, -0.09999343752861023, 0.07874155044555664, -0.11219571530818939, 0.024211302399635315, -0.06502662599086761, 0.0034727901220321655, 0.014095142483711243, 0.07949794828891754, -0.12240985035896301, 0.07168832421302795, 0.015756145119667053, 0.046729326248168945, 0.09183593094348907, 0.11375539004802704, 0.10224013030529022, -0.07251298427581787, 0.030515030026435852, -0.0044036805629730225, 0.019250482320785522, -0.07934030890464783, -0.038374513387680054, 0.11163638532161713, 0.04156458377838135, -0.09022091329097748, -0.0315437912940979, 0.004870668053627014, 0.07972502708435059, 0.011965110898017883, 0.09853051602840424, -0.03549772500991821, 0.009307682514190674, 0.11316478252410889, -0.09879408776760101, 0.06529787182807922, 0.059927910566329956, -0.09200617671012878, 0.03304682672023773, 0.08688125014305115, 0.09091173112392426, 0.06861360371112823, 0.11706623435020447, 0.08587628602981567, -0.05617666244506836, -0.02151985466480255, 0.11679244041442871, -0.05441942811012268], [0.06886312365531921, 0.09266974031925201, 0.05396966636180878, 0.12243294715881348, -0.04354952275753021, 0.0830887109041214, -0.09155727922916412, 0.1239769458770752, -0.08029134571552277, -0.029847532510757446, 0.11358857154846191, -0.12348639965057373, 0.03257399797439575, -0.03355000913143158, 0.05393338203430176, 0.08601301908493042, -0.06842309236526489, -0.027630627155303955, -0.06615704298019409, 0.0941895991563797, 0.036962494254112244, -0.08896557986736298, 0.11476385593414307, 0.07032665610313416, -0.09214586019515991, 0.04918530583381653, -0.05591133236885071, -0.03877510130405426, -0.00029574334621429443, 0.07211540639400482, -0.020318910479545593, 0.04654344916343689, 0.0788370668888092, -0.023510128259658813, 0.024734169244766235, -0.06616716086864471, -0.11073102056980133, -0.015357360243797302, -0.002158254384994507, -0.10072898864746094, -0.02017141878604889, -0.1190434992313385, 0.08207181096076965, -0.040462031960487366, -0.023717328906059265, -0.014754995703697205, -0.006688326597213745, 0.005834832787513733, 0.10240337252616882, 0.0801309198141098, -0.038506463170051575, 0.08603110909461975, -0.0398884117603302, 0.02369154989719391, 0.12324203550815582, 0.071198970079422, -0.04097682237625122, -0.038988158106803894, -0.04514095187187195, 0.009477019309997559, -0.05068764090538025, -0.09739527106285095, 0.12059742212295532, -0.06057366728782654], [0.043084725737571716, 0.07821927964687347, 0.10146954655647278, -0.009336724877357483, 0.11106489598751068, -0.08150336146354675, -0.010784804821014404, -0.09561045467853546, 0.005638629198074341, -0.08158278465270996, 0.06314010918140411, 0.058770179748535156, 0.027899786829948425, -0.049912527203559875, -0.10826726257801056, 0.08690480887889862, 0.09913045167922974, -0.0831163227558136, -0.12093737721443176, 0.03853842616081238, -0.014860078692436218, -0.12163062393665314, 0.12387029826641083, -0.08113957941532135, 0.018575519323349, 0.017763957381248474, 0.003693327307701111, 0.09148915112018585, 0.06870470941066742, 0.07104341685771942, 0.04707914590835571, -0.09410257637500763, 0.12101596593856812, -0.062329262495040894, -0.015551969408988953, -0.12345156073570251, -0.09721438586711884, -0.01136694848537445, -0.006829619407653809, 0.12431749701499939, 0.09115086495876312, -0.04874889552593231, -0.1210908442735672, -0.09294536709785461, 0.04377911984920502, -0.12343187630176544, -0.11496792733669281, 0.11986950039863586, 0.028973743319511414, 0.06250335276126862, -0.0621207058429718, -0.048289358615875244, 0.05938214063644409, 0.10939809679985046, 0.09403316676616669, 0.01986365020275116, -0.04992380738258362, -0.03967784345149994, -0.04690089821815491, 0.08608986437320709, 0.022732973098754883, -0.02475869655609131, 0.11958940327167511, 0.1042933315038681], [-0.01799190044403076, -0.03433123230934143, 0.09751048684120178, 0.10657396912574768, 0.07399463653564453, 0.11909985542297363, 0.07538335025310516, -0.10834537446498871, -0.11002574861049652, 0.08798931539058685, 0.049430862069129944, 0.018092110753059387, -0.03561338782310486, -0.03974178433418274, 0.004879847168922424, -0.048076629638671875, 0.0883774608373642, -0.10533691942691803, -0.058830633759498596, 0.12115000188350677, 0.02975258231163025, -0.06984858214855194, 0.03608681261539459, -0.08059521019458771, -0.07842129468917847, -0.013400688767433167, 0.01661573350429535, 0.0926169753074646, 0.10340413451194763, 0.12059660255908966, -0.07063119113445282, -0.09278857707977295, 0.07087752223014832, 0.005068138241767883, 0.07456479966640472, -0.0007748305797576904, -0.090235635638237, -0.03844305872917175, 0.040359824895858765, 0.022321641445159912, -0.10724890232086182, -0.09793724119663239, -0.058869555592536926, -0.11177349090576172, 0.025696679949760437, 0.05018046498298645, 0.022503048181533813, 0.05881686508655548, 0.11546790599822998, -0.059413716197013855, -0.05396796762943268, -0.06018352508544922, -0.047277987003326416, 0.06696616113185883, 0.03982800245285034, 0.09008610248565674, -0.04871340095996857, 0.06732381880283356, 0.05493628978729248, 0.11073768138885498, 0.11823004484176636, 