{"ensemble": [{"bias_net": [{"w": [[-0.013398142531514168, 0.1175169050693512, -0.06490747630596161, 0.29053130745887756, 0.0037469493690878153, 0.04103315994143486, -0.2761692404747009, 0.205862894654274, 0.108985535800457, -0.04444137588143349, -0.0006167009705677629, 0.010560560040175915], [0.18079866468906403, -0.05731683596968651, 0.05574002489447594, 0.0255420058965683, 0.0177602581679821, -0.02389560639858246, -0.5221186280250549, 0.4655090272426605, -0.009769836440682411, -0.04094652086496353, 0.04010031744837761, 0.1146942600607872], [-0.04388003796339035, -0.1780143678188324, -0.09482795000076294, -0.009896422736346722, 0.018562566488981247, -0.043025221675634384, 0.23352405428886414, -0.29402562975883484, 0.15460680425167084, 0.08644559234380722, -0.010251603089272976, -0.009130721911787987], [-0.04683239012956619, 0.3136434555053711, 0.02403237298130989, -0.005388541612774134, -0.08790864795446396, -0.0940958708524704, 0.03991303965449333, 0.643237292766571, -0.000365061016054824, -0.02923610992729664, 0.12474691867828369, 0.003779035061597824], [-0.001491005183197558, 0.0035391817800700665, -0.19303350150585175, -0.022390374913811684, -0.04938438907265663, 0.02430618181824684, 0.41749611496925354, 0.8809555172920227, 0.05612722784280777, 0.01951691508293152, -0.0025417932774871588, 0.030660709366202354], [-0.10078807920217514, -0.03580044209957123, 0.008451960980892181, 0.004920092411339283, -0.022652527317404747, -0.02135026454925537, -0.15284740924835205, -0.5175527334213257, -0.010816490277647972, 0.04268553853034973, 0.2216901183128357, -0.03935430571436882], [-0.006590652745217085, -0.010683802887797356, -0.0003219119680579752, -0.008683573454618454, -0.006632206961512566, -0.022194864228367805, -0.006691458635032177, -0.3340590298175812, 0.041778314858675, -0.617904543876648, -0.00737421540543437, -0.02699737437069416], [0.009691075421869755, 0.2536831498146057, -0.009149404242634773, -0.022462820634245872, 0.029353918507695198, 0.012276914902031422, 0.749958336353302, -1.3818312883377075, -0.014973671175539494, 0.00697823241353035, 0.004377458244562149, 0.021456781774759293], [0.13749876618385315, 0.5359077453613281, -0.03834470734000206, -0.20724372565746307, -0.22501137852668762, 0.04039160534739494, -0.18898628652095795, -0.014854736626148224, 0.03862941637635231, -0.08020295947790146, 0.01695147529244423, 0.04649679735302925], [-0.1544078290462494, -0.14594365656375885, 0.19453513622283936, 0.010509336367249489, -0.05035919323563576, -0.08652107417583466, -0.020137500017881393, -0.012307134456932545, 0.11504804342985153, 0.0060553355142474174, -0.038937635719776154, -0.09967286139726639], [-0.06704330444335938, -0.025335226207971573, 0.002240485278889537, -0.08309570699930191, -0.058370377868413925, 0.000714156252797693, 0.09422247111797333, -0.9672847986221313, 0.11151529848575592, -0.07771119475364685, -0.05411664769053459, 0.010476915165781975], [-0.06866445392370224, 0.2344352751970291, 0.003902657190337777, -0.01663852483034134, 0.012632360681891441, -0.020020129159092903, 1.6292270421981812, -0.3138958811759949, 0.0043970439583063126, -0.01118853036314249, -0.0017999489791691303, 0.04371446743607521], [0.039722274988889694, 0.06544177979230881, 0.16179464757442474, 0.07600677013397217, 0.11430030316114426, -0.03282710909843445, 0.027898738160729408, -0.12226247787475586, -0.01741495542228222, -0.0045626466162502766, 0.001948429737240076, -0.11716830730438232], [0.14346089959144592, 0.36511126160621643, 0.03553123399615288, -0.05807452276349068, 0.030798615887761116, -0.10101832449436188, -0.5246801972389221, -0.4075617492198944, 0.17232385277748108, 0.0018995371647179127, 0.018095752224326134, 0.12184149771928787], [0.183344304561615, 0.06324762850999832, -0.11761090159416199, -0.11030268669128418, 0.04734176769852638, -0.037950798869132996, -0.31810760498046875, -0.07361842691898346, -0.04255073890089989, 0.015299208462238312, 0.10169987380504608, -0.08850440382957458], [0.12271995097398758, 0.07720959931612015, 0.0003074871201533824, -0.03580246865749359, 0.007705876138061285, 0.13998380303382874, 0.1454613208770752, 0.021217457950115204, -0.061317358165979385, 0.08370213955640793, 0.008018752560019493, -0.06196003034710884], [-0.008253460749983788, 0.016167448833584785, -0.005833376664668322, 0.007654484827071428, -0.1173534020781517, 0.024818144738674164, -0.561355710029602, -0.39930105209350586, -0.4420185685157776, 0.1497238427400589, 0.03631918504834175, -0.0209489818662405], [0.1859326809644699, 0.07051466405391693, -0.02129167877137661, -0.15150086581707, -0.03312541916966438, 0.06984925270080566, 0.4370279610157013, -0.06669218093156815, 0.07500321418046951, -0.30319076776504517, 0.035929106175899506, 0.17616260051727295], [0.05588800832629204, -0.22630205750465393, -0.0324387364089489, 0.009968806989490986, -0.003668650286272168, 0.29692786931991577, -0.1041484996676445, 0.002840831410139799, -0.06350260227918625, 0.086154043674469, 0.003935133572667837, -0.027365604415535927], [-0.24913747608661652, -0.06298448145389557, 0.006048507988452911, 0.15183070302009583, -0.6714441776275635, 0.000188614780199714, 0.34110280871391296, -0.08220887929201126, 0.13110613822937012, -0.07821919023990631, -0.16427871584892273, -0.2690257430076599], [0.019358810037374496, -0.052818357944488525, 0.009807499125599861, -0.12055341899394989, 0.004561116918921471, -0.08304346352815628, -0.16085074841976166, -1.2805495262145996, -0.041723497211933136, 0.012915855273604393, 0.03161603957414627, 0.03571677580475807], [-0.049962036311626434, -0.1578703373670578, -0.15624219179153442, -0.22809404134750366, 0.0101082231849432, 0.018932854756712914, -0.15394079685211182, 0.1993926465511322, 0.04504498094320297, -0.030712531879544258, 0.030198901891708374, 0.010656134225428104], [-0.004644980188459158, 0.1303122192621231, 0.0037482138723134995, 0.06854704022407532, -0.04625193402171135, -0.018839476630091667, -0.6483489871025085, -1.2867385149002075, 0.09094242006540298, -0.00300766178406775, -0.00509331189095974, -0.0005765797104686499], [0.003103946801275015, 0.12773793935775757, -0.016201201826334, -0.02312673069536686, 0.009727634489536285, 0.04277433827519417, -0.7248789072036743, 0.008403006009757519, 0.005562309175729752, 0.01981665939092636, -0.09811364114284515, 0.044664476066827774], [0.12028156220912933, -0.17809699475765228, 0.042851705104112625, -0.02698882482945919, -0.09793322533369064, -0.045010700821876526, 0.16445699334144592, -0.6362050771713257, 0.04727984219789505, -0.028608184307813644, 0.0053566875867545605, -0.03371836990118027], [-0.18786275386810303, -0.010223972611129284, -0.01974073424935341, -0.028853481635451317, -0.030899425968527794, 0.32250797748565674, -0.826460599899292, -0.14944477379322052, 0.04962907359004021, -0.06512630730867386, -0.04113307595252991, 0.03113514743745327], [-0.1392318606376648, 0.08114610612392426, 0.14336934685707092, 0.03713355213403702, -0.08720230311155319, 0.042896635830402374, 0.2422630488872528, 0.12592004239559174, -0.16823972761631012, 0.025629457086324692, 0.0064642298966646194, -0.10901502519845963], [-0.19136415421962738, -0.07995019108057022, -0.02144683711230755, -0.0072147902101278305, -0.0055011906661093235, 0.026124440133571625, 0.15148082375526428, 1.3255343437194824, -0.01993684098124504, 0.0009892863454297185, -0.06967809051275253, -0.1440780609846115], [0.006690891459584236, -0.012716047465801239, -0.007192028686404228, -0.004517766647040844, -0.4524003863334656, -0.04708404839038849, 0.178102046251297, -0.06366987526416779, -0.21909715235233307, -0.10310820490121841, 0.006768614053726196, -0.03074401430785656], [-0.03699106723070145, -0.0440775565803051, 0.24277225136756897, 0.0961156040430069, 0.041899822652339935, 0.18704214692115784, -0.21457408368587494, 0.3578759729862213, 0.07952065020799637, 0.03577379137277603, 0.030859481543302536, 0.018164172768592834], [-0.15141907334327698, 0.024059774354100227, -0.05541999638080597, 0.006474196910858154, -0.2093772143125534, -0.0467025488615036, 0.3275616466999054, -0.416197270154953, -0.023427870124578476, 0.003993606194853783, 0.0684853345155716, 0.2826562821865082], [-0.14022158086299896, -0.028430068865418434, -0.14173200726509094, -0.13057145476341248, 0.032127100974321365, 0.044282618910074234, -0.021849200129508972, -0.3633047342300415, 0.08200670778751373, 0.011756780557334423, -0.03817762807011604, 0.0037673176266252995], [-0.14888760447502136, 0.5342933535575867, -0.061998941004276276, -0.06496863812208176, -0.09053204953670502, -0.07023128867149353, 0.015953699126839638, 0.14357779920101166, 0.06090760603547096, -0.008169912733137608, -0.11817827820777893, -0.2839208245277405], [-0.17083199322223663, 0.042276885360479355, 0.041673194617033005, -0.016433730721473694, 0.02942267805337906, -0.0012492745881900191, -0.991265058517456, 0.36262935400009155, 0.013533852063119411, -0.011830867268145084, -0.05089283734560013, -0.05136141553521156], [0.02882629632949829, 0.47550445795059204, -0.14406202733516693, 0.08518660068511963, 0.018319180235266685, 0.07222162187099457, 0.49942177534103394, -0.07214592397212982, 0.026070337742567062, 0.09562557935714722, -0.012239381670951843, -0.15414033830165863], [-0.0492849163711071, -0.010742086917161942, -0.3263972997665405, 0.07910293340682983, 0.004637755919247866, -0.041748981922864914, -0.4160046875476837, -0.29814082384109497, -0.012731900438666344, 0.030987855046987534, -0.02626965194940567, -0.07198352366685867], [0.09174956381320953, 0.1436431109905243, -0.0498204231262207, 0.06110075116157532, 0.046445202082395554, 0.013143789023160934, 1.069405198097229, 0.3993362784385681, -0.007716194726526737, -0.11051449179649353, 0.025751013308763504, 0.09747309237718582], [0.07386548817157745, -0.09185545891523361, -0.07812274247407913, 0.17686212062835693, 0.002369881374761462, -0.07869284600019455, -0.13059262931346893, -0.6684618592262268, -0.08775217831134796, -0.022504454478621483, 0.023113947361707687, 0.010949967429041862], [-0.06265897303819656, 0.1312892884016037, -0.0009336043149232864, -0.1872411072254181, -0.15343232452869415, -0.060202959924936295, -0.14183609187602997, -0.40915682911872864, -0.022179676219820976, -0.12420886754989624, -0.012052969075739384, -0.0013425865909084678], [0.07664624601602554, 0.3406129479408264, 0.20179669559001923, 0.161565899848938, -0.009270832873880863, -0.013661512173712254, -0.4147907793521881, 0.0075845904648303986, 0.10493190586566925, -0.15915222465991974, -0.02254597656428814, 0.10185036808252335], [0.12104899436235428, -0.1564076542854309, -0.03851085528731346, 0.054372016340494156, 0.04545918479561806, -0.02522941306233406, 0.9700117707252502, 0.6173551678657532, -0.021510127931833267, 0.02440052293241024, 0.06410706788301468, 0.10784999281167984], [0.04316509887576103, 0.1835528016090393, 0.018855666741728783, -0.005840674042701721, 0.02964535914361477, 0.04426669329404831, -1.1734356880187988, -0.8042013645172119, -0.0042921751737594604, -0.05607007443904877, 0.027880454435944557, 0.005043371114879847], [0.32534751296043396, -0.07589852064847946, 0.004065042827278376, 0.02667374536395073, -0.011526131071150303, -0.026364175602793694, -0.10011488944292068, -0.3858245313167572, 0.0981873869895935, -0.07403771579265594, -0.0674266368150711, -0.04472427815198898], [0.1203361228108406, -0.30125582218170166, 0.06720411777496338, 0.04372525215148926, -0.04191379249095917, 0.15691044926643372, -0.5596266984939575, 0.02193010412156582, 0.09306985884904861, -0.05711263418197632, 0.0655374601483345, 0.0704285278916359], [0.029564132913947105, 0.15500420331954956, -0.01608220301568508, -0.1447088122367859, 0.010042053647339344, 0.0716402530670166, -0.14923454821109772, 0.16307836771011353, -0.13186024129390717, 0.06182315945625305, 0.0052617378532886505, 0.0050619239918887615], [-0.060838647186756134, -0.04612673819065094, -0.03325663506984711, 0.014598199166357517, -0.13650721311569214, -0.10472559183835983, 0.2468709647655487, 0.6161187887191772, 0.16982629895210266, -0.0441177636384964, -0.05653725564479828, 0.05974377319216728], [-0.27999815344810486, 0.043087027966976166, 0.017792854458093643, -0.08100733160972595, 0.0029007960110902786, 0.0063726757653057575, 0.6065090894699097, 0.6018773913383484, 0.027415549382567406, 0.09715232253074646, -0.11163335293531418, -0.27123042941093445], [-0.11414141207933426, -0.09731283783912659, -0.00271089980378747, 0.00472309859469533, -0.018002383410930634, -0.015750788152217865, -1.2305481433868408, -1.2930340766906738, -0.001513032242655754, -0.007805016823112965, -0.020610516890883446, 0.03065861202776432], [-0.18107068538665771, 0.09592234343290329, -0.04097349941730499, -0.0236847884953022, -0.15262500941753387, -0.10624124854803085, 0.009174639359116554, 0.14106692373752594, -0.06267718225717545, 0.09882830828428268, -0.2625789940357208, 0.007380438502877951], [-0.02861199527978897, 0.00566617539152503, 0.051626142114400864, -0.02683020383119583, 0.058994390070438385, 0.04467809945344925, -0.5966206789016724, -0.24186022579669952, -0.08718288689851761, 0.06237618997693062, 0.03721579536795616, -0.1177017018198967], [-0.05313581973314285, 0.05310246720910072, -0.017119595780968666, -0.012530880980193615, 0.04267634078860283, -0.039901286363601685, -1.061232089996338, 0.46741223335266113, 0.0008685417706146836, 0.009527408517897129, 0.004652448929846287, 0.050240762531757355], [-0.13845498859882355, 0.1786607950925827, 0.03363017737865448, -0.04355331137776375, 0.08194488286972046, -0.1382104903459549, -0.4525066614151001, 0.2689354121685028, 0.015105601400136948, -0.06134265661239624, -0.14551791548728943, -0.16886165738105774], [-0.026370935142040253, -0.17599506676197052, -0.029664883390069008, -0.021159853786230087, 0.025793367996811867, 0.1413535177707672, -0.2824154496192932, 0.2045561671257019, -0.006374126300215721, 0.05942143127322197, 0.005399813409894705, -0.14737579226493835], [-0.1683349460363388, -0.03752003610134125, -0.038681089878082275, 0.025451384484767914, 0.03701884299516678, -0.1407913863658905, 0.5169035792350769, 0.5832359790802002, -0.03340413048863411, -0.023294586688280106, 0.031173447147011757, 0.040714800357818604], [-0.12199866771697998, -0.4372576177120209, 0.02507864125072956, -0.1401679664850235, -0.12850622832775116, -0.1028464064002037, -0.34986594319343567, 0.48564413189888, 0.011891222558915615, -0.07128521054983139, -0.046072494238615036, 0.08760260045528412], [-0.005876914598047733, 0.00903823971748352, -0.20635105669498444, 0.08118460327386856, -0.08545723557472229, -0.03839928284287453, -0.37252277135849, -0.45064911246299744, 0.10592073202133179, -0.11335364729166031, -0.015634240582585335, 0.07658220082521439], [0.1710418313741684, 0.22687764465808868, 0.016442399471998215, 0.00047281404840759933, 0.01176695991307497, -0.023557158187031746, -2.327410936355591, 0.5193498134613037, -0.0014820733340457082, -0.0018410910852253437, 0.0020803753286600113, 0.018269332125782967], [0.008700387552380562, 0.0278032086789608, -0.03311217948794365, -0.07528212666511536, 0.01144598051905632, -0.011396137997508049, 0.6489736437797546, 1.1000523567199707, -0.002101970836520195, 0.02029307931661606, 0.0018148532835766673, -0.03383230045437813], [0.26902180910110474, 0.4924018383026123, -0.053071457892656326, 0.04005434364080429, 0.0257889311760664, 0.028444789350032806, -0.8069064021110535, -0.007302816491574049, 0.034649480134248734, -0.030957872048020363, 0.09549777954816818, 0.17113062739372253], [-0.10556627810001373, 0.14050306379795074, 0.028063511475920677, 0.0574815534055233, -0.007342430762946606, -0.2225440889596939, 0.5644230246543884, 0.24534635245800018, 0.0676228478550911, -0.1853923797607422, -0.08111190050840378, -0.043975215405225754], [0.00993382092565298, 0.2816605269908905, 0.0197710283100605, 0.05879780650138855, -0.006888342555612326, 0.06446636468172073, -0.10716426372528076, -0.1926131695508957, 0.008030585013329983, 0.027552038431167603, -0.024825148284435272, -0.20289947092533112], [-0.05591988191008568, 0.2218678891658783, 0.0453634150326252, 0.09277147799730301, 0.009437710978090763, -0.10668014734983444, 0.4600830376148224, 0.9767849445343018, 0.04423742741346359, -0.027052678167819977, -0.019683701917529106, 0.05944021791219711], [-0.04137411341071129, 0.03149048611521721, 0.05252432823181152, -0.023674672469496727, -0.013039913028478622, -0.0026326298248022795, 1.1272327899932861, 1.067314624786377, 0.004465270321816206, 0.019918197765946388, -0.0031819548457860947, -0.009126066230237484], [-0.0408514142036438, -0.003434927435591817, 0.015924250707030296, -0.007256276439875364, -0.3623802661895752, -0.030838100239634514, 0.12255557626485825, -0.16170841455459595, -0.3930616080760956, 0.29230862855911255, -0.029774073511362076, -0.1505354642868042]], "b": [0.1058945506811142, 0.5288450717926025, -0.1925330013036728, 0.2136656492948532, 0.25919297337532043, -0.18275335431098938, -0.5814152956008911, -0.9142671227455139, -0.1091391071677208, 0.02732752077281475, -0.6917777061462402, -0.8814831376075745, -0.1733500212430954, -0.2831505835056305, -0.020892726257443428, 0.05183970555663109, -0.16046938300132751, -0.38049161434173584, -0.004552739206701517, -0.30595701932907104, -0.5420896410942078, 0.24227578938007355, -0.48043006658554077, 0.34404394030570984, -0.2630492150783539, -0.1718982607126236, -0.06596822291612625, 0.6598692536354065, -0.11163799464702606, 0.10671153664588928, -0.6334855556488037, 0.050419606268405914, -0.19620566070079803, 0.6866744756698608, -0.5583659410476685, -0.07002129405736923, -0.1404656618833542, -0.3567139804363251, -0.2780933976173401, -0.17327384650707245, 0.25256097316741943, -0.07037932425737381, -0.22481152415275574, 0.24668018519878387, 0.1682410091161728, 0.1584828794002533, -0.07287748157978058, -0.2502390444278717, -0.009219693019986153, 0.2635760009288788, 0.7631183862686157, 0.30301594734191895, 0.3651978671550751, 0.1473674327135086, -0.1560683399438858, -0.03027944639325142, 0.763054370880127, 0.48081639409065247, 0.371954083442688, -0.18766407668590546, -0.02798566408455372, 0.38112562894821167, 0.21272283792495728, -0.1719498634338379]}, {"w": [[0.11031924933195114, -0.0028092546854168177, -0.3765071630477905, -0.05249219760298729, 0.4162403643131256, -0.1432451605796814, -0.21261270344257355, 0.08111844211816788, 0.1530979573726654, 0.05615992099046707, 0.4101359248161316, 0.12168417870998383, 0.11052615940570831, -0.06290557980537415, -0.006810015998780727, 0.04722036048769951, 0.03324638679623604, 0.20797358453273773, -0.023921718820929527, -0.02932511456310749, 0.10160938650369644, -0.16390490531921387, 0.2855621576309204, 0.09165059030056, -0.27099066972732544, 0.013828323222696781, 0.2670489251613617, 0.11974633485078812, -0.1314164102077484, 0.114673912525177, 0.19704397022724152, -0.17270232737064362, 0.03395286947488785, 0.13397924602031708, 0.19909007847309113, -0.12401360273361206, -0.08101100474596024, -0.13290613889694214, 0.14612679183483124, 0.1433345377445221, -0.22492560744285583, -0.07501185685396194, 0.4824383556842804, -0.022426586598157883, -0.047779981046915054, 0.180399551987648, -0.08126075565814972, -1.4929736852645874, -0.045250631868839264, -0.0863860547542572, 0.09268610924482346, -0.3088827431201935, 0.10159913450479507, 0.12924571335315704, 0.10009676963090897, -0.15796276926994324, -0.12336250394582748, 0.005952855572104454, 0.10035906732082367, -0.048415593802928925, 0.17785191535949707, 0.0372946597635746, -0.025301078334450722, 0.020051831379532814], [0.23022238910198212, 0.1521645039319992, -0.0880093201994896, 0.1525241583585739, -0.465453565120697, -0.04250437021255493, -0.10004410892724991, -0.18485692143440247, -0.23072946071624756, 0.07000424712896347, 0.3472670316696167, -0.10393472760915756, 0.04593552276492119, -0.22606255114078522, -0.06570953130722046, 0.2032720446586609, -0.3273890018463135, -0.025225257501006126, 0.13274984061717987, -0.2977348268032074, 0.0467674657702446, 0.33010318875312805, 0.18881747126579285, 0.015869921073317528, 0.09986980259418488, -0.2426927536725998, 0.3038558065891266, -0.29255422949790955, -0.052591390907764435, -0.2669476866722107, -0.2436639666557312, 0.15780408680438995, 0.03563566878437996, -0.1591007560491562, 0.23012520372867584, -0.005746597424149513, -0.18167877197265625, -0.18891768157482147, 0.015389942564070225, -0.056121230125427246, -0.21824495494365692, 0.061394959688186646, -0.11165506392717361, 0.1926921159029007, -0.0627630427479744, -0.19015508890151978, -0.020577678456902504, -0.5201398730278015, -0.0519099123775959, 0.1645088493824005, 0.2541348934173584, 0.0218239426612854, -0.04062579199671745, -0.034543074667453766, -0.3662760257720947, 0.24193203449249268, 0.13005468249320984, 0.06064198166131973, 0.30078357458114624, -0.09381311386823654, 0.06276039779186249, 0.10293944180011749, 0.19140298664569855, 0.12169211357831955], [0.1768936663866043, -0.07395443320274353, -0.1560104638338089, -0.15047280490398407, 0.652399480342865, -0.055534496903419495, -0.07589453458786011, -0.4890311360359192, 0.3576808571815491, 0.07886726409196854, -0.3652941584587097, 0.5516999363899231, 0.056135259568691254, -0.0985458493232727, 0.11216278374195099, 0.05620822310447693, 0.14600589871406555, -0.21408739686012268, 0.05627506598830223, -0.09751342982053757, -0.7360209822654724, -0.23272527754306793, -1.1105258464813232, -0.20785509049892426, -0.06047523766756058, 0.19197368621826172, -0.010335301049053669, -0.08893103897571564, -0.007866288535296917, -0.025240298360586166, -0.1816156953573227, 0.28578123450279236, -0.05019308999180794, -0.5081402659416199, 0.21902133524417877, -0.4025760293006897, 0.273660272359848, -0.30195602774620056, 0.026196161285042763, -0.2823757231235504, 0.4497462511062622, -0.3376070559024811, 0.04212922975420952, 0.30181097984313965, -0.14765603840351105, -0.009083537384867668, 0.38059309124946594, 0.14471286535263062, 0.08257853239774704, -0.20326276123523712, -0.20930373668670654, -0.31045010685920715, -0.15567944943904877, 0.1933908760547638, -0.1259412318468094, 0.45963478088378906, 0.054015953093767166, 0.43108293414115906, 0.23021207749843597, 0.24084143340587616, -0.12114053219556808, 0.24399687349796295, 0.3482891023159027, -0.2513323128223419], [-0.12027928233146667, -0.037215135991573334, -0.24724917113780975, -0.1218213364481926, 0.5594798922538757, -0.1339399665594101, 0.04291248694062233, 0.3281117081642151, 0.14699119329452515, -0.12166758626699448, 0.08123987913131714, 0.663566529750824, 0.048215754330158234, 0.02881549671292305, -0.0696222335100174, 0.004897064995020628, -0.3302977681159973, 0.1178063228726387, -0.03559369221329689, 0.05822767689824104, 0.6979044079780579, 0.1227727085351944, -0.14925970137119293, -0.06804541498422623, -0.015109061263501644, -0.04537408426403999, -0.11736520379781723, -0.4824164807796478, -0.10072585195302963, 0.2854956090450287, -0.0017364630475640297, 0.09345293790102005, 0.0783407986164093, -0.09009930491447449, -0.15780043601989746, -0.14122214913368225, -0.09890539944171906, 0.021306419745087624, -0.23853540420532227, 0.1333846002817154, -0.11189304292201996, -0.3833499252796173, -0.0001728487986838445, 0.12616783380508423, 0.06405304372310638, 0.03483168035745621, 0.2292865663766861, 0.707934558391571, -0.12085738033056259, 0.13667193055152893, -0.50605708360672, -0.11618587374687195, 0.0153932711109519, 0.12333176285028458, -0.1660686433315277, -0.3154217600822449, 0.4313233494758606, 0.2653486430644989, -0.08242422342300415, -0.09111065417528152, 0.28882527351379395, 0.07408059388399124, 0.048098448663949966, -0.0324542298913002], [0.24104063212871552, 0.3892689645290375, -0.12762577831745148, -0.0233279038220644, 0.038484759628772736, 0.029991652816534042, 0.09416321665048599, 0.4742903709411621, -0.2437802404165268, 0.08530823141336441, -0.2862207293510437, 0.38319551944732666, -0.053100522607564926, -0.0979626476764679, -0.4458852708339691, 0.16089265048503876, -0.07207474112510681, 0.3326011300086975, 0.17417892813682556, 0.1397964060306549, 0.168185755610466, 0.08429743349552155, -0.3498377203941345, -0.0023527496960014105, -0.31824934482574463, -0.037386272102594376, -0.07992780953645706, -1.3693385124206543, -0.12749823927879333, 0.43861520290374756, 0.1528809517621994, 0.25622764229774475, 0.0918239951133728, -0.8524532914161682, -0.13241127133369446, -0.08715265244245529, -0.19733795523643494, 0.17949533462524414, 0.03815033286809921, 0.15806658565998077, -0.06664597243070602, -0.300597220659256, -0.17582504451274872, 0.02768220379948616, -0.060301605612039566, -0.18835677206516266, 0.11486777663230896, 0.627868115901947, -0.19468921422958374, -0.1357913315296173, -0.5821384191513062, -0.3399904668331146, 0.1434643417596817, -0.5278981328010559, -0.3106718957424164, 0.1563866138458252, 0.41472285985946655, 0.18920814990997314, -0.26130494475364685, -0.4694202244281769, -0.10649920254945755, -0.223272442817688, -0.0880986750125885, 0.11193381994962692], [0.11067412793636322, 0.1166967898607254, -0.05732176825404167, 0.1330253779888153, -0.20134152472019196, 0.1638309508562088, -0.47366809844970703, -0.03776939585804939, -0.08378410339355469, 0.17916865646839142, 0.6788615584373474, 0.2787216007709503, -0.04408226162195206, -0.058362726122140884, 0.08355294913053513, -0.03621566295623779, 0.14883774518966675, 0.15187416970729828, 0.16283899545669556, -0.052606645971536636, 0.21276064217090607, 0.052198830991983414, -0.037602830678224564, 0.07313450425863266, -0.07238378375768661, -0.008203152567148209, 0.22961945831775665, -0.3531138300895691, 0.06264223158359528, 0.04168444126844406, -0.12067673355340958, 0.0689641460776329, 0.15169984102249146, 0.36461129784584045, -0.32307639718055725, 0.11374963819980621, 0.20606184005737305, 0.0033784806728363037, -0.08990857005119324, -0.06802995502948761, -0.06331167370080948, -0.20552495121955872, 0.07372912019491196, 0.07495734840631485, 0.11401337385177612, -0.18637225031852722, -0.22058460116386414, 0.022283298894762993, -0.06692059338092804, -0.09344075620174408, 0.12288424372673035, 0.1450285166501999, -0.14632819592952728, -0.2522144317626953, -0.054305315017700195, -0.2504972815513611, -0.035482387989759445, -0.24068252742290497, -0.2367398887872696, -0.0564061738550663, 0.1675558090209961, -0.12429588288068771, -0.24674786627292633, 0.2090281993150711], [-0.27351248264312744, 0.39046332240104675, -0.15731124579906464, 0.3373580574989319, 0.02573765628039837, 0.0940280556678772, -0.49061107635498047, -0.38325852155685425, -0.1836191564798355, -0.20599296689033508, 0.21402567625045776, 0.8694111108779907, -0.08074533194303513, -0.01229783520102501, -0.05740967392921448, -0.3714005947113037, -0.10260852426290512, 0.057201482355594635, -0.01623699441552162, 0.08179663866758347, -0.5231065154075623, -0.11659813672304153, 0.3810586631298065, 0.043537043035030365, -0.1549576222896576, -0.31034544110298157, 0.12801013886928558, -0.07000204175710678, 0.38341790437698364, -0.06856588274240494, 0.032175108790397644, 0.36201974749565125, -0.06447187811136246, 0.047786176204681396, 0.20328514277935028, 0.1575014889240265, 0.1290314942598343, -0.17681565880775452, 0.3812728822231293, -0.06045348197221756, 0.31151148676872253, -0.934397280216217, -0.17268650233745575, 0.24083447456359863, 0.04021690785884857, -0.10707668960094452, -0.12203381210565567, -0.32313090562820435, 0.0017797393957152963, 0.3892354667186737, -0.590717077255249, 0.017273200675845146, 0.14821605384349823, -0.1125340610742569, 0.13844047486782074, -0.046896595507860184, -0.32455822825431824, 0.14773701131343842, -0.17441463470458984, -0.10133925825357437, -0.1901932805776596, 0.1568092405796051, 0.1500454545021057, -0.055108070373535156], [-0.18867218494415283, -0.0588376559317112, -0.040194109082221985, -0.06009563058614731, -0.23646418750286102, 0.08925500512123108, -0.12120606750249863, -0.3420839309692383, -0.12450607866048813, 0.0557778961956501, -0.030248310416936874, -0.13523966073989868, 0.08606266975402832, -0.06689365953207016, 0.05712870508432388, 0.08250834792852402, -0.11983548104763031, -0.10494758188724518, 0.030124226585030556, 0.08168655633926392, -0.15482309460639954, -0.014595269225537777, -0.11517292261123657, -0.12068647891283035, -0.2087198942899704, 0.1207578107714653, 0.0998009741306305, -0.2551476061344147, -0.08458258211612701, -0.011674925684928894, 0.05359470471739769, 0.0961853489279747, 0.04731219634413719, -0.16937071084976196, 0.08943964540958405, -0.07256726920604706, -0.1527731567621231, -0.019753064960241318, -0.08116791397333145, -0.01368782576173544, -0.23184910416603088, 0.007216212339699268, 0.015746312215924263, -0.04701465368270874, -0.11712510883808136, -0.10340344160795212, 0.06789280474185944, 0.014661146327853203, -0.10304490476846695, -0.1838356852531433, -0.17435336112976074, -0.018799159675836563, 0.007999875582754612, 0.10318499058485031, -0.08614002168178558, 0.10158563405275345, -0.02525089867413044, -0.16460582613945007, 0.09845059365034103, -0.07656319439411163, -0.10898908972740173, -0.17906910181045532, -0.12290924042463303, -0.07720235735177994], [-0.25478824973106384, -0.16446855664253235, -0.16038164496421814, -0.016460862010717392, 0.12710468471050262, 0.04514968767762184, 0.11173822730779648, -0.5002652406692505, -0.0879993885755539, -0.11845282465219498, -0.16346633434295654, 0.5468316078186035, -0.18491852283477783, -0.07868941873311996, 0.03891437128186226, -0.02265840768814087, -0.42919644713401794, -0.22616751492023468, -0.34204813838005066, 0.1280628889799118, -0.07690156251192093, -0.10979059338569641, 0.07578625530004501, -0.006625344976782799, -0.09573815762996674, -0.4154547452926636, 0.0243583545088768, 0.25749340653419495, -0.2869877517223358, -0.2910635471343994, 0.027228932827711105, -0.21596740186214447, 0.1948571503162384, -0.4385223984718323, -0.31402623653411865, -0.07843269407749176, -0.21961019933223724, -0.420036256313324, 0.07732332497835159, -0.06953226774930954, 0.2726927101612091, 0.940586507320404, 0.06632672250270844, 0.15147843956947327, -0.006461135111749172, -0.06434572488069534, 0.1779090315103531, 0.427133709192276, 0.08776413649320602, -0.19260631501674652, 0.033879149705171585, 0.06072360277175903, -0.038561057299375534, 0.0030242714565247297, 0.2070138305425644, 0.07464166730642319, -0.44941073656082153, -0.021010519936680794, 0.08144623041152954, -0.039878640323877335, 0.09405805170536041, 0.16817764937877655, -0.3247065246105194, -0.1143139898777008], [0.13098347187042236, -0.12622816860675812, -0.11519429087638855, 0.1382923573255539, -0.05268661677837372, -0.024815883487462997, -0.03372158855199814, 0.10941421240568161, -0.11101946979761124, -0.04893393814563751, -0.1290026307106018, -0.6626065969467163, 0.022111842408776283, 0.08446373790502548, 0.13571955263614655, -0.006394327152520418, -0.1567879319190979, 0.11190543323755264, -0.09942591935396194, 0.26972129940986633, -0.19985651969909668, -0.049403116106987, 0.15561451017856598, 0.029815951362252235, 0.10488934069871902, -0.017343701794743538, -0.01132528018206358, 0.22659075260162354, 0.21055063605308533, 0.023481199517846107, 0.1816004365682602, -0.0024036162067204714, -0.15335120260715485, 0.259683221578598, -0.23308396339416504, 0.2592795193195343, -0.22310377657413483, -0.10382113605737686, -0.28737175464630127, 0.1388222873210907, -0.25710296630859375, 0.015350238420069218, -0.07452502101659775, -0.19737203419208527, 0.012083559297025204, 0.14114531874656677, 0.07299896329641342, -0.14224231243133545, 0.04930848628282547, 0.1191771924495697, 0.41049879789352417, -0.00961036141961813, -0.11253087222576141, 0.16216669976711273, 0.11120852828025818, -0.17569926381111145, -3.6367921829223633, -0.6135497093200684, 0.029060952365398407, -0.1840512901544571, -0.027458352968096733, -0.11439042538404465, -0.15689027309417725, 0.16015087068080902], [-0.05358674377202988, 0.09764226526021957, -0.08617350459098816, 0.06086863949894905, -0.31177979707717896, 0.0722908154129982, -0.1837243288755417, -0.28180330991744995, -0.24615803360939026, 0.08275917917490005, -0.25290757417678833, -0.11762901395559311, -0.013148835860192776, -0.02917313389480114, 0.07419490814208984, 0.09715279936790466, -0.007106568664312363, 0.13768084347248077, 0.06112781912088394, -0.05570903420448303, -0.09804559499025345, -0.061265911906957626, -0.27206143736839294, -0.39297744631767273, -0.18099050223827362, 0.061397261917591095, 0.08116663247346878, 0.03743668645620346, 0.049825817346572876, 0.0011590025387704372, 0.03919869288802147, -0.0686318576335907, 0.07387013733386993, -0.3912186622619629, 0.08131271600723267, 0.03884823992848396, -0.27540022134780884, 0.07065785676240921, -0.05638391152024269, 0.11631700396537781, -0.13531509041786194, 0.08979371935129166, 0.04058016464114189, 0.011678257957100868, 0.10413727909326553, 0.07109467685222626, 0.11785432696342468, -0.04063606634736061, 0.11109210550785065, -0.22156734764575958, -0.09912066906690598, 0.1407378613948822, -0.07259564101696014, -0.020141880959272385, 0.007217736449092627, 0.04877365380525589, -0.1230517029762268, -0.229366272687912, 0.11244720965623856, 0.0982341393828392, -0.16935235261917114, -0.28503918647766113, -0.2577366232872009, -0.28566303849220276], [-0.04305653274059296, -0.05531882122159004, -0.13649700582027435, -0.07654191553592682, -0.12325390428304672, 0.053371116518974304, 0.0021924821194261312, 0.11326353996992111, 0.020648635923862457, -0.021009737625718117, 0.03389236703515053, -0.004709075670689344, -0.13395610451698303, -0.0895024836063385, -0.0746818333864212, -0.03403333202004433, 0.01501450501382351, 0.0014570360071957111, 0.04664381965994835, -0.05142562836408615, -0.06411254405975342, -0.1746683120727539, -0.10244400799274445, -0.08585803955793381, 0.008484235033392906, -0.00888020358979702, 0.06509944051504135, -0.09819545596837997, -0.06966152787208557, -0.06336380541324615, -0.0731726586818695, -0.016833031550049782, -0.04111681506037712, -0.03456960991024971, -0.012653037905693054, -0.017642412334680557, -0.0769398957490921, -0.14208276569843292, -0.0008893553167581558, -0.045188844203948975, -0.10984311252832413, 0.0061818636022508144, -0.01194587629288435, -0.0904741883277893, -0.09932481497526169, -0.09284288436174393, -0.13438396155834198, -0.03001805767416954, 0.03787492588162422, 0.022975262254476547, -0.012383314780890942, -0.02476363815367222, -0.02552930638194084, 0.018882781267166138, -0.13019391894340515, 0.0025169122964143753, 0.013033806346356869, -0.1557483673095703, 0.009176952764391899, -0.10077472776174545, -0.07916102558374405, -0.07488381862640381, -0.13849025964736938, 0.06271560490131378], [0.17625083029270172, -0.006609919480979443, -0.29397326707839966, -0.40603867173194885, 0.48309090733528137, -0.11169227957725525, 0.016607100144028664, 0.6022111177444458, -0.17374977469444275, 0.46723154187202454, -0.06508240103721619, -0.38228264451026917, -0.32626670598983765, -0.19911260902881622, 0.12098561972379684, -0.0328717902302742, 0.21907250583171844, -0.2392287254333496, -0.017552858218550682, -0.05756492540240288, -0.10678069293498993, -0.17026415467262268, 0.3643605709075928, -0.1490267813205719, 0.38012921810150146, 0.2210046648979187, -0.3849024474620819, -0.22277508676052094, 0.14911937713623047, -0.2977880835533142, -1.1601026058197021, 0.1421755850315094, -0.23301073908805847, -0.2608170509338379, -0.5084742903709412, -0.3442690670490265, -0.4783565104007721, -0.047717705368995667, 0.14724138379096985, -0.19643093645572662, -0.24311691522598267, -0.1468380093574524, -0.22446748614311218, 0.16665497422218323, -0.10693813860416412, 0.13030903041362762, -0.3142376244068146, -0.37829887866973877, -0.16654230654239655, 0.15168596804141998, -0.21254681050777435, 0.19561262428760529, 0.24601306021213531, -0.16924139857292175, -0.17740561068058014, -0.13284927606582642, 1.7430106401443481, -0.1450195610523224, 0.11320830136537552, -0.030966347083449364, 0.11543437838554382, -0.6890555024147034, -0.3117862939834595, 0.031924594193696976], [-0.23083576560020447, -0.08505626767873764, 0.08680549263954163, -0.09010650217533112, -0.0972490906715393, -0.30401477217674255, -0.02894543670117855, 0.49762582778930664, 0.13335488736629486, 0.1201002299785614, -0.1232903003692627, -0.19331732392311096, -0.1799098253250122, -0.24972209334373474, 0.09087135642766953, -0.023548832163214684, 0.17005780339241028, 0.14305178821086884, -0.03418572619557381, 0.1413259357213974, 0.2820509374141693, -0.14893433451652527, -0.09638363122940063, 0.1858586221933365, -0.2309047281742096, -0.2861024737358093, 0.011367822997272015, -0.2553253471851349, -0.10288194566965103, 0.0195201113820076, -0.3143714964389801, 0.0018670278368517756, 0.0041659316048026085, -0.08188989758491516, -0.24293945729732513, 0.050449687987565994, -0.08118211477994919, -0.18501581251621246, -0.09875594824552536, 0.016614258289337158, 0.3712672293186188, -0.1463385671377182, -0.49062639474868774, 0.04560909420251846, -0.02576914057135582, 0.10047175735235214, -0.5194357633590698, -0.13231761753559113, -0.33113279938697815, 0.13566789031028748, 0.0030402210541069508, -0.31013938784599304, 0.053984273225069046, -0.1446092277765274, 0.15897412598133087, 0.14228187501430511, -0.32468798756599426, -0.14174224436283112, -0.12172002345323563, -0.05466816574335098, -0.08172480016946793, 0.484552800655365, 0.2489614635705948, -0.36112260818481445], [0.16930969059467316, -0.09176560491323471, -0.17250540852546692, -0.09202737361192703, -0.17557889223098755, -0.1958151012659073, 0.14527258276939392, 0.034380242228507996, -0.03194482997059822, -0.10119406133890152, -0.21645162999629974, 0.39170312881469727, -0.10321926325559616, 0.40583476424217224, 0.009062440134584904, 0.019685037434101105, -0.16136664152145386, -0.22637422382831573, -0.08890178054571152, 0.17862001061439514, -0.20641052722930908, 0.14195920526981354, 0.23030827939510345, 0.34742018580436707, -0.051026780158281326, 0.09205826371908188, 0.13598376512527466, 0.06253930181264877, 0.254489541053772, -0.13293996453285217, 0.3729700446128845, 0.03389609977602959, -0.21565040946006775, 0.1296204775571823, -0.2874301075935364, 0.07703480869531631, -0.11006943136453629, -0.01432687509804964, 0.06486789882183075, 0.07522401958703995, -0.04574732854962349, 0.16640810668468475, 0.070411816239357, 0.12652383744716644, 0.05106871575117111, 0.10468242317438126, 0.20388416945934296, -0.1056261956691742, 0.09179370850324631, -0.04465312138199806, -0.37005358934402466, -0.2586089074611664, 0.06537024676799774, 0.0768037959933281, 0.12696874141693115, -0.09089890867471695, 0.2319413721561432, -0.12431171536445618, -0.10024998337030411, 0.00363348750397563, 0.06242454797029495, -0.1389610469341278, 0.2799753248691559, 0.0479888878762722], [0.05356903374195099, 0.09830958396196365, -0.15167617797851562, 0.19102272391319275, 0.05565248429775238, -0.2458716481924057, 0.03995369374752045, -0.07610157132148743, 0.08130497485399246, -0.14679303765296936, -0.12013832479715347, -0.25132283568382263, -0.16795337200164795, -0.1375463455915451, 0.048466261476278305, -0.056749388575553894, 0.09448999911546707, -0.04059771075844765, -0.06662546098232269, -0.19632573425769806, -0.21509972214698792, 0.12580783665180206, 0.35440683364868164, 0.155142679810524, -0.04579729959368706, -0.019146166741847992, -0.009203021414577961, 0.12221834063529968, -0.12940295040607452, 0.012499299831688404, -0.05933915078639984, -0.06508637219667435, -0.18165789544582367, 0.07180893421173096, -0.02760455757379532, 0.031906504184007645, 0.02734575979411602, 0.018527500331401825, -0.0434272326529026, -0.20296195149421692, -0.030578115954995155, 0.03738740459084511, 0.08303952217102051, 0.10899771749973297, -0.12309069186449051, 0.05165703967213631, 0.3116351366043091, -0.9965755939483643, -0.04498220980167389, 0.21917741000652313, 0.053162187337875366, -0.08898283541202545, -0.1442737728357315, -0.004444457590579987, -0.11577725410461426, 0.1340772956609726, -0.31209319829940796, 0.12315045297145844, 0.018850471824407578, 0.1066787987947464, 0.09879528731107712, 0.1717894971370697, 0.1664821058511734, -0.07221691310405731], [-0.14872615039348602, -0.09855049103498459, -0.09971177577972412, 0.10603334754705429, -0.0669621080160141, -0.06680727750062943, -0.06433320790529251, -0.10929109156131744, -0.2579421401023865, 0.11665011942386627, -0.047831181436777115, -0.17692187428474426, 0.14108969271183014, 0.1244264617562294, 0.07846978306770325, 0.10566447675228119, 0.06356139481067657, 0.06334938108921051, -0.13160866498947144, 0.03986644744873047, -0.2908382713794708, 0.06475843489170074, -0.22471250593662262, -0.1497959941625595, -0.2424021065235138, -0.10116103291511536, 0.0967429131269455, -0.14426888525485992, 0.07298200577497482, -0.029297903180122375, 0.002361678285524249, -0.010749832727015018, 0.10900437086820602, -0.2423970103263855, 0.0970090925693512, 0.1093294620513916, -0.2963707745075226, 0.031381066888570786, -0.018633704632520676, -0.04442410171031952, -0.1401214450597763, -0.01090717501938343, 0.13049572706222534, -0.15612424910068512, 0.018222911283373833, -0.0830719918012619, -0.04938361421227455, -0.16138243675231934, 0.13094180822372437, -0.17467345297336578, -0.31751441955566406, 0.039826564490795135, -0.23070432245731354, 0.033610034734010696, -0.08517935127019882, -0.0116672208532691, 0.026942873373627663, -0.15433603525161743, -0.0900721549987793, 0.055704426020383835, -0.01913292333483696, -0.25898173451423645, -0.12222126871347427, -0.2263287603855133], [-0.07308410853147507, -0.14041844010353088, -0.05554068461060524, -0.05533251538872719, 0.06398189812898636, -0.004176430404186249, 0.03292436897754669, -0.16858218610286713, 0.09974729269742966, 0.07448964565992355, -0.08951783180236816, 0.004582320339977741, -0.1476363092660904, -0.01743321307003498, -0.14349806308746338, -0.08982636034488678, 0.060866206884384155, -0.10720489174127579, 0.05604273080825806, -0.017272990196943283, 0.07313252240419388, -0.0958017110824585, 0.04969329014420509, -0.03211594372987747, 0.002049825619906187, 0.1322041004896164, -0.1482565701007843, -0.10293000936508179, 0.10802218317985535, -0.021932221949100494, -0.12797515094280243, -0.06697088479995728, -0.06888849288225174, -0.04490172863006592, -0.0005799266509711742, 0.0029899978544563055, -0.1465105265378952, 0.01475469209253788, -0.010930001735687256, -0.05058496072888374, -0.061860550194978714, -0.1898079812526703, -0.056632280349731445, -0.16813762485980988, -0.10303199291229248, -0.16318398714065552, -0.0826239138841629, 0.16192933917045593, -0.011506353504955769, -0.054062020033597946, 0.05773194134235382, -0.11679714918136597, -0.13324005901813507, -0.07244232296943665, -0.036489542573690414, 0.01186724565923214, -0.08662839978933334, -0.08062918484210968, -0.021342860534787178, 0.028490429744124413, 0.0059824478812515736, -0.021192224696278572, 0.07503672689199448, 0.042518097907304764], [0.025727316737174988, -0.20911329984664917, 0.05151626095175743, -0.16485291719436646, -0.1280626654624939, -0.14311252534389496, -0.1897353231906891, -0.158707857131958, 0.6088981628417969, 0.03264777734875679, 0.03140726685523987, -0.23591014742851257, 0.00526168430224061, 0.366537481546402, 0.23685628175735474, -0.041433002799749374, 0.4457409977912903, -0.28793638944625854, -0.07923906296491623, 0.055711328983306885, -0.5309206247329712, -0.29247376322746277, 0.47415846586227417, 0.033624909818172455, 0.04801290109753609, 0.026768634095788002, -0.18670813739299774, 0.09821102023124695, 0.18876074254512787, 0.12476518750190735, 0.0977354571223259, -0.2093784064054489, -0.052990496158599854, 0.07670964300632477, -0.18928299844264984, 0.15284603834152222, 0.21795116364955902, -0.25938326120376587, 0.2921079397201538, -0.15220241248607635, 0.07285450398921967, 0.1983615607023239, -0.08106935024261475, 0.03690492734313011, 0.06827801465988159, 0.13638435304164886, 0.10775350034236908, -0.8631407618522644, -0.05390755832195282, 0.0517575740814209, 0.10923890024423599, -0.1935480684041977, -0.20985764265060425, 0.06774484366178513, 0.2262180596590042, 0.23298382759094238, -0.33023202419281006, -0.015116742812097073, -0.15949662029743195, -0.2199970930814743, 0.18481284379959106, 0.5273444056510925, 0.23713535070419312, -0.23522324860095978], [-0.01748323254287243, 0.07842010259628296, 0.02759593352675438, 0.07526718825101852, -0.004478590562939644, -0.07114218920469284, -0.20253071188926697, -1.368800401687622, -0.062868632376194, -0.05325213447213173, 0.2597184479236603, 0.7381757497787476, -0.04314517229795456, 0.3370637893676758, -0.11754005402326584, 0.007311009336262941, -0.2741873860359192, -0.020933032035827637, -0.06887337565422058, 0.012544665485620499, -0.38898736238479614, 0.10441221296787262, -0.028661703690886497, 0.06132283806800842, -0.09324280917644501, -0.020383378490805626, 0.0544518381357193, 0.02647404745221138, 0.09315185993909836, -0.0022110382560640574, 0.051210444420576096, -0.1846403032541275, -0.0638733059167862, -0.13052873313426971, -0.0679355189204216, 0.03881000354886055, 0.2191685438156128, 0.030981415882706642, 0.04998568072915077, -0.004376159980893135, 0.2111605405807495, 0.010037451982498169, -0.03152099624276161, 0.09323916584253311, 0.2847506105899811, 0.02902233973145485, 0.12412241846323013, 0.178846538066864, -0.08095405250787735, -0.06274700909852982, -0.34488195180892944, -0.11807751655578613, -0.09687539935112, 0.1347399652004242, 0.011599442921578884, -0.08231077343225479, 1.5482999086380005, 0.6544566750526428, -0.032309528440237045, 0.059623874723911285, 0.10975702106952667, 0.05334927514195442, 0.4446723461151123, 0.16569013893604279], [-0.04333828017115593, 0.28968003392219543, 0.001031804597005248, 0.16710232198238373, -0.06672125309705734, -0.11977139115333557, 0.19908709824085236, -0.01645633764564991, 0.09152580797672272, 0.029110325500369072, 0.12343132495880127, 0.17648901045322418, 0.03371207416057587, 0.03196515887975693, 0.12885379791259766, -0.04390874132514, 0.08292718231678009, 0.11785729229450226, 0.14017747342586517, -0.001457665115594864, -0.15744416415691376, 0.19808882474899292, 0.04899519309401512, -0.14306698739528656, -0.012613549828529358, 0.13895991444587708, 0.07252523303031921, -0.17419597506523132, 0.1023961529135704, -0.01086941547691822, 0.3578692376613617, 0.09087955206632614, 0.08270429074764252, 0.10679890215396881, 0.001630093203857541, -0.013447960838675499, -0.16506555676460266, -0.10394181311130524, 0.02753097005188465, -0.0023251764941960573, -0.06032881885766983, -0.04018760845065117, 0.1055545061826706, 0.3195444345474243, 0.03573622927069664, -0.008050890639424324, -0.1472926139831543, -0.3148794174194336, -0.02181062661111355, 0.08149152249097824, 0.12401247024536133, -0.12323037534952164, -0.02137160301208496, 0.06579931825399399, -0.07343718409538269, -0.02629837952554226, -0.24804748594760895, -0.14307311177253723, 0.15079161524772644, -0.05218592658638954, -0.2523438036441803, 0.019706176593899727, 0.10947076976299286, 0.0358944833278656], [0.11869450658559799, -0.023079894483089447, -0.10172301530838013, 0.009450255893170834, -0.16469430923461914, 0.010250150226056576, -0.10271073132753372, -0.06218286231160164, -0.018132641911506653, 0.003503210376948118, -0.06195148825645447, -0.11001639813184738, -0.1934463083744049, -0.13107754290103912, -0.10443020612001419, -0.07335278391838074, -0.13141633570194244, -0.08423154056072235, -0.011968514882028103, -0.16814900934696198, 0.06678032875061035, -0.08933257311582565, 0.03732755407691002, 0.08744169026613235, 0.06571109592914581, -0.1577155441045761, -0.21799559891223907, -0.014950785785913467, -0.042591989040374756, 0.03590508550405502, -0.07872505486011505, 0.009396159090101719, 0.0009837973630055785, -0.050966788083314896, 0.11684748530387878, -0.06580067425966263, -0.11502838879823685, 0.07622933387756348, -0.07908689230680466, -0.03535926342010498, -0.14313799142837524, -0.15691742300987244, -0.06165125221014023, -0.14010368287563324, 0.02073139324784279, -0.07313539832830429, -0.06587854027748108, 0.06352457404136658, -0.16825756430625916, -0.0668923407793045, -0.07410246133804321, -0.06469647586345673, 0.004748549312353134, -0.07687840610742569, -0.08197901397943497, -0.12889888882637024, -0.05191269516944885, -0.2194725126028061, -0.05467262119054794, -0.32755255699157715, 0.1091492623090744, 0.02027805894613266, -0.16390299797058105, -0.1359918862581253], [0.0778430700302124, 0.25254181027412415, 0.06113129109144211, -0.17912611365318298, -0.044144194573163986, 0.3709602653980255, -0.050792038440704346, -0.742469310760498, -0.08439917862415314, 0.029237842187285423, 0.2414054125547409, -0.11712176352739334, -0.08168505877256393, -0.1027454361319542, 0.097902812063694, -0.14305177330970764, -0.13140453398227692, 0.12185893207788467, -0.03497758135199547, -0.06812721490859985, -0.26705408096313477, -0.09841510653495789, -0.04877316579222679, 0.05937343090772629, -0.5770171880722046, 0.0014012609608471394, 0.23062363266944885, -0.10908457636833191, 0.04541435465216637, 0.1771533489227295, 0.11663001030683517, 0.22723233699798584, -0.20001570880413055, 0.1227334514260292, -0.13174502551555634, -0.04579424858093262, -0.16303956508636475, 0.15813827514648438, 0.14703966677188873, -0.04270400479435921, -0.3944309949874878, -0.5057222247123718, -0.10343414545059204, -0.13440804183483124, 0.13800571858882904, -0.03788917139172554, 0.0636429637670517, 0.2387927621603012, 0.27036717534065247, 0.17590156197547913, 0.3538668751716614, 0.061819903552532196, 0.08734109252691269, -0.008970399387180805, 0.3445584774017334, -0.06306017190217972, -1.1312776803970337, -0.48484867811203003, 0.32656538486480713, 0.021238621324300766, -0.1554778814315796, -0.1843562126159668, -0.5998898148536682, 0.05955387279391289], [0.19152064621448517, 0.02047681249678135, -0.016438907012343407, -0.3058594763278961, 0.17519576847553253, 0.1640228033065796, -0.09836898744106293, -0.03427205979824066, 0.05249311029911041, -0.08531935513019562, 0.09934728592634201, 0.07402215152978897, -0.2128569483757019, -0.02722099795937538, 0.03259982541203499, -0.1652500033378601, -0.06297881156206131, 0.030420862138271332, 0.2842864394187927, -0.23723256587982178, -0.21791237592697144, -0.022827835753560066, 0.00499265780672431, -0.25875788927078247, -0.11274873465299606, 0.5451505780220032, 0.030548695474863052, -0.26145413517951965, 0.049470771104097366, 0.377483993768692, -0.0817418172955513, 0.06860386580228806, 0.10793063044548035, 0.4550919532775879, -0.10854025185108185, 0.15953367948532104, 0.20216192305088043, -0.07660578191280365, 0.11796902120113373, 0.1604573130607605, -0.1039586067199707, -0.060715463012456894, -0.0729445144534111, 0.4930935204029083, 0.12034434080123901, 0.045189160853624344, -0.11057823896408081, -0.3235712945461273, -0.1864049881696701, 0.03321963548660278, -0.18124790489673615, -0.38191232085227966, 0.035596489906311035, -0.27135974168777466, -0.0005923681892454624, -0.045900892466306686, 0.5039136409759521, 0.09420682489871979, -0.14150722324848175, -0.07083944976329803, 0.030071409419178963, -0.00807967595756054, 0.21923087537288666, 0.24878764152526855], [-0.006323238369077444, 0.07169587910175323, 0.12169045954942703, -0.14110277593135834, -0.38675832748413086, 0.19345365464687347, -0.02175912819802761, 0.7172794342041016, -0.10659132897853851, 0.2694452702999115, -0.035537343472242355, 0.2827630043029785, 0.09967377781867981, 0.1520691215991974, 0.052088599652051926, 0.07877307385206223, -0.3655843138694763, 0.035437896847724915, -0.053491491824388504, 0.25986093282699585, -0.13842491805553436, 0.32759541273117065, 0.6671820282936096, 0.11748915165662766, -0.25201570987701416, -0.015084303915500641, 0.1419106274843216, 0.09321247041225433, -0.13922078907489777, 0.02185935527086258, -0.06025214120745659, -0.2242000699043274, -0.21036012470722198, -0.12598063051700592, 0.2606760263442993, -0.005498775281012058, -0.1922837197780609, 0.39416417479515076, -0.2732864320278168, -0.042821042239665985, 0.20646098256111145, 0.12386917322874069, 0.09380584955215454, 0.1447034627199173, 0.14661404490470886, 0.05230741202831268, -0.04704447090625763, 0.39194455742836, -0.10984010249376297, -0.0076518296264112, -0.08297839015722275, -0.24591301381587982, -0.4029678404331207, -0.11942271888256073, 0.18660332262516022, -0.047788579016923904, -1.224064588546753, 0.0044697863049805164, -0.26130911707878113, -0.018761923536658287, 0.17285798490047455, -0.09241724759340286, -0.4913686513900757, 0.21238692104816437], [-0.07906422764062881, -0.12696842849254608, -0.011264107190072536, -0.5209500789642334, -0.3144886791706085, 0.24070069193840027, 0.0939725711941719, 0.6332273483276367, -0.04728362709283829, -0.06460018455982208, 0.14432917535305023, -2.753990411758423, -0.036178939044475555, -0.272299587726593, -0.2367621809244156, 0.02111131325364113, 0.5072363615036011, -0.0036104307509958744, -0.16965505480766296, 0.0326656773686409, -0.2277614325284958, 0.02570444345474243, -0.24514631927013397, 0.17222759127616882, 0.5744808316230774, 0.17015190422534943, 0.039046160876750946, 0.06547851115465164, 0.005642801057547331, 0.052371345460414886, 0.021195823326706886, -0.048701126128435135, 0.1690840870141983, -0.5350890159606934, -0.13629671931266785, 0.09201554954051971, -0.004128050524741411, -0.17052757740020752, -0.42192667722702026, 0.02425277978181839, -0.13207924365997314, 0.4864792823791504, 0.0035472987219691277, -0.08224992454051971, -0.0918225347995758, 0.03435928374528885, -0.07303472608327866, 0.21940608322620392, 0.1321345716714859, -0.18325281143188477, -0.010229373350739479, -0.1820666491985321, 0.21209073066711426, -0.03114909678697586, 0.00943122897297144, -0.01468705665320158, -0.7904943823814392, -0.1376705914735794, -0.03454025462269783, -0.14775873720645905, 0.009808728471398354, 0.4837697744369507, -0.10798994451761246, -0.7203536629676819], [0.12232436239719391, 0.11994294822216034, -0.07293538749217987, 0.1247071698307991, 0.08626684546470642, -0.0490059033036232, -0.05232561007142067, -1.5960144996643066, -0.1316535770893097, -0.023266160860657692, 0.10313231498003006, 0.02362712472677231, 0.04812110960483551, -0.06750224530696869, -0.006049126852303743, 0.0655374526977539, 0.034277401864528656, 0.05811391398310661, -0.022985810413956642, -0.001167298061773181, -0.2897125482559204, 0.05151613429188728, -0.47295597195625305, 0.13612663745880127, -0.18672248721122742, 0.02511576935648918, 0.024457700550556183, 0.06415033340454102, 0.11763249337673187, 0.026493482291698456, 0.16140638291835785, 0.03170594573020935, 0.06273306161165237, 0.30239924788475037, -0.18708536028862, 0.084389328956604, -0.10131629556417465, -0.2132788598537445, 0.059110403060913086, -0.1149669736623764, -0.18205326795578003, -0.38650694489479065, 0.04183698073029518, -0.12971772253513336, 0.12430723011493683, -0.09807146340608597, -0.01603875681757927, -1.1049554347991943, 0.03639674559235573, -0.03735778480768204, 0.4247574210166931, 0.08457514643669128, 0.03208542242646217, 0.04770957678556442, 0.0068656327202916145, -0.10179800540208817, -1.5968493223190308, 0.1571395993232727, 0.485966295003891, -0.048282161355018616, 0.008848239667713642, -0.00345908896997571, 0.09159769862890244, 0.010910804383456707], [0.10427702218294144, -0.27532070875167847, -0.10157103091478348, -0.08483666926622391, -0.18155449628829956, 0.044956404715776443, -0.09186068177223206, 0.4814961552619934, 0.20174789428710938, 0.37025243043899536, -0.6162447333335876, -0.8003221154212952, 0.01245663408190012, -0.19454894959926605, 0.3199950158596039, -0.17036792635917664, 0.22042015194892883, 0.10987818241119385, -0.2519910931587219, -0.3012416958808899, 0.39160072803497314, -0.552405059337616, 1.1329803466796875, -0.007754751015454531, 0.2605355978012085, -0.2250329703092575, 0.09977368265390396, -1.6614274978637695, -0.0706484243273735, 0.08345434069633484, 0.09348323941230774, -0.05156924948096275, 0.09924189001321793, -0.21998360753059387, -0.04172753170132637, 0.32796651124954224, 0.1260976344347, 0.1365518718957901, -0.2535048723220825, 0.15922154486179352, -0.9625089764595032, -0.08645755797624588, -0.14694951474666595, -0.8818202614784241, -0.20863063633441925, 0.23774293065071106, -0.5690162181854248, -1.4962373971939087, 0.11090680956840515, 0.0053825280629098415, -0.2925511300563812, -0.0855543240904808, -0.4726428687572479, 0.31557032465934753, -0.07458484917879105, -0.12045600265264511, -0.1920183300971985, -0.2280789017677307, 0.0476020947098732, -0.31678324937820435, -0.07029066979885101, -0.30238956212997437, -1.5093066692352295, 0.005666297394782305], [-0.15271970629692078, 0.029587995260953903, 0.14705996215343475, -0.28329265117645264, 0.09277710318565369, 0.0027132437098771334, -0.18206778168678284, -0.41400763392448425, 0.27886778116226196, 0.28136900067329407, -0.085877925157547, -0.38194334506988525, 0.22011668980121613, 0.3741282820701599, 0.028447261080145836, 0.28322848677635193, -0.09201408177614212, 0.17999115586280823, 0.23317596316337585, 0.16189686954021454, -0.035898949950933456, 0.07694584876298904, -0.5609423518180847, 0.1447398066520691, 0.05877863988280296, 0.06659164279699326, -0.09728929400444031, 0.4363958537578583, -0.045094940811395645, 0.04791274666786194, -0.31831496953964233, -0.1775241196155548, 0.05226206034421921, -0.308407723903656, 0.14686733484268188, -0.0408744215965271, 0.09086636453866959, 0.02626166120171547, -0.23272594809532166, 0.31193551421165466, -0.1313341110944748, -0.12986323237419128, -0.28763648867607117, 0.03596463054418564, 0.1342196762561798, -0.09655263274908066, 0.28079670667648315, -0.5565693378448486, -0.17194736003875732, 0.01832505688071251, 0.05065465718507767, -0.24453528225421906, -0.08151508122682571, 0.23615780472755432, -0.011507940478622913, 0.010551481507718563, -0.04960125312209129, 0.35797202587127686, -0.02863405831158161, -0.15241287648677826, 0.04758232459425926, 0.40375712513923645, 0.3117067515850067, 0.19960473477840424], [0.07713738083839417, -0.39941486716270447, -0.052706796675920486, 0.40004217624664307, 0.17737308144569397, -0.25974100828170776, 0.30822038650512695, -0.2847743332386017, -0.05182989686727524, -0.12409285455942154, -0.08479765057563782, -0.2600739598274231, -0.24941201508045197, -0.21253842115402222, -0.014426955953240395, -0.002524793380871415, -0.39197081327438354, -0.044615019112825394, -0.2795039713382721, 0.008038020692765713, 0.20579539239406586, -0.22157560288906097, 0.18536701798439026, 0.13325722515583038, -0.1730327010154724, -0.12679031491279602, 0.03521395102143288, -0.14544352889060974, -0.17244075238704681, -0.04904866963624954, 0.03922681882977486, 0.13330791890621185, 0.26543575525283813, 0.142999529838562, 0.107526034116745, -0.03272995725274086, -0.049720775336027145, -0.076371930539608, 0.2516176700592041, 0.1418350636959076, 0.2601201832294464, 0.28963226079940796, -0.037085678428411484, 0.12523433566093445, -0.15719421207904816, 0.06840987503528595, 0.13679490983486176, 0.3597658574581146, -0.173573300242424, 0.11045088618993759, -0.0033256509341299534, -0.053169332444667816, 0.04781828075647354, -0.13321655988693237, -0.14795173704624176, -0.007923223078250885, 0.8292422294616699, 0.0038953204639256, -0.16612493991851807, -0.029993491247296333, -0.09813041239976883, 0.07997732609510422, -0.038577597588300705, -0.06347349286079407], [0.46787169575691223, 0.0021704675164073706, -0.08003885298967361, -0.04296428710222244, 0.22355996072292328, -0.1596587747335434, -0.07648348063230515, -0.9826053977012634, 0.0877545103430748, -0.12299598753452301, 0.5142740607261658, 0.013385461643338203, -0.3889023959636688, -0.4808681309223175, -0.13467484712600708, 0.16395597159862518, 0.1618196815252304, -0.058784060180187225, 0.24181348085403442, -0.26979637145996094, -0.6478460431098938, 0.13522519171237946, -0.7551093697547913, 0.20343828201293945, 0.11157044768333435, 0.15521852672100067, 0.12033838033676147, -0.1539236307144165, -0.0500393770635128, 0.2927311658859253, -0.3467065691947937, -0.1737729012966156, -0.0932236984372139, 0.16705802083015442, -0.06593702733516693, 0.12983377277851105, 0.2690425217151642, -0.24042126536369324, 0.10766830295324326, 0.13574017584323883, -0.012221143580973148, -0.4701653718948364, 0.05907301977276802, 0.07109517604112625, 0.44710132479667664, 0.09725628048181534, 0.3159902095794678, -0.1888444870710373, -0.03915627673268318, 0.29326528310775757, -0.05468713119626045, -0.17769719660282135, 0.20815841853618622, 0.16653884947299957, -0.1493755578994751, -0.11124779284000397, 0.6294804215431213, 0.14058102667331696, -0.10479041934013367, 0.0832110345363617, -0.0339435450732708, -0.07576180249452591, -0.16307656466960907, 0.025327665731310844], [0.05940898135304451, 0.0014202211750671268, -0.01308006327599287, -0.46711617708206177, 0.28351062536239624, -0.16132909059524536, 0.14723506569862366, 0.5340812802314758, -0.4457586109638214, 0.15175335109233856, 0.3279340863227844, 0.219785675406456, 0.19504192471504211, -0.06872155517339706, 0.029614930972456932, -0.08732800930738449, -0.21004249155521393, 0.04162553697824478, 0.0020694835111498833, 0.07838701456785202, 0.21915629506111145, 0.3225274682044983, 0.8075046539306641, -0.12973932921886444, 0.34090521931648254, -0.20305182039737701, 0.243768110871315, 0.22310058772563934, 0.13718505203723907, 0.286551296710968, 0.12473900616168976, -0.03712247684597969, -0.1780783087015152, -0.3710751533508301, 0.0010782788740471005, -0.1639304906129837, -0.2621156871318817, -0.3161185383796692, -0.05541650205850601, -0.08042462915182114, -0.040012896060943604, 0.4626784324645996, -0.17597569525241852, -0.1345278024673462, -0.052677229046821594, -0.3377094566822052, 0.5442254543304443, -0.24993543326854706, -0.1384909301996231, 0.05878093093633652, -1.008105993270874, -0.075071319937706, -0.2829236090183258, 0.07994253188371658, -0.1606830209493637, -0.03461878374218941, 0.8237485885620117, -0.8649554252624512, -0.11302369832992554, 0.18562841415405273, -0.28532296419143677, -0.381237655878067, -0.2014830857515335, -0.008526932448148727], [-0.054957590997219086, -0.3770017623901367, -0.009428923018276691, -0.881787121295929, 0.317902535200119, -0.0011197704588994384, -0.299180269241333, -2.369218349456787, -1.5136431455612183, 0.05414668098092079, 0.3383752107620239, -0.43978312611579895, -0.12551407516002655, -2.872795820236206, -0.1457025706768036, 0.774622917175293, 0.15783502161502838, 0.19792069494724274, 0.046854667365550995, 0.3300873339176178, 0.37782904505729675, 0.09236382693052292, -0.5603449940681458, -3.332440137863159, 0.31802383065223694, -0.19538386166095734, -0.07518187910318375, 0.3154616057872772, 0.28141409158706665, 0.28018370270729065, 0.11422902345657349, 0.09071604907512665, -0.6464745998382568, -0.21706239879131317, 0.03427761793136597, -0.2161468267440796, -0.5597384572029114, 0.3094733953475952, 0.347308486700058, -0.39571043848991394, 0.12514519691467285, 0.03811964392662048, 0.23103615641593933, -0.33888256549835205, -0.20040275156497955, 0.08972484618425369, -0.34262311458587646, -0.006703362800180912, 0.029910990968346596, -0.5114335417747498, 0.8500545620918274, -0.1310553103685379, -0.031319234520196915, -0.10341950505971909, -0.033475153148174286, -0.5021566152572632, -0.011341458186507225, -0.03480667248368263, -1.809708833694458, -0.49119776487350464, 0.1761717051267624, -0.08546771109104156, -1.0921878814697266, -0.2424498051404953], [0.1537019908428192, -0.07464200258255005, -0.015072952024638653, 0.0688738077878952, -0.19687388837337494, 0.0510067455470562, -0.2650710642337799, 0.5793614983558655, -0.28675949573516846, 0.24033722281455994, -0.14001674950122833, 0.0890972837805748, 0.0533018484711647, -0.3401775360107422, -0.30146950483322144, 0.03354361653327942, -0.07838136702775955, 0.3024495244026184, 0.30670541524887085, 0.2062654197216034, 0.1592385172843933, -0.05496387928724289, 0.002750806510448456, -0.11792323738336563, -0.7660287022590637, -0.4159345328807831, 0.04510122910141945, -0.6436651349067688, -0.18045109510421753, 0.28824785351753235, -0.4765886068344116, 0.1852700114250183, -0.004123492632061243, -1.6537930965423584, 0.11769086122512817, 0.05729259178042412, -0.3226645886898041, 0.3323524594306946, 0.19640031456947327, 0.21122340857982635, -0.31547462940216064, -0.14410211145877838, 0.14635595679283142, -0.23368102312088013, 0.16742278635501862, -0.3363196551799774, 0.4252423644065857, 1.5298731327056885, -0.2811967134475708, -0.29783082008361816, 0.21950286626815796, -0.18523593246936798, -0.1181740015745163, -0.6096846461296082, -0.2765202522277832, 0.3085610270500183, 0.5045045614242554, 0.523593544960022, 0.057943955063819885, -0.325565367937088, -0.19755907356739044, -0.6708686351776123, 0.13451552391052246, 0.0685870423913002], [0.1414387822151184, 0.0332266166806221, -0.2105177342891693, -0.100822813808918, -0.1165066733956337, -0.20209306478500366, -0.20341931283473969, -0.8636699914932251, -0.04003865644335747, 0.07863836735486984, -0.6186903119087219, -0.6574650406837463, 0.049876268953084946, 0.13193535804748535, 0.29179903864860535, 0.2024533748626709, -0.159662127494812, -0.4589826166629791, -0.03394854813814163, -0.05896243825554848, -0.14014188945293427, 0.11558418720960617, -0.6303115487098694, -0.852982223033905, 0.1541355848312378, -0.2235540896654129, -0.35501188039779663, 0.20115166902542114, 0.2232409119606018, -0.012556754983961582, 0.3030674159526825, 0.01899130269885063, 0.07702764123678207, 0.00551071809604764, 0.1420152485370636, -0.1618638038635254, -0.8240463733673096, 0.2626073658466339, -0.07748515158891678, 0.2665293216705322, -0.41816437244415283, -1.3931835889816284, 0.1860196888446808, 0.4100651443004608, 0.2265031635761261, -0.010569010861217976, -0.08803694695234299, 0.2426980882883072, -0.0874505564570427, -0.05147896707057953, 0.764260470867157, 0.255560964345932, 0.0767085924744606, 0.04588146135210991, 0.20631588995456696, 0.41518616676330566, -1.5680068731307983, -0.39778968691825867, -0.18573381006717682, 0.014083465561270714, 0.047246187925338745, -0.628738522529602, -0.3292040228843689, -0.05457848310470581], [0.025214046239852905, 0.5515052080154419, -0.25366726517677307, 0.18127107620239258, 0.27132242918014526, -0.04901888966560364, 0.04701324179768562, -0.32884883880615234, 0.15229178965091705, 0.008590727113187313, 0.4651247262954712, 0.0999075323343277, 0.19934579730033875, -0.14189164340496063, 0.046697262674570084, 0.12680940330028534, -0.03994983434677124, -0.13663628697395325, 0.21099944412708282, -0.020510250702500343, -0.15578049421310425, -0.01280337106436491, -0.022582553327083588, -0.36467981338500977, -0.5525076985359192, -0.00756770558655262, -0.05544601380825043, 0.08334311842918396, -0.10801180452108383, -0.19285546243190765, -0.14114174246788025, -0.1451098769903183, -0.01709190383553505, 0.06560790538787842, 0.16420696675777435, -0.014945350587368011, 0.1465538591146469, -0.09554997831583023, -0.09082521498203278, -0.2919420897960663, -0.5824351906776428, -0.31254518032073975, -0.15035530924797058, 0.04779854044318199, 0.18969018757343292, 0.08811891824007034, 0.14027409255504608, -0.4809457063674927, 0.06486733257770538, -0.1623459756374359, 0.19183261692523956, -0.035265933722257614, -0.15271037817001343, 0.059942323714494705, 0.06831743568181992, -0.14830774068832397, -0.6484861373901367, 0.34455499053001404, 0.37965840101242065, -0.20226149260997772, 0.21562165021896362, 0.14458003640174866, -0.3301067352294922, 0.013445291668176651], [-0.21923552453517914, -0.15182988345623016, -0.2676296532154083, 0.32635587453842163, -0.18096834421157837, 0.09127264469861984, 0.059093620628118515, 0.20106713473796844, 0.11070166528224945, -0.12047863751649857, 0.06948761641979218, 0.14681479334831238, -0.07855398952960968, -0.21813537180423737, 0.1851421296596527, -0.011812174692749977, 0.21438974142074585, -0.18591144680976868, 0.04393990710377693, 0.2522530257701874, -0.00931761134415865, -0.1395849883556366, 0.4950399100780487, -0.21692104637622833, -0.07013653963804245, -0.061677590012550354, -0.0601281076669693, -0.283231645822525, -0.2537139356136322, -0.14136731624603271, -0.05568283796310425, 0.17803578078746796, 0.491459459066391, -0.058717165142297745, 0.24769355356693268, -0.09548155218362808, 0.02071535959839821, -0.044088054448366165, 0.11560483276844025, -0.08087053894996643, 0.21073347330093384, -0.35780057311058044, -0.009446997195482254, 0.09405065327882767, -0.06707008928060532, -0.1768781542778015, -0.08924324065446854, 0.2772527039051056, 0.027219796553254128, -0.2526121735572815, -0.20432421565055847, 0.06926216185092926, -0.18364347517490387, -0.015819869935512543, 0.1024027019739151, -0.004589070565998554, 0.5261211395263672, 0.31192031502723694, -0.014485565014183521, 0.035401735454797745, 0.02674539014697075, 0.17273415625095367, 0.38517436385154724, -0.19079221785068512], [-0.006576601881533861, 0.002654887270182371, 0.14974933862686157, 0.24138997495174408, -0.2748233675956726, -0.09234927594661713, -0.003086387412622571, 1.374323844909668, -0.03431954234838486, -0.19892849028110504, 0.31829237937927246, -3.5516467094421387, -0.4338226914405823, -0.14993508160114288, 0.08182191848754883, -0.3002501130104065, 0.03303608298301697, -0.12619689106941223, -0.007153038866817951, -0.050374921411275864, 0.14055423438549042, 0.0625113770365715, -0.01235590223222971, -0.000895438774023205, 0.20458541810512543, -0.22316326200962067, -0.004718708340078592, -0.02775358036160469, 0.34763044118881226, -0.03972220793366432, 0.1405707597732544, 0.17032422125339508, -0.13993392884731293, -0.1798708438873291, -0.2383400946855545, -0.24002791941165924, 0.23123788833618164, -0.09011591970920563, -0.05657929554581642, 0.34504303336143494, -0.11231554299592972, -0.2536971867084503, 0.09708712249994278, -0.06350589543581009, -0.08130304515361786, -0.06980657577514648, 0.3127114176750183, 0.27235597372055054, -0.04031010717153549, 0.09098488837480545, -0.6872227191925049, 0.09365233033895493, 0.15092293918132782, 0.17256861925125122, -0.14202699065208435, 0.47583428025245667, 0.39325278997421265, -0.6274706125259399, -0.19406098127365112, 0.04902900382876396, -1.2973729372024536, 0.2735363245010376, -0.08552618324756622, -0.26495349407196045], [-0.04307878389954567, -0.29615411162376404, 0.21985667943954468, 0.21708156168460846, -0.41855695843696594, 0.11449424177408218, 0.04492473229765892, 0.36982226371765137, -0.07694120705127716, -0.13648486137390137, -0.06094273552298546, 0.4688817262649536, -0.010953462682664394, 0.2270197719335556, -0.35607850551605225, 0.11475905030965805, 0.15078915655612946, 0.0004665275337174535, -0.2074209302663803, 0.0924297645688057, -0.4202694892883301, 0.13658560812473297, -0.010203669779002666, -0.21204443275928497, 0.07905273884534836, 0.12923869490623474, -0.1526726931333542, -0.19828803837299347, 0.09394849836826324, -0.037404466420412064, -0.10178767889738083, 0.0716499388217926, -0.06503717601299286, -0.07876959443092346, -0.1982111632823944, 0.02287820540368557, 0.27598124742507935, 0.12670351564884186, -0.1288812756538391, -0.11644738912582397, -0.2626056671142578, -0.2069779485464096, 0.14808478951454163, -0.21641787886619568, 0.006295861676335335, 0.21419557929039001, -0.049156997352838516, 0.062059808522462845, 0.15533964335918427, -0.30657073855400085, -0.8979098200798035, -0.26393210887908936, 0.18823100626468658, -0.0972197949886322, -0.14775295555591583, 0.02129688300192356, 0.06552007794380188, -0.22852008044719696, -0.3796939253807068, -0.0008686182554811239, 0.0022555566392838955, -0.20660871267318726, 0.13484185934066772, 0.012440061196684837], [0.031663648784160614, -0.008592830039560795, 0.0029629801865667105, -0.1096217930316925, 0.022068213671445847, 0.09367014467716217, -0.3723289370536804, -0.04162093624472618, 0.013648624531924725, -0.06748352944850922, 0.25848129391670227, 0.23041601479053497, -0.0740799605846405, 0.059609103947877884, 0.01410919614136219, -0.020665861666202545, 0.014346805401146412, 0.10066072642803192, 0.033654723316431046, 0.008391289971768856, -0.20842309296131134, 0.020194552838802338, -0.06587261706590652, -0.09869002550840378, -0.03798385336995125, 0.29637211561203003, -0.1174897849559784, 0.006462604273110628, 0.09415096044540405, 0.0890776664018631, 0.42738965153694153, -0.0031654364429414272, -0.024498431012034416, 0.08109714090824127, 0.1511775106191635, -0.029515760019421577, -0.07175318896770477, 0.01826629228889942, -0.07231643795967102, 0.08333981037139893, -0.02901981584727764, 0.25885558128356934, 0.1832592636346817, -0.2636760175228119, -0.023104265332221985, 0.21447552740573883, -0.09717170894145966, 0.18475410342216492, -0.039010073989629745, 0.0908144861459732, -0.06696172803640366, -0.13951712846755981, -0.11784303933382034, 0.19582954049110413, -0.04775242879986763, 0.0051192957907915115, -0.13433346152305603, -0.16288581490516663, -0.04235175997018814, 0.08075473457574844, -0.06730557978153229, 0.018146179616451263, 0.14949336647987366, -0.02020173706114292], [-0.06558986753225327, -0.3964622914791107, -0.016466746106743813, -0.074801504611969, 0.17250825464725494, 0.18528279662132263, -0.0066642179153859615, 0.12867018580436707, -0.005178362596780062, 0.09319540113210678, -0.07295289635658264, 0.20569851994514465, 0.04370548576116562, 0.03674208000302315, -0.1422150433063507, -0.12953774631023407, 0.04993082210421562, -0.002932789037004113, 0.05513998121023178, -0.04689014330506325, 0.10405641049146652, 0.01533539593219757, 0.17847378551959991, 0.03818383440375328, -0.0928015410900116, -0.278098464012146, -0.16254626214504242, -0.25514209270477295, -0.026446981355547905, -0.2337498664855957, 0.044387493282556534, -0.07695740461349487, 0.22891031205654144, -0.27064046263694763, -0.013644195161759853, 0.03644324094057083, 0.22898180782794952, -0.12750478088855743, -0.02082318440079689, -0.027019724249839783, -0.019045313820242882, 0.09497939795255661, -0.03213387355208397, 0.12446552515029907, 0.09135950356721878, -0.12020836025476456, -0.23499394953250885, 0.993981122970581, -0.29970672726631165, 0.12537403404712677, -0.1727878600358963, -0.12252358347177505, 0.2557942867279053, 0.16606469452381134, -0.10105051100254059, -0.01836477220058441, 0.1794886589050293, 0.15572597086429596, -0.02706526406109333, -0.08408678323030472, 0.07582365721464157, 0.13093237578868866, 0.2363501638174057, 0.08905459195375443], [0.2921169400215149, 0.1524895280599594, -0.0862741693854332, -0.038868773728609085, -0.00882087554782629, -0.15831416845321655, -0.08562794327735901, -0.16471213102340698, 0.3484424650669098, -0.3905905485153198, -0.054784636944532394, -0.28858909010887146, -0.060434598475694656, -0.14441609382629395, -0.024263804778456688, 0.07135514914989471, -0.12030977010726929, -0.11388621479272842, -0.08986212313175201, 0.09826972335577011, -0.055351607501506805, 0.15273189544677734, 0.009200140833854675, 0.20724453032016754, 0.0018706957343965769, 0.2357579618692398, 0.14543955028057098, -0.3136940598487854, 0.03803451359272003, -0.09572375565767288, -0.2534164786338806, -0.06592559814453125, 0.38329946994781494, -0.042749855667352676, -0.16098959743976593, 0.06997605413198471, 0.005097806453704834, 0.024473629891872406, 0.03449422866106033, -0.39571255445480347, 0.025695040822029114, 0.31300556659698486, 0.0770145133137703, -0.08307541161775589, -0.12984643876552582, 0.08578964322805405, -0.25841856002807617, 0.6077631115913391, -0.2749096751213074, 0.12140323966741562, 0.08655532449483871, -0.1883697360754013, 0.20213919878005981, 0.2548806965351105, -0.1694878190755844, 0.05357268452644348, -0.08743292093276978, 0.23981192708015442, 0.06941448152065277, 0.0394115187227726, 0.0007361512398347259, 0.20416080951690674, -0.12650297582149506, 0.07323239743709564], [0.1890442669391632, 0.17335273325443268, 0.031830526888370514, -0.003943668212741613, 0.0804123729467392, 0.045540593564510345, 0.1890435814857483, -0.05862242728471756, 0.06052025780081749, 0.04220549017190933, -0.3441336750984192, 0.1861649453639984, 0.2176399528980255, -0.002029905328527093, 0.011582864448428154, 0.11848209798336029, -0.1244950219988823, 0.12709830701351166, 0.12257207185029984, 0.1819470077753067, 0.05687147006392479, 0.12455680966377258, -0.06537097692489624, 0.005444597918540239, -0.08810049295425415, -0.08545172959566116, -0.026517948135733604, -0.045586466789245605, -0.11055004596710205, 0.19015444815158844, 0.07773187756538391, 0.025334801524877548, 0.05518661066889763, -0.026114093139767647, -0.200822651386261, 0.22817251086235046, -0.15114887058734894, -0.13800504803657532, 0.12736518681049347, -0.02836703136563301, -0.053927309811115265, 0.2553013861179352, 0.058502618223428726, 0.29286307096481323, -0.10449092090129852, -0.054878972470760345, -0.03720184415578842, -0.5268535614013672, 0.04831351712346077, -0.01299969106912613, -0.13090993463993073, -0.05538968741893768, 0.17936302721500397, -0.14481978118419647, -0.14219342172145844, 0.06686929613351822, -0.4255050718784332, -0.07028612494468689, 0.11653069406747818, -0.09163513034582138, 0.016589926555752754, -0.02477792650461197, 0.28043869137763977, -0.09867717325687408], [0.08823923021554947, 0.026427865028381348, -0.05163627117872238, 0.03809131681919098, -0.011406311765313148, 0.0598183311522007, -0.11277800053358078, -0.06571251153945923, -0.18648473918437958, -0.004300470929592848, 0.3024049997329712, 0.0033337664790451527, 0.0403556227684021, 0.0003000652068294585, 0.09414597600698471, -0.1700139194726944, 0.048799067735672, 0.17043477296829224, -0.012221272103488445, -0.0010271526407450438, -0.06098935380578041, -0.06012023612856865, 0.3333933353424072, 0.12640511989593506, -0.04457974061369896, -0.3498916029930115, 0.02430412732064724, -0.43909183144569397, 0.15669992566108704, 0.011921916157007217, 0.0283338762819767, 0.11649063229560852, 0.07397572696208954, 0.14030127227306366, 0.00952684786170721, 0.03890107572078705, -0.08011874556541443, -0.04529022052884102, 0.17510513961315155, 0.19481663405895233, 0.067748062312603, 0.12252095341682434, -0.3523500859737396, 0.14653828740119934, -0.08096207678318024, -0.0015392921632155776, 0.06082327663898468, 0.18762844800949097, -0.006125833373516798, 0.10935018211603165, -0.05125768855214119, 0.1348361074924469, 0.00698813796043396, 0.023168189451098442, 0.03709898889064789, -0.08801761269569397, -0.11759043484926224, 0.10880477726459503, -0.21136021614074707, -0.13241197168827057, -0.13430486619472504, -0.19882170855998993, -0.2142026275396347, 0.009673434309661388], [0.09011851251125336, -0.0711100697517395, 0.15815852582454681, -0.01878015697002411, -0.11553766578435898, 0.23078830540180206, -0.1976325511932373, 0.04944039136171341, -0.019964950159192085, 0.1361304372549057, -0.1480330377817154, -0.12691843509674072, 0.105735644698143, -0.09065422415733337, 0.10679633915424347, 0.033948641270399094, -0.1451246291399002, 0.07315093278884888, 0.0820438340306282, -0.014150120317935944, 0.1684410721063614, -0.01403854414820671, -0.23356570303440094, -0.007794829085469246, 0.023119216784834862, 0.37810519337654114, -0.01584579423069954, -0.11655112355947495, 0.05152244120836258, 0.15875500440597534, -0.15007399022579193, 0.1437235325574875, -0.015545018017292023, -0.047001615166664124, -0.15437573194503784, -0.04924622178077698, -0.034938085824251175, -0.06417889147996902, 0.028907282277941704, -0.005467903334647417, 0.03999469429254532, 0.1905960887670517, -0.18758055567741394, 0.30936625599861145, 0.07460939884185791, 0.10157075524330139, 0.23153160512447357, 0.3394804298877716, 0.10866468399763107, -0.13868410885334015, -0.1971726268529892, 0.03375507518649101, -0.2719079256057739, -0.06918840855360031, 0.0012997118756175041, 0.0019274763762950897, 0.13311713933944702, -0.0858311578631401, 0.19390931725502014, -0.11967948824167252, -0.07325349003076553, -0.1857661008834839, 0.03129594400525093, 0.039740320295095444], [0.18060101568698883, 0.019288619980216026, 0.08716733008623123, -0.24274739623069763, 0.21992318332195282, -0.0307557862251997, 0.034859199076890945, 0.3562045395374298, 0.15418940782546997, 0.04874376952648163, 0.47596442699432373, 0.7239254713058472, 0.031024016439914703, -0.13011306524276733, 0.1977129429578781, 0.016932502388954163, -0.5299323797225952, 0.07561477273702621, 0.08182498812675476, 0.028995556756854057, -0.007951010949909687, 0.10514704138040543, -0.059008799493312836, 0.08334492146968842, -0.01833888702094555, 0.3103044629096985, 0.41801419854164124, -0.2964232265949249, -0.11193235963582993, -0.18341612815856934, -0.09136851876974106, 0.04741523042321205, 0.05408469960093498, -0.7430292367935181, -0.021124884486198425, -0.04098762199282646, 0.16499559581279755, 0.11076675355434418, -0.12770508229732513, -0.8096948862075806, -0.047094423323869705, -0.6526681184768677, 0.021006006747484207, 0.2919342517852783, 0.010191491805016994, -0.14271299540996552, -0.06336688995361328, 0.45275768637657166, -0.07288341224193573, -0.34567391872406006, 0.141378253698349, -0.14451320469379425, 0.08568555861711502, 0.27648547291755676, -0.26469728350639343, -0.04709864780306816, -3.3617453575134277, 0.2045454978942871, 0.23615790903568268, 0.2625761926174164, -0.09987504035234451, -0.33728644251823425, -0.1768665313720703, 0.28707098960876465], [0.15977713465690613, -0.13477732241153717, -0.06260950863361359, -0.0669698640704155, 0.15068833529949188, 0.0007051280699670315, -0.07784993946552277, 0.04270230978727341, -0.08217781037092209, 0.01683555170893669, -0.08982519805431366, -0.290851891040802, -0.005174056626856327, 0.13770169019699097, 0.004337985068559647, 0.025046896189451218, 0.104576975107193, 0.14200982451438904, 0.0051201945170760155, -0.20706234872341156, 0.11255338042974472, 0.0022703756112605333, 0.12743781507015228, 0.08880624175071716, 0.14439456164836884, -0.2489226758480072, 0.01931271143257618, 0.18275389075279236, -0.05313510075211525, -0.17010225355625153, -0.092910036444664, 0.025866905227303505, -0.08741074800491333, 0.5031431317329407, -0.03203509747982025, -0.009418182075023651, 0.06095834821462631, 0.06177119165658951, 0.1511050909757614, -0.00559939444065094, 0.07035920768976212, 0.17167146503925323, -0.31314486265182495, -0.09519059211015701, -0.18394213914871216, -0.16120588779449463, -0.3018593192100525, 0.1859123557806015, -0.05064905062317848, 0.23798155784606934, 0.011503715068101883, 0.11579293757677078, 0.03472194820642471, 0.045639391988515854, -0.17227491736412048, -0.0040260013192892075, -0.13014362752437592, -0.03366329148411751, -0.05680450424551964, -0.3014886677265167, -0.1035810187458992, -0.09913157671689987, 0.009633694775402546, 0.4380500614643097], [0.29450729489326477, -0.02773810364305973, -0.08682607859373093, -0.10323985666036606, 0.2697853147983551, 0.010148932226002216, 0.29825252294540405, 0.12700365483760834, 0.5011737942695618, -0.019155222922563553, 0.42626136541366577, -0.05998220667243004, 0.004656276199966669, 0.2312552034854889, 0.05719951167702675, 0.16147854924201965, 0.024024544283747673, -0.19537484645843506, 0.1369200348854065, 0.026523733511567116, 0.14037086069583893, -0.063365139067173, -0.13224613666534424, 0.14962917566299438, -0.011536382138729095, 0.17598731815814972, 0.025217564776539803, 0.05586816370487213, -0.38187548518180847, -0.029851356521248817, 0.004431193228811026, -0.2681800425052643, -0.0003694572951644659, -0.16850623488426208, -0.22829413414001465, -0.2170657217502594, 0.33030152320861816, -0.004174280911684036, -0.04769619181752205, 0.025697439908981323, 0.176895409822464, 0.25505775213241577, -0.16042596101760864, -0.043990109115839005, 0.047728706151247025, 0.10869220644235611, 0.13575761020183563, 0.0443718284368515, -0.05150822922587395, -0.08372224122285843, -0.23387451469898224, -0.29671210050582886, 0.05603374168276787, 0.19760173559188843, 0.4316028356552124, -0.22720368206501007, 0.2595183551311493, -0.16477498412132263, -0.2995576560497284, 0.010243391618132591, 0.19966307282447815, 0.25013837218284607, 0.48671773076057434, 0.03293452039361], [0.04501691088080406, -0.31828513741493225, -0.12222246825695038, -0.13813666999340057, 0.3135766088962555, 0.12228517979383469, -0.20884056389331818, 0.017559049651026726, -0.006043876521289349, 0.3491683602333069, -0.01018151268362999, 0.12436958402395248, 0.04109977185726166, -0.08124815672636032, 0.015756359323859215, 0.03493719920516014, -0.017787674441933632, 0.27094197273254395, -0.08827786147594452, -0.009219091385602951, -0.03537427634000778, -0.003666510106995702, -0.1221652403473854, -0.16023914515972137, -0.24510550498962402, -0.18146340548992157, 0.020456574857234955, 0.16813239455223083, 0.04086654260754585, 0.09711146354675293, -0.07162805646657944, -0.061688680201768875, -0.03693540021777153, 0.10303244739770889, -0.11984634399414062, 0.037171557545661926, -0.04666272923350334, 0.14026471972465515, 0.07088945060968399, 0.04729943349957466, -0.10218514502048492, -0.20935216546058655, 0.10988862812519073, 0.12778837978839874, 0.07326271384954453, -0.06950950622558594, 0.1564662754535675, -0.6752787828445435, -0.1609884351491928, 0.025820493698120117, -0.0676410123705864, -0.016722435131669044, -0.23295360803604126, -0.25963643193244934, 0.04400717839598656, -0.3560139536857605, 0.44216006994247437, -0.08846084028482437, -0.06057320907711983, -0.04791250079870224, -0.03642847388982773, 0.2943035960197449, 0.07341184467077255, 0.007995562627911568], [-0.07584678381681442, 0.009731680154800415, 0.027072373777627945, 0.33233439922332764, -2.45951247215271, 0.06247285380959511, -3.999298095703125, 0.07121147215366364, -1.6542751789093018, -0.10362760722637177, -0.0864090770483017, -0.39087381958961487, 0.16197526454925537, 0.12139824777841568, 0.0634864941239357, 0.09172404557466507, 0.10015121102333069, -0.16643787920475006, 0.4464189410209656, -0.5539127588272095, 0.15630924701690674, -0.05975351855158806, -0.5265617370605469, -0.10222649574279785, -0.30699434876441956, -0.4495620131492615, 0.2882828712463379, -0.0539272278547287, -0.029581362381577492, 0.02788187749683857, 0.17827504873275757, 0.11030685156583786, 0.12191606312990189, -0.7717896103858948, 0.021564001217484474, -0.3874162435531616, -0.48424339294433594, 0.060164663940668106, -0.37077051401138306, 0.0887838825583458, 0.23151977360248566, -0.12410621345043182, -0.05962182953953743, -0.08726465702056885, -0.3272036910057068, -0.04566209763288498, 0.6613393425941467, 0.5644112825393677, 0.32141417264938354, -0.7201906442642212, -0.6164718866348267, 0.19091811776161194, -0.5044789910316467, 0.11436071246862411, 0.031104668974876404, -0.11014091223478317, 0.21667258441448212, -0.36348211765289307, 0.08643322438001633, -0.22334614396095276, -0.28245872259140015, 0.11988576501607895, -1.8793396949768066, -0.1989227533340454], [0.07625936716794968, -0.05164911597967148, -0.08714492619037628, -0.08517403900623322, -0.12610316276550293, 0.01608714833855629, -0.05220574513077736, -0.37055081129074097, -0.11949051916599274, 0.09807397425174713, -0.05933764949440956, 0.04289000853896141, 0.12190812081098557, 0.012008833698928356, -0.010363255627453327, 0.13666312396526337, -0.07892997562885284, 0.013094351626932621, -0.09219849109649658, 0.08987005800008774, -0.3242999315261841, 0.040974147617816925, -0.08350152522325516, -0.15817143023014069, 0.027882859110832214, -0.07972647994756699, 0.043709151446819305, -0.15579664707183838, 0.10600847750902176, 0.14121443033218384, -0.0007378036389127374, -0.03701025992631912, 0.0842544436454773, -0.2542339265346527, 0.07149294763803482, 0.0022393495310097933, -0.2615525424480438, 0.009196060709655285, -0.03530094400048256, 0.1326874941587448, -0.2656968832015991, 0.11226370930671692, 0.07843463122844696, -0.033830299973487854, 0.03425440564751625, -0.19196151196956635, -0.061704255640506744, -0.09133511036634445, 0.1144929826259613, -0.30913254618644714, -0.144782155752182, -0.054038237780332565, -0.125398650765419, -0.21290737390518188, -0.017633071169257164, -0.09997661411762238, -0.19144503772258759, -0.2546287178993225, -0.0774819403886795, 0.09880872070789337, -0.08350510150194168, -0.2190280556678772, -0.12343541532754898, -0.14163964986801147], [0.10610862076282501, -0.12084347754716873, 0.11320462077856064, 0.1447920948266983, -0.3260844945907593, 0.06533759832382202, -0.5950420498847961, 0.31428536772727966, 0.06535729765892029, 0.05651753395795822, 0.16927991807460785, -0.5883457064628601, -0.1632803976535797, -0.28546983003616333, 0.03490744158625603, -0.0025240478571504354, -0.033223219215869904, -0.17564299702644348, 0.04507343843579292, -0.14532333612442017, 0.0678902342915535, 0.14357729256153107, 0.14326749742031097, 0.1610383838415146, 0.19832146167755127, -0.015900515019893646, -0.053528886288404465, -0.5527622699737549, 0.218964621424675, -0.021069884300231934, -0.010346055030822754, 0.13210251927375793, -0.2116895616054535, 0.19785870611667633, -0.30404627323150635, 0.012952880933880806, 0.06945649534463882, -0.10016544908285141, -0.018705373629927635, -0.11250690370798111, -0.14388088881969452, 0.12028586864471436, -0.05360395461320877, -0.26316067576408386, -0.0966096743941307, -0.45847848057746887, -0.2168329805135727, -0.18018531799316406, 0.117390476167202, 0.41989150643348694, -0.05105610564351082, 0.2753862738609314, 0.07225985825061798, 0.05050710588693619, -0.14011946320533752, 0.20834915339946747, 0.20758335292339325, -0.800299346446991, 0.11201690882444382, -0.16590476036071777, -0.028969164937734604, -0.1285426914691925, -0.47611328959465027, 0.004811942111700773], [-0.12189187854528427, 0.1357709914445877, 0.04828684777021408, -0.11491310596466064, -0.11156829446554184, 0.04027579352259636, -0.1284492313861847, 0.6335245370864868, -0.20560050010681152, 0.061124932020902634, 0.5221629738807678, 0.7756913304328918, -0.04149415343999863, 0.1890871673822403, -0.053526267409324646, 0.028268881142139435, -0.4486522674560547, 0.03339226171374321, -0.02285563200712204, 0.14051420986652374, 0.32109954953193665, -0.06464143842458725, -0.025460321456193924, -0.20498435199260712, -0.16451959311962128, -0.2621443271636963, 0.05309078469872475, -0.5714144110679626, 0.7248159050941467, 0.046112362295389175, 0.23902656137943268, 0.32716721296310425, 0.20641423761844635, 0.11817073076963425, 0.097769595682621, 0.05984306335449219, 0.23231570422649384, -0.12897387146949768, 0.02590196207165718, -0.08779505640268326, 0.29691025614738464, 0.28637823462486267, -0.17038340866565704, 0.123527392745018, -0.16263961791992188, -0.08043694496154785, 0.06469326466321945, -0.15796266496181488, -0.09195053577423096, -0.12806077301502228, -0.6789127588272095, -0.3011038601398468, 0.07486478984355927, -0.06997371464967728, -0.2211911678314209, 0.0408344529569149, 0.178676038980484, -0.5031653642654419, -0.34374964237213135, -0.031679220497608185, -0.16990147531032562, -0.20850329101085663, 0.11191286891698837, 0.023612016811966896], [-0.06419259309768677, 0.05776558071374893, 0.4781918227672577, 0.3102833330631256, -0.7625336050987244, -0.3051585555076599, -0.02720518782734871, -0.15387283265590668, 0.4073430001735687, -0.1377290040254593, -0.2891513705253601, -1.9990243911743164, 0.021544065326452255, -0.08841509371995926, 0.2083675116300583, -0.06931944936513901, 0.2692854702472687, -0.21193735301494598, 0.25930535793304443, 0.363852322101593, 0.4864674210548401, -0.12337544560432434, -0.018337683752179146, 0.4086068868637085, 0.2271009087562561, 0.3311234712600708, 0.015160232782363892, -0.12022039294242859, -0.21240365505218506, 0.0565902404487133, 0.3881147503852844, -0.16478241980075836, -0.06379350274801254, -0.5104227066040039, -0.20760850608348846, 0.3184879422187805, -0.35773149132728577, 0.0069997115060687065, -0.3584076464176178, 0.1716073453426361, -0.6419729590415955, 0.16234883666038513, -0.4723987877368927, -0.47296106815338135, 0.19023269414901733, -0.3424524962902069, 0.13661296665668488, 0.24948886036872864, -0.05818867310881615, 0.07804490625858307, -0.030111975967884064, 0.15923631191253662, 0.1497827023267746, -0.35628601908683777, -0.06915175169706345, 0.06237048655748367, -1.317026138305664, -0.6801766753196716, 0.28112897276878357, -0.007244900334626436, 0.041489239782094955, 0.18900656700134277, -1.3551496267318726, -0.2719775140285492], [-0.3946620523929596, -0.06626418977975845, -0.14752592146396637, -0.019774440675973892, -0.3870530426502228, -0.17887111008167267, -0.026678958907723427, 0.6406627893447876, 0.017249317839741707, 0.12426593154668808, -0.33200833201408386, -0.6349437832832336, 0.10795896500349045, -0.18995362520217896, -0.1932365745306015, 0.13681872189044952, 0.1376894861459732, 0.2954139709472656, 0.1425779163837433, 0.1777656078338623, 0.36791494488716125, 0.2922733724117279, 0.5939936637878418, -0.04868219792842865, -0.18029923737049103, -0.2794034481048584, -0.015367562882602215, -0.555303156375885, 0.095547616481781, 0.0477888323366642, -1.0579113960266113, -0.07258306443691254, 0.1667151004076004, -0.43827664852142334, -0.21239981055259705, 0.34943118691444397, 0.06927496194839478, -0.2065068930387497, -0.4912400245666504, 0.13227353990077972, -0.3217272162437439, -0.11781223118305206, 0.2595379948616028, 0.03296377509832382, -0.1535918116569519, 0.31415364146232605, -0.45044922828674316, 0.2562045156955719, -0.45254403352737427, -0.034367676824331284, -0.6540079116821289, -0.06573107093572617, 0.2994272708892822, -0.0850612223148346, -0.18136487901210785, 0.027085890993475914, 0.0009320537210442126, -0.2539570927619934, -0.23720352351665497, -0.352702260017395, -0.2377670407295227, -0.644305408000946, 0.00016755727119743824, 0.012912181206047535], [0.11751455813646317, -0.12754501402378082, 0.10981478542089462, 0.013203369453549385, 0.08256454020738602, -0.02161196805536747, 0.019801612943410873, 0.4906066060066223, -0.4770232141017914, -0.0743846595287323, -0.013126709498465061, 0.06341378390789032, 0.2539501488208771, 0.3237355649471283, 0.06890088319778442, 0.09596245735883713, 0.00219063856638968, 0.10516170412302017, -0.006990157999098301, 0.20002460479736328, 0.007962305098772049, 0.11471830308437347, -0.07494162023067474, -0.5130375027656555, 0.09271913021802902, -0.29105857014656067, -0.23001760244369507, 0.02118389494717121, 0.19186092913150787, -0.22798597812652588, 0.175482839345932, 0.20422004163265228, -0.048366740345954895, -0.6114568114280701, 0.27676844596862793, 0.06474985927343369, 0.1583256870508194, -0.011896023526787758, 0.05454869940876961, 0.1492893248796463, 0.044171471148729324, -0.5315771698951721, 0.11769314110279083, -0.15584930777549744, -0.21293514966964722, -0.0023060559760779142, 0.17069712281227112, 0.20309686660766602, 0.2696399390697479, 0.028005098924040794, -1.1896995306015015, -0.33559560775756836, -0.004853696096688509, 0.11234753578901291, -0.22678816318511963, 0.006493681576102972, -0.28627464175224304, -0.4983774423599243, -0.2161337435245514, 0.02334498055279255, -0.16100621223449707, -0.16796593368053436, 0.7599712610244751, -0.006953748874366283], [-0.23123987019062042, -0.1606682389974594, -0.19447803497314453, 0.14791198074817657, 0.08036037534475327, -0.2786676287651062, 0.18151921033859253, 0.1578058898448944, 0.17344263195991516, -0.06366231292486191, -0.25306764245033264, 0.218112513422966, -0.028077132999897003, -0.2506098747253418, -0.1316605806350708, 0.3266373574733734, 0.1026906967163086, -0.09549479186534882, -0.04791257157921791, 0.1281413584947586, -0.0373196005821228, 0.09615320712327957, 0.8209898471832275, -0.048648614436388016, 0.23577532172203064, 0.11601802706718445, -0.050825249403715134, 0.3955676555633545, -0.2370634227991104, -0.1517878919839859, -0.5968988537788391, -0.360990047454834, 0.13984708487987518, -0.5791764259338379, 0.17060492932796478, -0.07172369211912155, 0.26359397172927856, -0.3087693452835083, -0.09640443325042725, 0.02632329985499382, 0.13345985114574432, 0.17215503752231598, -0.010994737967848778, 0.22920562326908112, -0.12462688237428665, 0.07722151279449463, 0.27751246094703674, 0.24841716885566711, 0.06360585242509842, -0.09272567927837372, 0.4731069505214691, -0.15495704114437103, -0.011112666688859463, 0.2713272273540497, -0.20369605720043182, 0.252244770526886, -0.48440104722976685, -0.10902872681617737, -0.32743048667907715, -0.12121514976024628, 0.229360431432724, -0.14090906083583832, 0.1740872859954834, 0.0805957093834877], [-0.10503672808408737, 0.06808516383171082, 0.18416202068328857, 0.31673750281333923, 0.49424490332603455, 0.07012329250574112, -0.08378534018993378, -0.11675013601779938, -1.0731114149093628, 0.14403009414672852, -1.068876028060913, -1.3839267492294312, -0.08365727961063385, -0.3154957890510559, 0.0445726215839386, 0.3624027967453003, -0.017266206443309784, -0.6735427379608154, -0.0005371490842662752, 0.15917478501796722, -0.7089359760284424, -0.00217704800888896, 0.01872236095368862, -0.04820927605032921, -0.4532143473625183, 0.42236220836639404, -0.1310756653547287, 0.11109840124845505, -0.1775054931640625, -0.09066751599311829, -0.4153628647327423, -0.29073503613471985, -0.05704325810074806, 0.1942434310913086, -1.103735089302063, 0.43261125683784485, -0.527998149394989, -0.011367292143404484, -0.28824764490127563, -0.3555818200111389, -0.6017097234725952, 0.5950414538383484, -0.17422334849834442, 0.15932710468769073, 0.02022787742316723, -0.1781640350818634, 0.060304731130599976, 0.6155768036842346, -0.17896395921707153, 0.029233044013381004, 0.05401474982500076, 0.15669654309749603, 0.293076753616333, 0.32763662934303284, 0.5176396369934082, -0.26600271463394165, -0.10064996033906937, -0.9451077580451965, -0.07793840765953064, 0.0039768829010427, -0.3343257009983063, 0.516951322555542, -0.10657787322998047, 0.14822952449321747], [-0.2648540735244751, 0.20882335305213928, 0.06482727080583572, 0.07760374248027802, -0.10429668426513672, -0.03098749741911888, 0.36361104249954224, 0.39243602752685547, 0.07881787419319153, 0.14364410936832428, 0.02892099693417549, 0.19990356266498566, 0.005520681384950876, 0.08449740707874298, 0.018690818920731544, 0.06210331991314888, -0.049598705023527145, -0.10683760046958923, -0.030463431030511856, 0.21867825090885162, -0.3393678367137909, 0.1800663024187088, 0.11368823051452637, -0.061631474643945694, 0.10859517753124237, 0.26894256472587585, 0.10805436968803406, -0.40559062361717224, 0.24164225161075592, -0.23269565403461456, 0.2301839292049408, 0.02002224326133728, 0.06179988384246826, -0.3413994014263153, 0.2625690698623657, -0.13883493840694427, 0.08435983955860138, 0.22518934309482574, -0.03644077852368355, 0.12972266972064972, 0.0848536416888237, -0.7669506669044495, -0.09304478019475937, -0.028905870392918587, -0.3177659809589386, 0.12040436267852783, -0.14221857488155365, -0.4083165228366852, -0.05217696726322174, 0.1390598863363266, -0.19668060541152954, 0.004959664773195982, 0.048199594020843506, -0.027823785319924355, -0.24508272111415863, 0.09345005452632904, 1.559205174446106, 0.2075878232717514, -0.2602059543132782, -0.2280455082654953, -0.16729967296123505, 0.3141343295574188, -0.08165287971496582, 0.08814849704504013], [0.11110057681798935, -0.15574313700199127, -0.03462325036525726, -0.18208050727844238, -0.10696951299905777, 0.025684744119644165, 0.06651684641838074, -0.05458962544798851, -0.12157799303531647, -0.15706950426101685, -0.05102459713816643, -0.14022111892700195, 0.03244785591959953, -0.16068482398986816, 0.028532328084111214, 0.03146876394748688, -0.00602017343044281, 0.03216644749045372, 0.04933791980147362, -0.025448564440011978, -0.09777108579874039, -0.08878286182880402, -0.03719070926308632, -0.03933867812156677, -0.09712190181016922, -0.14388780295848846, -0.18376564979553223, -0.005510158371180296, 0.07423343509435654, 0.08236347138881683, -0.12593145668506622, 0.043562423437833786, -0.072341188788414, -0.015236716717481613, 0.0561901330947876, -0.13966700434684753, -0.04292812943458557, 0.0014569135382771492, -0.10349298268556595, 0.06321509182453156, 0.0380299873650074, 