{"ensemble": [{"bias_net": [{"w": [[0.22070325911045074, 0.23960264027118683, -0.0676286369562149, 0.26518023014068604, -0.06324975192546844, 0.05825195461511612, -0.14054293930530548, 0.1695338934659958, 0.2544795274734497, -0.21178020536899567, 0.2509153187274933, 0.054028235375881195], [0.213275745511055, 0.039095439016819, 0.13919571042060852, -0.04075833037495613, 0.22253556549549103, 0.04266875609755516, -0.13476507365703583, 0.07358280569314957, -0.13300320506095886, -0.03385375440120697, -0.1172478049993515, 0.19149869680404663], [-0.22787153720855713, -0.13308222591876984, -0.08151456713676453, -0.17357240617275238, 0.027246059849858284, -0.2851184010505676, 0.2607051432132721, -0.245220348238945, 0.22286510467529297, 0.04804106801748276, -0.09373412281274796, 0.17838679254055023], [0.04499024152755737, 0.23323893547058105, 0.031557876616716385, -0.09104039520025253, 0.07756229490041733, -0.07828275859355927, 0.12149110436439514, 0.25773555040359497, 0.16687141358852386, -0.1262008398771286, 0.1666419506072998, 0.05165155231952667], [0.14659933745861053, -0.17594894766807556, -0.2857619524002075, -0.11153267323970795, -0.22142042219638824, 0.23686917126178741, 0.08314748108386993, 0.11957314610481262, 0.0912967324256897, -0.005021784920245409, 0.22591954469680786, -0.20510759949684143], [0.018176062032580376, -0.1970323771238327, 0.08901355415582657, -0.09941460192203522, 0.08845476061105728, -0.06014300510287285, 0.23942479491233826, -0.17109830677509308, -0.17216527462005615, -0.17217566072940826, 0.25964677333831787, 0.09620130807161331], [0.27777785062789917, -0.23823672533035278, -0.2863299548625946, -0.2258489578962326, -0.19418860971927643, 0.11692501604557037, 0.10336759686470032, 0.2398672103881836, -0.14907915890216827, -0.19679324328899384, 0.15316471457481384, -0.11668378114700317], [0.1752038151025772, -0.06850279122591019, 0.1651354283094406, -0.2242913395166397, -0.14567983150482178, 0.08801024407148361, 0.06102810055017471, -0.07360024750232697, 0.1720704287290573, 0.196244016289711, -0.20933951437473297, -0.1541144698858261], [0.26432883739471436, -0.09740836918354034, -0.10234006494283676, -0.27932050824165344, -0.165315642952919, 0.07211210578680038, -0.038103148341178894, -0.20954522490501404, 0.0067713637836277485, -0.19718864560127258, -0.24491101503372192, -0.15896260738372803], [-0.25265195965766907, -0.18381044268608093, 0.28856220841407776, 0.05452350527048111, 0.08895804733037949, -0.2692427635192871, -0.18959426879882812, -0.09608719497919083, 0.045140452682971954, -0.2540113925933838, -0.12438233196735382, -0.17282073199748993], [0.000799993344116956, -0.10741694271564484, -0.020003963261842728, -0.19561484456062317, -0.19814521074295044, -0.16841359436511993, -0.0988127589225769, -0.22784575819969177, 0.24204540252685547, -0.057291630655527115, 0.24837514758110046, 0.08994600176811218], [-0.24444922804832458, 0.19977335631847382, -0.07942746579647064, -0.11065670102834702, -0.23962070047855377, -0.2869894504547119, 0.08259302377700806, -0.06305931508541107, 0.11238790303468704, -0.23690512776374817, 0.2143208235502243, -0.21190305054187775], [-0.049846500158309937, 0.06029548496007919, 0.14902906119823456, 0.2330504208803177, 0.26297128200531006, -0.22889690101146698, 0.07265008240938187, -0.12416666746139526, -0.031634408980607986, -0.21607047319412231, 0.26294222474098206, -0.21187324821949005], [0.15428277850151062, 0.10145187377929688, 0.09380669891834259, -0.15607111155986786, 0.26239168643951416, 0.06343647837638855, 0.037135183811187744, -0.25439634919166565, 0.12118249386548996, -0.043307214975357056, -0.13224908709526062, 0.2479565143585205], [0.06435976922512054, -0.1597171425819397, -0.1461097151041031, -0.013785888440907001, 0.16118501126766205, -0.07376625388860703, -0.16471077501773834, -0.09885474294424057, -0.2156619280576706, 0.10295092314481735, 0.22344616055488586, -0.2717704176902771], [0.06704499572515488, 0.14912720024585724, 0.05234527960419655, -0.10280432552099228, 0.15067172050476074, 0.15170258283615112, 0.10794349014759064, -0.05072639882564545, -0.07644154131412506, 0.030882731080055237, -0.05099564418196678, -0.08602549135684967], [0.18452313542366028, 0.24808727204799652, -0.028578074648976326, -0.06463345885276794, 0.004212431143969297, -0.01723628304898739, 0.06940075755119324, 0.08089647442102432, -0.26219114661216736, -0.106532022356987, 0.2431018352508545, 0.11245483160018921], [-0.01435799989849329, -0.17404389381408691, -0.17661291360855103, -0.2585856020450592, -0.09409724175930023, 0.09748680144548416, 0.18406550586223602, 0.13328054547309875, -0.2551726698875427, -0.17359839379787445, -0.045557741075754166, 0.27924975752830505], [0.04175902158021927, -0.07475841045379639, 0.11942929774522781, -0.10995102673768997, -0.18684661388397217, 0.21070028841495514, -0.13126109540462494, -0.057869765907526016, -0.2871752381324768, 0.19320178031921387, 0.2187102735042572, 0.10520713031291962], [-0.201285719871521, -0.28490501642227173, -0.234455868601799, 0.21526511013507843, 0.1385945975780487, 0.24292141199111938, 0.15122820436954498, 0.07306141406297684, -0.002826904645189643, -0.21953918039798737, -0.24732881784439087, -0.27001187205314636], [0.11817261576652527, -0.14173024892807007, -0.058096613734960556, -0.1661340594291687, -0.05260340869426727, -0.20317962765693665, -0.18862485885620117, 0.0957566648721695, -0.08579320460557938, 0.17821162939071655, -0.09260950982570648, -0.21176262199878693], [-0.05093352869153023, -0.13993452489376068, -0.08831772208213806, -0.27481746673583984, 0.1615111082792282, -0.20097693800926208, 0.14509323239326477, 0.1309962272644043, 0.20623895525932312, -0.22142885625362396, 0.2076142281293869, -0.13647162914276123], [0.10711845010519028, 0.2710990607738495, -0.0407123900949955, -0.0022324586752802134, -0.06646183878183365, -0.24103927612304688, 0.1385360211133957, -0.28657296299934387, 0.17920948565006256, 0.2159939706325531, 0.27300190925598145, -0.06809255480766296], [-0.23718759417533875, 0.0649029091000557, 0.1594720184803009, -0.2873208820819855, -0.06552454084157944, -0.17304788529872894, -0.025248605757951736, -0.14208979904651642, -0.11800103634595871, -0.09164247661828995, -0.27432912588119507, 0.23686011135578156], [0.2420053780078888, -0.04528419300913811, -0.03287491947412491, -0.1178140714764595, -0.26069176197052, -0.2809225916862488, 0.10728854686021805, -0.1584959775209427, -0.18558259308338165, -0.02252335660159588, -0.09613204002380371, -0.09339240193367004], [0.009275476448237896, -0.0612315833568573, -0.09939443320035934, -0.13821935653686523, -0.23493172228336334, 0.24205616116523743, -0.11552407592535019, 0.07649298757314682, -0.10016042739152908, 0.02345811016857624, 0.26913195848464966, 0.13299918174743652], [-0.25016576051712036, 0.11457596719264984, 0.27402278780937195, 0.07594561576843262, 0.1935349404811859, 0.28460121154785156, -0.044233400374650955, 0.05991581082344055, -0.20063935220241547, -0.059489332139492035, 0.21378812193870544, 0.14798811078071594], [-0.1826704442501068, -0.23148426413536072, -0.19727009534835815, -0.28488704562187195, -0.22275298833847046, -0.0713886097073555, 0.19482025504112244, 0.04831909015774727, -0.21956788003444672, -0.23158209025859833, 0.14360873401165009, -0.2147284746170044], [-0.035543836653232574, 0.13847920298576355, -0.1336023360490799, -0.03147710859775543, -0.025127576664090157, -0.06829573214054108, -0.14636757969856262, -0.2573360800743103, -0.23335255682468414, -0.1545744687318802, 0.27881333231925964, -0.1394343376159668], [-0.19385342299938202, 0.0699731782078743, 0.07956184446811676, 0.15816791355609894, 0.21942785382270813, 0.1607557237148285, -0.2862216830253601, 0.025602197274565697, 0.17486584186553955, -0.02668093331158161, -0.17011024057865143, 0.27520549297332764], [-0.10797253996133804, -0.16435560584068298, -0.2602565288543701, 0.012894632294774055, 0.12792150676250458, 0.06390194594860077, 0.05708542838692665, -0.21892759203910828, -0.26959002017974854, 0.005083383526653051, 0.2632238268852234, 0.16654284298419952], [-0.1680765450000763, -0.037472497671842575, -0.2128065675497055, -0.13926364481449127, 0.052278585731983185, 0.15719471871852875, 0.23912960290908813, -0.26503437757492065, 0.19301258027553558, -0.20360028743743896, 0.10809938609600067, 0.24428996443748474], [0.00405368534848094, 0.26263922452926636, -0.2459660768508911, -0.11026211827993393, 0.16837060451507568, -0.06289303302764893, -0.05909186601638794, -0.12031739205121994, 0.1989855319261551, 0.14159607887268066, 0.09250596165657043, -0.1622249335050583], [-0.2343319207429886, 0.031223280355334282, 0.08552832901477814, -0.13328473269939423, -0.08077062666416168, 0.19496186077594757, 0.02299577370285988, 0.01302454061806202, -0.07104310393333435, -0.26142123341560364, -0.2714289426803589, -0.1379910558462143], [-0.14673975110054016, 0.08993777632713318, -0.0840364322066307, -0.1129360944032669, 0.2752314805984497, 0.10055214911699295, 0.20579716563224792, -0.13975131511688232, -0.11791420727968216, 0.10609979182481766, -0.1923370659351349, -0.18870809674263], [-0.01394291315227747, -0.10558601468801498, -0.21640761196613312, 0.1712302416563034, 0.23214182257652283, 0.046829842031002045, -0.050262171775102615, -0.26739197969436646, -0.10514666140079498, 0.07349253445863724, 0.13611924648284912, -0.03649359196424484], [-0.11412853002548218, 0.16085730493068695, -0.2299007922410965, 0.1824478656053543, -0.11199291050434113, 0.004418288357555866, -0.057046785950660706, 0.03499867022037506, -0.0872371643781662, 0.20990346372127533, -0.007504734210669994, 0.22533965110778809], [0.2775554955005646, -0.14063991606235504, -0.2105911374092102, 0.23160463571548462, 0.2262098491191864, -0.2204171121120453, -0.022315537557005882, -0.2846701443195343, -0.2363092005252838, 0.05575544759631157, 0.07679757475852966, 0.06119365990161896], [-0.07856717705726624, 0.2663252353668213, 0.04127417877316475, -0.1703428030014038, -0.016342997550964355, 0.06932394951581955, 0.1010919138789177, -0.20411665737628937, 0.10819243639707565, -0.1474788337945938, -0.2398718148469925, -0.15767650306224823], [0.2784009873867035, 0.24677619338035583, 0.25850409269332886, 0.16945554316043854, 0.21807949244976044, -0.038639090955257416, -0.15883710980415344, 0.1442384272813797, -0.14958646893501282, -0.19481699168682098, -0.09218379110097885, 0.06058114767074585], [0.1486089825630188, -0.11212402582168579, -0.1699044555425644, 0.038940273225307465, -0.17015470564365387, -0.18794523179531097, 0.1504724621772766, -0.048492979258298874, 0.26378700137138367, 0.2808181345462799, 0.08634432405233383, 0.09934976696968079], [0.06647718697786331, 0.004520907066762447, -0.02099604904651642, 0.003967584576457739, 0.10779844224452972, 0.26840171217918396, -0.07481278479099274, -0.12202753126621246, -0.06990697234869003, -0.13946595788002014, 0.04908594489097595, 0.21548108756542206], [0.22573743760585785, 0.13253812491893768, -0.21244512498378754, -0.15493331849575043, -0.0634252205491066, -0.05320979654788971, 0.023742875084280968, -0.2649955451488495, 0.08984861522912979, -0.22022220492362976, -0.1826576441526413, -0.239999458193779], [0.2515283226966858, -0.27335798740386963, 0.2177669256925583, -0.009704363532364368, -0.033572569489479065, 0.18056008219718933, -0.026681553572416306, 0.18104378879070282, 0.20871643722057343, -0.250630646944046, 0.11107756942510605, 0.05449580028653145], [0.06206853315234184, 0.04214409738779068, 0.07896158844232559, -0.13887202739715576, -0.03693342208862305, 0.2742760181427002, 0.1939462423324585, -0.010845077224075794, -0.2715078890323639, 0.012651987373828888, -0.19658012688159943, 0.23474816977977753], [-0.17525102198123932, -0.020842809230089188, -0.06406933069229126, 0.05137084797024727, 0.2716512680053711, 0.02742968685925007, 0.16719025373458862, 0.22407588362693787, 0.2330506592988968, -0.0996943786740303, -0.06456411629915237, 0.13912343978881836], [-0.07877011597156525, 0.1351761668920517, -0.06306619197130203, -0.19579458236694336, 0.11750328540802002, 0.04425910860300064, 0.12870532274246216, 0.2867947220802307, 0.19708801805973053, 0.2736585736274719, 0.015450708568096161, -0.24832198023796082], [-0.20251347124576569, -0.1793174147605896, -0.2543944716453552, -0.14469769597053528, -0.26574501395225525, -0.2663360834121704, -0.1724991351366043, -0.28458571434020996, -0.17719238996505737, 0.11007433384656906, 0.24077029526233673, -0.08587011694908142], [-0.08396946638822556, 0.15413904190063477, -0.14242391288280487, -0.13649499416351318, 0.1778612732887268, -0.25152310729026794, 0.03529768064618111, 0.2550103962421417, 0.049503885209560394, 0.07850341498851776, -0.1681218445301056, -0.003982726018875837], [0.015872642397880554, 0.07085077464580536, 0.11216356605291367, 0.25083786249160767, -0.22034557163715363, 0.008653122000396252, -0.14423257112503052, -0.22836047410964966, -0.023116424679756165, -0.254102498292923, 0.2014661431312561, 0.03343285247683525], [-0.15558378398418427, 0.15085558593273163, -0.27321019768714905, -0.11165931075811386, -0.05623932182788849, -0.2453017681837082, -0.183565154671669, -0.04711715504527092, 0.21903647482395172, 0.2787603735923767, 0.18367312848567963, -0.17237484455108643], [-0.18885737657546997, 0.2519248127937317, 0.10210943222045898, 0.007669433485716581, 0.039067015051841736, -0.23200726509094238, -0.09638442099094391, 0.277883917093277, -0.07119658589363098, -0.014481129124760628, -0.2396959364414215, -0.1614869236946106], [-0.005894630216062069, -0.1793132871389389, -0.035798490047454834, 0.11747899651527405, -0.2823754549026489, 0.08574000000953674, -0.1908743530511856, -0.14088819921016693, 0.11082518100738525, 0.2295314371585846, -0.07889740914106369, -0.1185210794210434], [-0.2610304057598114, -0.14885754883289337, -0.25277459621429443, -0.06606922298669815, 0.05890572816133499, -0.27045270800590515, 0.2520461678504944, 0.181112140417099, -0.2825973331928253, -0.13788077235221863, 0.09415289014577866, -0.059311073273420334], [-0.03145879879593849, -0.13034135103225708, 0.23186950385570526, -0.16136889159679413, 0.23939158022403717, 0.018625972792506218, 0.05802999064326286, 0.22520464658737183, -0.04756373167037964, -0.16435526311397552, -0.04668864607810974, 0.23413094878196716], [-0.21419329941272736, 0.06552360951900482, -0.2837074398994446, 0.15135298669338226, 0.10665614902973175, 0.012237589806318283, 0.12389738857746124, 0.00032468436984345317, 0.1597391963005066, -0.22852115333080292, -0.04239266365766525, 0.1280605047941208], [0.2874675393104553, 0.14704863727092743, -0.20991715788841248, 0.22201913595199585, -0.06437405198812485, -0.0616363100707531, -0.26237961649894714, -0.04544159770011902, 0.20418764650821686, 0.04025425389409065, -0.1681399792432785, 0.08885769546031952], [-0.09256205707788467, 0.26355865597724915, -0.25055691599845886, -0.09118540585041046, -0.27873706817626953, -0.11368897557258606, 0.0910041555762291, 0.2778829038143158, 0.048481930047273636, 0.28300511837005615, 0.05647990480065346, 0.16672027111053467], [0.23141993582248688, 0.2413102686405182, -0.16157832741737366, 0.2654050290584564, 0.17486941814422607, -0.13497842848300934, -0.13775674998760223, -0.24212516844272614, 0.07249707728624344, -0.23398540914058685, 0.12194349616765976, 0.09116293489933014], [-0.25080159306526184, 0.07866422832012177, -0.023478103801608086, 0.13187192380428314, 0.1656387895345688, -0.28698495030403137, 0.2647436261177063, 0.24209508299827576, 0.11485911160707474, -0.2638378143310547, -0.10312075167894363, -0.08366061002016068], [-0.07418891787528992, 0.16279058158397675, 0.10495378077030182, 0.22868241369724274, -0.10811552405357361, 0.09715065360069275, 0.10270921140909195, -0.24034826457500458, -0.2800205945968628, -0.14979037642478943, 0.19761188328266144, -0.2717759907245636], [-0.251272588968277, 0.16171596944332123, 0.15574859082698822, 0.23740431666374207, -0.21793203055858612, -0.21128125488758087, 0.14808648824691772, 0.25104060769081116, 0.17272554337978363, 0.045221563428640366, 0.0951400175690651, 0.2739892899990082], [-0.18625444173812866, -0.13106191158294678, 0.20191870629787445, -0.19752296805381775, -0.15917909145355225, 0.21073026955127716, 0.09108337759971619, 0.09326228499412537, -0.12235218286514282, -0.003983861766755581, 0.2642049491405487, -0.1732686161994934], [0.002269624499604106, 0.1372937560081482, -0.19928868114948273, 0.2803546190261841, -0.1442251354455948, -0.06932129710912704, -0.07810690999031067, -0.18811771273612976, -0.28326669335365295, 0.16276992857456207, 0.07669351249933243, -0.2703733444213867]], "b": [-0.18579904735088348, 0.2853172719478607, 0.11034175008535385, 0.11582934856414795, -0.1727137714624405, -0.12655405700206757, -0.04357670247554779, -0.05279288440942764, -0.19781416654586792, 0.023782484233379364, 0.028690844774246216, -0.03655233606696129, 0.04001956060528755, -0.11441656947135925, 0.07512824237346649, 0.10887105762958527, -0.15205645561218262, -0.2862442135810852, 0.15110249817371368, 0.06885961443185806, -0.1468167006969452, 0.278196781873703, -0.130552738904953, 0.1950712949037552, 0.1464531272649765, -0.24202756583690643, 0.186178520321846, -0.26542896032333374, -0.1599302589893341, -0.048126447945833206, -0.19458046555519104, 0.2820095717906952, -0.05790235474705696, 0.11465879529714584, -0.2577614486217499, 0.1661805808544159, -0.08971554040908813, -0.21958687901496887, 0.04221092909574509, 0.13985206186771393, 0.2498186230659485, -0.1763206422328949, -0.14205826818943024, 0.05550151318311691, 0.07830636948347092, 0.1109875738620758, 0.15844662487506866, -0.06545815616846085, 0.16037914156913757, 0.21283774077892303, -0.07540816068649292, 0.20538000762462616, 0.14104075729846954, 0.25462669134140015, -0.1640465408563614, -0.14255037903785706, -0.08346721529960632, 0.014643419533967972, 0.17326252162456512, -0.16479384899139404, 0.14452634751796722, -0.1034557968378067, 0.17439132928848267, -0.013705500401556492]}, {"w": [[-0.1095108687877655, -0.06878073513507843, -0.09046900272369385, 0.061995312571525574, -0.08381852507591248, -0.01041477918624878, 0.02696947753429413, -0.06854933500289917, 0.03605875372886658, -0.12205292284488678, -0.0894385576248169, -0.11326542496681213, -0.037809669971466064, -0.04553717374801636, 0.017899170517921448, -0.023114308714866638, 0.058760255575180054, 0.11459942162036896, 0.044848889112472534, -0.049245938658714294, -0.11704820394515991, 0.0452752411365509, -0.06193223595619202, 0.0636095404624939, 0.08356061577796936, 0.04821506142616272, 0.11728884279727936, 0.11872455477714539, 0.02646748721599579, -0.09107959270477295, 0.11168016493320465, -0.05931197106838226, -0.05904419720172882, 0.10459733009338379, 0.09685128927230835, 0.03776891529560089, 0.007835477590560913, -0.10514573752880096, -0.012975513935089111, 0.11989079415798187, 0.03183235228061676, 0.010702252388000488, -0.025956377387046814, -0.043597787618637085, 0.0745028406381607, 0.007708564400672913, 0.08132177591323853, -0.022124826908111572, 0.05461364984512329, 0.05159623920917511, 0.01993301510810852, 0.07854662835597992, 0.07833074033260345, 0.11586540937423706, 0.09609699249267578, -0.0319620817899704, -0.10582752525806427, 0.022852182388305664, -0.0010910332202911377, -0.032603174448013306, -0.02093183994293213, 0.005879104137420654, 0.0912037342786789, 0.03896765410900116], [-0.044386789202690125, -0.051403120160102844, -0.030953913927078247, -0.048312872648239136, 0.11240285634994507, 0.06620566546916962, 0.11287195980548859, 0.0003992021083831787, 0.025208860635757446, 0.04334558546543121, -0.11831913888454437, 0.01116207242012024, -0.008361250162124634, -0.07008175551891327, -0.09699341654777527, 0.11065930128097534, 0.10163325071334839, 0.05793358385562897, 0.11928121745586395, -0.05072598159313202, -0.02159033715724945, 0.047327324748039246, -0.020653322339057922, -0.0245293527841568, -0.1033201813697815, 0.0335826575756073, -0.07554090023040771, 0.004545778036117554, 0.1218719482421875, -0.038476914167404175, -0.03939896821975708, 0.07541410624980927, -0.04595665633678436, -0.0107346773147583, 0.11671730875968933, -0.05124671757221222, -0.08942627906799316, -0.06995546817779541, -0.03465570509433746, -0.05931234359741211, -0.06486646831035614, 0.050493061542510986, 0.021242216229438782, -0.04000769555568695, -0.09711392223834991, -0.03935748338699341, -0.05275489389896393, -0.04067736864089966, -0.112765371799469, 0.026928633451461792, -0.09184044599533081, -0.09734989702701569, -0.10212914645671844, 0.052172958850860596, -0.07525333762168884, -0.051593855023384094, 0.0979800820350647, 0.06637053191661835, 0.07167389988899231, -0.11868831515312195, -0.08963747322559357, -0.04718887805938721, 0.10326220095157623, 0.012787550687789917], [-0.09348714351654053, 0.0007827281951904297, -0.09708385169506073, -0.027387410402297974, -0.03437188267707825, 0.10820770263671875, 0.03871709108352661, -0.021796390414237976, 0.021116092801094055, -0.03608319163322449, 0.04911254346370697, 0.04944548010826111, 0.03356826305389404, -0.04872211813926697, 0.10664384067058563, -0.018046244978904724, -0.04866458475589752, 0.07828925549983978, 0.10188208520412445, 0.1243949681520462, 0.037032291293144226, -0.042611733078956604, 0.0634865015745163, 0.10724431276321411, -0.12260426580905914, -0.015485867857933044, -0.08524568378925323, 0.023294970393180847, 0.05169810354709625, -0.02582348883152008, -0.010457143187522888, 0.05626384913921356, -0.02100871503353119, -0.10497243702411652, 0.1000169962644577, -0.06291431188583374, -0.013732314109802246, 0.011790797114372253, -0.007512107491493225, -0.11758574843406677, 0.05734999477863312, -0.056778937578201294, -0.06483244895935059, 0.02986443042755127, -0.06523275375366211, -0.057769954204559326, -0.04211874306201935, -0.04695969820022583, -0.0522046834230423, -0.03371073305606842, 0.032484471797943115, -0.10115224123001099, -0.07566003501415253, 0.0018239319324493408, 0.01738351583480835, 0.0690365582704544, -0.08780549466609955, 0.039899617433547974, 0.07104872167110443, 0.06940752267837524, -0.11642768979072571, -0.04770052433013916, -0.10744570195674896, -0.07910142838954926], [0.06962285935878754, -0.018664881587028503, 0.05308891832828522, -0.07337579131126404, 0.01899498701095581, -0.07560724020004272, 0.062486499547958374, -0.054672375321388245, -0.03134489059448242, -0.1084539145231247, 0.00041294097900390625, 0.11868502199649811, 0.06067226827144623, -0.06669262051582336, 0.0016810894012451172, -0.013706058263778687, -0.10063427686691284, 0.09801138937473297, 0.0020150840282440186, 0.02632462978363037, -0.05047862231731415, -0.05848988890647888, 0.020611196756362915, 0.04621386528015137, 0.02803725004196167, -0.06024312973022461, 0.12136222422122955, -0.01840054988861084, -0.0765518844127655, -0.05846408009529114, 0.12305259704589844, 6.020069122314453e-06, -0.016968026757240295, -0.05202022194862366, -0.03276817500591278, -0.10527856647968292, -0.0993354320526123, 0.07316118478775024, 0.1069311797618866, 0.11928755044937134, -0.09024278819561005, 0.06760790944099426, -0.07737082242965698, 0.07457002997398376, 0.09019428491592407, 0.09673386812210083, 0.09000641107559204, 0.07819665968418121, 0.0024329572916030884, 0.057435303926467896, -0.044721364974975586, 0.05442935228347778, -0.040175244212150574, -0.0020989179611206055, -0.1087973564863205, -0.032684326171875, -0.06573411822319031, -0.04216510057449341, -0.0798233151435852, -0.11243052780628204, 0.008139565587043762, 0.08112239837646484, 0.11384367942810059, 0.0729442685842514], [-0.06479217112064362, -0.1236262172460556, 0.047414228320121765, 0.07003924250602722, -0.10731400549411774, 0.044823259115219116, 0.10568465292453766, 0.007572069764137268, -0.07530735433101654, 0.10248453915119171, 0.05337698757648468, 0.08277514576911926, -0.08453568816184998, 0.07274319231510162, -0.08538420498371124, 0.1236867904663086, -0.052962467074394226, 0.07532088458538055, 0.025030195713043213, 0.033126309514045715, -0.01916937530040741, 0.05134192109107971, -0.05209648609161377, -0.11782240867614746, -0.04802538454532623, 0.09794232249259949, -0.03290870785713196, 0.03928980231285095, -0.04621580243110657, 0.0937686562538147, 0.07481127977371216, 0.04412670433521271, -0.06389521062374115, -0.10214123129844666, 0.00470617413520813, -0.07333222031593323, 0.10277421772480011, -0.12012197077274323, 0.055858537554740906, 0.12461425364017487, 0.06260354816913605, 0.042622342705726624, -0.1202683299779892, 0.12023665010929108, -0.021380946040153503, -0.11680105328559875, 0.12339535355567932, -0.05086633563041687, -0.008843451738357544, 0.11440993845462799, -0.08665008842945099, -0.08843624591827393, 0.020327165722846985, -0.016731739044189453, 0.028792724013328552, -0.10483816266059875, 0.0037383288145065308, -0.05559496581554413, -0.061451107263565063, -0.11445461213588715, 0.06627729535102844, 0.024079561233520508, -0.10568040609359741, 0.0991939902305603], [0.03770260512828827, 0.023195400834083557, -0.07339204847812653, 0.01885056495666504, 0.12044252455234528, 0.08573555946350098, -0.09735877811908722, 0.11410264670848846, 0.009688720107078552, 0.06012064218521118, 0.09708453714847565, 0.10656364262104034, -0.09744185209274292, 0.10945798456668854, -0.08489686250686646, 0.009370759129524231, -0.08734545111656189, -0.02740415930747986, -0.00568033754825592, -0.014954417943954468, -0.019746989011764526, 0.009858816862106323, 0.12330234050750732, 0.07262644171714783, 0.06993374228477478, 0.05003093183040619, 0.09677264094352722, -0.005768626928329468, 0.009939029812812805, 0.025724634528160095, -0.1090163141489029, -0.10069461166858673, 0.015325173735618591, -0.04890628159046173, -0.002293720841407776, -0.028682351112365723, 0.019457846879959106, 0.08132694661617279, -0.041455239057540894, 0.1001075804233551, 0.09869521856307983, -0.09593726694583893, -0.09652827680110931, -0.10113435983657837, -0.0685025304555893, -0.04865953326225281, -0.009408682584762573, -0.030399024486541748, -0.06315606832504272, -0.03971169888973236, -0.04521806538105011, 0.12262977659702301, -0.046328604221343994, -0.08950011432170868, 0.051962196826934814, -0.0072201937437057495, 0.09569549560546875, 0.07810407876968384, 0.11484110355377197, -0.09154494106769562, 0.08035792410373688, 0.10490484535694122, -0.06172893941402435, 0.11489748954772949], [0.09370537102222443, 0.001368895173072815, 0.060269057750701904, -0.04370269179344177, -0.10902297496795654, 0.03159750998020172, 0.037265658378601074, -0.08169487118721008, 0.06062495708465576, -0.10677783191204071, 0.10757800936698914, 0.12104879319667816, 0.03403230011463165, -0.07842859625816345, 0.060833901166915894, 0.02130196988582611, 0.03398984670639038, 0.04108166694641113, 0.09516943991184235, -0.05372948944568634, -0.028118133544921875, 0.03408823907375336, 0.013620138168334961, 0.10079720616340637, -0.06565481424331665, -0.004552081227302551, 0.023356646299362183, -0.03319862484931946, 0.08521458506584167, 0.013672694563865662, -0.11552874743938446, -0.01354198157787323, -0.05669461190700531, 0.012146398425102234, -0.014526993036270142, -0.12399177253246307, -0.022778168320655823, -0.011972412467002869, -0.03685981035232544, 0.11484755575656891, -0.02727489173412323, 0.0803021490573883, 0.030964717268943787, -0.10551664233207703, 0.029373258352279663, 0.10359194874763489, -0.08176258206367493, -0.08079686760902405, 0.12235613167285919, 0.10043874382972717, -0.06973674893379211, 0.07521812617778778, -0.015991508960723877, -0.12324117124080658, 0.009391680359840393, 0.04038675129413605, -0.03749510645866394, 0.043485432863235474, -0.10688760876655579, 0.08662699162960052, 0.10656678676605225, 0.06893333792686462, 0.021186411380767822, 0.041168615221977234], [-0.09044347703456879, -0.031234174966812134, -0.011933445930480957, -0.06956076622009277, -0.09232750535011292, 0.08407719433307648, 0.08483065664768219, -0.11352352797985077, 0.03977648913860321, 0.0508502721786499, 0.11874604225158691, 0.07231920957565308, 0.1149170845746994, -0.04092371463775635, 0.08754830062389374, 0.10167516767978668, -0.1180410087108612, -0.10033833980560303, 0.025300681591033936, 0.06825472414493561, -0.06210163235664368, 0.013766810297966003, -0.00018146634101867676, 0.031638458371162415, -0.0671686977148056, 0.07050487399101257, 0.08312617242336273, -0.08673228323459625, 0.001210927963256836, 0.0003468245267868042, 0.040139466524124146, 0.1164480596780777, 0.03665792942047119, -0.028402745723724365, 0.11226661503314972, -0.04756660759449005, -0.03629647195339203, 0.008534416556358337, -0.09518860280513763, 0.01360216736793518, -0.08480943739414215, 0.012852579355239868, 0.01197594404220581, 0.017302587628364563, -0.10541194677352905, -0.11872303485870361, 0.05751466751098633, 0.10719949007034302, -0.11092154681682587, 0.0462992787361145, -0.09201519191265106, 0.007836416363716125, 0.11629471182823181, 0.09482739865779877, -0.09139247238636017, 0.07732148468494415, 0.06528964638710022, -0.0001917332410812378, 0.1210908442735672, -0.04964689910411835, -0.02908948063850403, -0.06317676603794098, 0.017987102270126343, 0.03309834003448486], [0.009960025548934937, -0.07032963633537292, -0.05627080798149109, 0.042519062757492065, -0.10960330069065094, -0.019466817378997803, -0.0027689486742019653, -0.050645485520362854, 0.045489758253097534, 0.00805671513080597, 0.08775807917118073, -0.011101439595222473, -0.0788923054933548, 0.08831897377967834, 0.01745609939098358, -0.035799771547317505, -0.08238784968852997, 0.02929861843585968, -0.11921906471252441, 0.03292222321033478, 0.061805590987205505, -0.10965006053447723, -0.08183404803276062, -0.08986572921276093, 0.10506331920623779, 0.10626508295536041, 0.007825106382369995, 0.11735072731971741, -0.041787996888160706, -0.12135277688503265, 0.04366186261177063, 0.04428356885910034, 0.12254779040813446, -3.618001937866211e-05, 0.095799520611763, 0.07662047445774078, 0.09047110378742218, -0.12404151260852814, 0.10293224453926086, -0.10655660927295685, 0.11206388473510742, -0.005180075764656067, -0.11077713966369629, 0.034761592745780945, -0.025443345308303833, -0.112274169921875, -0.04531727731227875, 0.012888148427009583, 0.09735582768917084, -0.03842870891094208, 0.07424598932266235, 0.015653565526008606, 0.004213482141494751, 0.023918122053146362, -0.08203358948230743, -0.10389977693557739, -0.039276450872421265, -0.11648175120353699, -0.058293819427490234, 0.005750730633735657, -0.08232615888118744, -0.051849499344825745, -0.022460803389549255, -0.0144004225730896], [-0.06900182366371155, 0.006006374955177307, -0.017545059323310852, 0.03574945032596588, 0.005645930767059326, -0.06242121756076813, -0.043035492300987244, -0.0014407187700271606, -0.07799816131591797, 0.009785622358322144, -0.008825719356536865, 0.04849731922149658, 0.029583215713500977, 0.09354794025421143, -0.004120677709579468, -0.0923631489276886, 0.055876120924949646, -0.08447973430156708, -0.01718154549598694, -0.04047533869743347, -0.04743055999279022, -0.04624798893928528, 0.11486506462097168, 0.07155710458755493, 0.03464217483997345, 0.11736957728862762, -0.11327774822711945, 0.020170941948890686, 0.08002205193042755, 0.08303624391555786, -0.09948171675205231, 0.04448619484901428, -0.07121074199676514, -0.0048842281103134155, -0.02608378231525421, -0.10437056422233582, -0.11923930048942566, -0.08223724365234375, 0.056721314787864685, 0.05717943608760834, -0.10872046649456024, -0.04694278538227081, 0.0020418018102645874, -0.10807281732559204, 0.07043181359767914, 0.11321654915809631, 0.022107720375061035, -0.0928768515586853, 0.029148295521736145, 0.04537670314311981, 0.0989803820848465, -0.06650874018669128, -0.11198872327804565, 0.05491882562637329, 0.007782042026519775, -0.04072830080986023, -0.052377790212631226, -0.06445197761058807, 0.10118712484836578, -0.021567389369010925, 0.0901508778333664, 0.11158120632171631, 0.015834510326385498, 0.026627197861671448], [-0.008513092994689941, 0.08585192263126373, -0.11263598501682281, 0.04971037805080414, -0.02036610245704651, 0.057077035307884216, -0.00055675208568573, -0.046283259987831116, -0.013493746519088745, 0.06749910116195679, -0.08681623637676239, -0.07901239395141602, -0.027999550104141235, -0.04534056782722473, 0.049104899168014526, 0.0841212272644043, -0.013387322425842285, 0.11819672584533691, -0.05222749710083008, -0.07014492154121399, -0.05596175789833069, -0.08612154424190521, -0.08761672675609589, -0.11137694120407104, -0.11078490316867828, 0.032624825835227966, 0.07623174786567688, 0.11735591292381287, 0.10647466778755188, -0.007199212908744812, 0.024255827069282532, -0.07478997111320496, 0.0483151376247406, -0.119855135679245, 0.05895911157131195, 0.022926941514015198, 0.03841303288936615, 0.04576854407787323, -0.057388097047805786, 0.10726329684257507, 0.05965656042098999, 0.08211183547973633, 0.01650981605052948, 0.07849831879138947, 0.08412513136863708, 0.05665436387062073, 0.09522108733654022, -0.02267223596572876, 0.08219201862812042, 0.028799891471862793, 0.07521200180053711, 0.12174981832504272, 0.028304636478424072, -0.04639586806297302, -0.012437015771865845, 0.03519105911254883, 0.021076157689094543, -0.0341462641954422, 0.09793980419635773, 0.07510091364383698, -0.0776442140340805, -0.010185182094573975, -0.0119992196559906, -0.07834134995937347], [0.018231868743896484, -0.03837411105632782, -0.06453268229961395, -0.040193378925323486, -0.04456856846809387, 0.11958000063896179, 0.047946497797966, 0.12301415205001831, 0.03427444398403168, 0.028303906321525574, 0.051386699080467224, 0.021454066038131714, -0.09809643030166626, -0.07391919195652008, -0.0302848219871521, 0.0018791556358337402, 0.04708930850028992, 0.04813103377819061, 0.09916417300701141, 0.025446593761444092, -0.042661651968955994, -0.09400328993797302, -0.09155133366584778, -0.07466718554496765, 0.03770044445991516, 0.06753401458263397, 0.10936407744884491, -0.03953896462917328, -0.009860366582870483, -0.037120431661605835, -0.00045675039291381836, 0.040125176310539246, -0.0027464330196380615, 0.0057868510484695435, 0.015835896134376526, 0.04655228555202484, -0.03792516887187958, -0.07453720271587372, 0.029490575194358826, -0.014800697565078735, -0.05662849545478821, 0.05249537527561188, 0.0011336356401443481, -0.018183082342147827, -0.06051047146320343, -0.016445741057395935, -0.10629063844680786, 0.028436288237571716, 0.0018758326768875122, 0.07585455477237701, 0.008071303367614746, 0.009994029998779297, 0.03405162692070007, 0.09511719644069672, -0.05906970798969269, 0.0746256411075592, 0.030570194125175476, -0.08338959515094757, 0.043523356318473816, -0.0749666839838028, -0.03934760391712189, -0.05958360433578491, -0.08503927290439606, 0.09844642877578735], [-0.11172761023044586, 0.06250187754631042, -0.11250148713588715, -0.015213251113891602, 0.00745527446269989, 0.08886381983757019, -0.04523669183254242, 0.03597843647003174, 0.019363239407539368, 0.07354810833930969, 0.007431447505950928, 0.046805575489997864, -0.07551135122776031, -0.08686387538909912, 0.11138470470905304, -0.09108337759971619, -0.021279960870742798, -0.015110015869140625, 0.1222350150346756, -0.027014195919036865, -0.09516304731369019, -0.03168736398220062, 0.06447763741016388, 0.04953627288341522, 0.10341151058673859, -0.02558961510658264, 0.05888068675994873, -0.1176300048828125, 0.048367470502853394, 0.05743296444416046, 0.08063587546348572, -0.07168027758598328, -0.03337229788303375, 0.0302412211894989, -0.08882683515548706, -0.09943512082099915, -0.12025535106658936, 0.006977856159210205, 0.07762348651885986, 0.03210748732089996, 0.007620617747306824, 0.04355323314666748, -0.07855051755905151, 0.013178244233131409, -0.03105294704437256, -0.061892956495285034, 0.10779663920402527, -0.0967065840959549, 0.018318533897399902, -0.10983906686306, -0.004240840673446655, -0.05554525554180145, 0.04114343225955963, -0.07019224762916565, 0.08000494539737701, -0.10143336653709412, 0.07507945597171783, -0.09389743208885193, 0.06694817543029785, -0.05263330042362213, -0.0002911984920501709, -0.02281293272972107, 0.08112876117229462, 0.04096594452857971], [-0.110150545835495, 0.011492565274238586, -0.08623279631137848, 0.09344518184661865, 0.020537465810775757, -0.0321476012468338, -0.06377117335796356, 0.043266117572784424, -0.07486213743686676, 0.059282779693603516, 0.06820940971374512, 0.07672542333602905, 0.03265473246574402, -0.10942110419273376, 0.08991463482379913, -0.03877793252468109, -0.036954477429389954, -0.01342986524105072, 0.09139186143875122, 0.0961158275604248, 0.019301503896713257, 0.05964398384094238, -0.11649961769580841, 0.00029528141021728516, -0.11058545112609863, 0.042543694376945496, -0.08905617892742157, -0.0445505827665329, 0.08737890422344208, 0.11946198344230652, -0.0750475525856018, -0.06937636435031891, 0.015480756759643555, 0.049138158559799194, -0.020359039306640625, -0.03903628885746002, -0.08210545778274536, 0.053359463810920715, 0.12247022986412048, -0.06050989031791687, 0.058957964181900024, 0.06104932725429535, 0.10047462582588196, -0.01423172652721405, 0.003937229514122009, 0.09183736145496368, 0.07901424169540405, 0.12346339225769043, -0.03582125902175903, 0.04946082830429077, 0.08728452026844025, -0.08485199511051178, 0.024832352995872498, -0.02796909213066101, 0.0803530365228653, -0.056140899658203125, 0.008767321705818176, 0.07478883862495422, -0.11451461911201477, -0.10554526746273041, -0.06402300298213959, 0.08017714321613312, 0.08381597697734833, -0.08537125587463379], [0.023835912346839905, -0.06623511016368866, -0.058019086718559265, 0.10780218243598938, 0.060376137495040894, -0.034185364842414856, 0.018400192260742188, 0.024219617247581482, 0.029280126094818115, -0.04278483986854553, -0.07361069321632385, 0.08275797963142395, 0.016796573996543884, 0.05231870710849762, -0.04734121263027191, 0.06054618954658508, 0.0909707099199295, 0.07602168619632721, 0.03398697078227997, 0.1229853630065918, -0.0002733767032623291, 0.026612132787704468, 0.11876623332500458, 0.12148712575435638, -0.05277751386165619, 0.1126004159450531, 0.04613250494003296, -0.013992205262184143, 0.10914325714111328, -0.06475365161895752, 0.08121857047080994, 0.12386801838874817, -0.08621276915073395, -0.07376161217689514, -0.12386426329612732, -0.022495299577713013, -0.11352545022964478, -0.04186524450778961, 0.037949398159980774, 0.08835971355438232, 0.06962940096855164, 0.0693851113319397, 0.051857978105545044, -0.07752916216850281, -0.09924936294555664, 0.00518171489238739, 0.11869785189628601, 0.007038220763206482, -0.010751232504844666, -0.08484217524528503, -0.061979785561561584, -0.09635795652866364, 0.10008354485034943, -0.020366206765174866, -0.11042608320713043, 0.013409331440925598, 0.009071022272109985, -0.015443578362464905, 0.044745489954948425, 0.06722240149974823, -0.11755126714706421, -0.09576146304607391, -0.006004989147186279, -0.11589221656322479], [-0.11354497075080872, 0.11036381125450134, -0.009507432579994202, -0.06179879605770111, -0.04287710785865784, -0.09759031236171722, 0.09754571318626404, -0.027104854583740234, -0.07027974724769592, -0.09480160474777222, 0.0730612576007843, -0.017278924584388733, -0.013132154941558838, -0.03257915377616882, -0.060340359807014465, 0.022236287593841553, 0.0961713045835495, -0.0724475234746933, 0.005989089608192444, -0.09506416320800781, -0.05861213803291321, 0.10972124338150024, 0.0013106316328048706, 0.12041488289833069, -0.021900519728660583, -0.06813052296638489, -0.07468603551387787, 0.11078932881355286, -0.09612336754798889, 0.06559929251670837, 0.03107278048992157, 0.03688840568065643, 0.0705299973487854, -0.032702863216400146, 0.07734544575214386, -0.09959031641483307, -0.04398016631603241, 0.09150516986846924, 0.037097468972206116, -0.01664656400680542, -0.029191330075263977, -0.07632681727409363, 0.07601146399974823, -0.003975018858909607, -0.004229232668876648, 0.029561683535575867, 0.09224353730678558, -0.06377291679382324, -0.04304967820644379, 0.08470387756824493, 0.07059656083583832, -0.06149205565452576, -0.12365750968456268, 0.023188918828964233, 0.06573675572872162, 0.029857143759727478, 0.08866429328918457, -0.09918425977230072, 0.0630357563495636, -0.07770991325378418, 0.07035084068775177, 0.0929642915725708, 0.03958950936794281, 0.10113431513309479], [-0.08239394426345825, -0.11179697513580322, -0.1201881468296051, 0.07847893238067627, 0.04378874599933624, -0.0915333479642868, 0.06053510308265686, 0.11405153572559357, -0.12326045334339142, 0.09067763388156891, 0.019171610474586487, 0.011627614498138428, 0.11247414350509644, 0.11319877207279205, 0.05266889929771423, 0.09876686334609985, 0.052003055810928345, 0.02036769688129425, -0.10987637937068939, 0.02334783971309662, -0.08893078565597534, 0.03848327696323395, 0.022054240107536316, 0.002808213233947754, -0.08546583354473114, -0.0757746547460556, 0.0923922061920166, 0.06087738275527954, 0.06590497493743896, -0.037247106432914734, -0.02152453362941742, -0.03203471004962921, 0.08596166968345642, -0.053960978984832764, 0.07873310148715973, 0.0861867219209671, -0.11431950330734253, 0.00076332688331604, -0.02380669116973877, -0.06910279393196106, 0.05396468937397003, -0.015186876058578491, 0.10943852365016937, -0.07823799550533295, 0.05807892978191376, -0.1067240834236145, -0.06265270709991455, 0.008526623249053955, 0.098761647939682, 0.06583990156650543, -0.10263568162918091, 0.013845682144165039, -0.07368622720241547, 0.005416214466094971, -0.10413415729999542, -0.03667168319225311, 0.0857333093881607, -0.11469201743602753, -0.11917783319950104, 0.022768035531044006, 0.01713554561138153, -0.02286069095134735, 0.10915151238441467, -0.07526111602783203], [-0.07588502764701843, -0.09343451261520386, -0.02326531708240509, -0.031900614500045776, 0.07734335958957672, -0.007018625736236572, 0.03991919755935669, -0.051944583654403687, 0.10139904916286469, 0.10537734627723694, -0.11194612085819244, -0.03212495148181915, -0.10606217384338379, 0.053103357553482056, -0.10921040177345276, -0.05910147726535797, 0.12489655613899231, -0.1193649023771286, 0.0922255665063858, 0.010559886693954468, 0.09995433688163757, -0.06343616545200348, 0.08210356533527374, 0.015081718564033508, 0.009614050388336182, 0.08531652390956879, -0.11881589889526367, -0.10068140923976898, 0.12072043120861053, -0.07506206631660461, -0.090100958943367, -0.006111830472946167, -0.04001280665397644, -0.017101481556892395, -0.08374819159507751, 0.04510235786437988, -0.10756020247936249, 0.010124117136001587, 0.07294243574142456, 0.024017006158828735, 0.01660872995853424, 0.01828300952911377, -0.03661881387233734, -0.023812279105186462, -0.052711665630340576, -0.08444106578826904, -0.06618201732635498, 0.12357006967067719, -0.0209195613861084, 0.04378700256347656, 0.08644425868988037, -0.00976473093032837, -0.06724676489830017, -0.08469237387180328, -0.04605041444301605, 0.04461705684661865, -0.10526981949806213, -0.015262097120285034, 0.0475483238697052, 0.10198189318180084, 0.0376163125038147, 0.02472083270549774, 0.08557383716106415, 0.05776098370552063], [0.042289212346076965, -0.03875581920146942, -0.10023735463619232, -0.027000263333320618, -0.022670477628707886, 0.009179651737213135, -0.013747528195381165, 0.05053606629371643, 0.08306875824928284, -0.05067753791809082, -0.11860758066177368, -0.0641324520111084, -0.059809550642967224, 0.0708550214767456, -0.08063045144081116, -0.011757135391235352, -0.026492387056350708, -0.07586653530597687, 0.05666060745716095, -0.052069440484046936, -0.006466522812843323, -0.08788558840751648, -0.012607470154762268, 0.01776072382926941, -0.0050866007804870605, -0.04670596122741699, 0.03713545203208923, -0.03238719701766968, -0.0692998617887497, -0.092179074883461, -0.026478692889213562, -0.11808480322360992, 0.1037524938583374, -0.05971597135066986, -0.05180227756500244, 0.011554881930351257, 0.032404154539108276, -0.011786550283432007, 0.08575285971164703, -0.0728687047958374, 0.04479759931564331, -0.0002819150686264038, -0.10168388485908508, -0.048411861062049866, 0.03181089460849762, 0.023880228400230408, 0.09089192748069763, 0.08362412452697754, -0.06817784905433655, -0.05337868630886078, -0.02650517225265503, -0.08955256640911102, -0.03374873101711273, -0.1022891104221344, 0.047542765736579895, 0.08844491839408875, 0.009897053241729736, -0.08948507905006409, -0.09466350078582764, -0.048662394285202026, 0.03635667264461517, 0.003049001097679138, 0.022727742791175842, 0.11781015992164612], [0.05805525183677673, 0.02687782049179077, -0.02529023587703705, 0.059131115674972534, 0.045730069279670715, -0.11251278221607208, -0.07383862137794495, 0.004195719957351685, 0.04743029177188873, 0.06081286072731018, -0.07440982758998871, -0.12401428818702698, -0.0065114498138427734, -0.01428966224193573, 0.03627249598503113, -0.03437580168247223, 0.09556534886360168, 0.008340522646903992, 0.09128086268901825, -0.0870392918586731, 0.0500044971704483, 0.0148945152759552, -0.06251853704452515, 0.061968475580215454, -0.12300242483615875, 0.10105837881565094, 0.01007351279258728, 0.012069076299667358, 0.05780570209026337, 0.010376542806625366, 0.053581446409225464, 0.07952676713466644, -0.09755730628967285, 0.08269505202770233, -0.01871734857559204, -0.029068633913993835, 0.02516019344329834, 0.09776896238327026, -0.06795190274715424, -0.08424139022827148, 0.07757590711116791, -0.05870848894119263, 0.040243759751319885, -0.01841576397418976, 0.034406617283821106, 0.09538938105106354, -0.06334987282752991, -0.06065794825553894, 0.06132759153842926, 0.006844058632850647, -0.013757273554801941, -0.10979852080345154, 0.10590729117393494, -0.004733860492706299, -0.02302342653274536, -0.05131123960018158, -0.024667277932167053, 0.060754284262657166, -0.0028729140758514404, 0.10690107941627502, -0.007216840982437134, -0.017932221293449402, 0.07055644690990448, -0.0032344460487365723], [-0.024949118494987488, 0.0417783260345459, 0.09857887029647827, 0.03119368851184845, 0.0870397686958313, 0.0810047835111618, 0.03534972667694092, 0.04346106946468353, 0.0403355211019516, 0.012965843081474304, 0.10634204745292664, 0.11539256572723389, 0.04449857771396637, -0.006242319941520691, 0.11207425594329834, -0.09729006886482239, 0.0918479859828949, 0.06622819602489471, 0.08026701211929321, -0.009604454040527344, -0.09326224029064178, 0.08916735649108887, -0.05465695261955261, 0.03288906812667847, 0.07081814110279083, -0.11681570112705231, 0.008295491337776184, -0.04440329968929291, 0.08871941268444061, -0.07958768308162689, 0.07589621841907501, 0.0779462456703186, 0.06896436214447021, 0.12000153958797455, 0.01893138885498047, -0.11329764127731323, 0.08923311531543732, 0.011443346738815308, 0.002480626106262207, -0.11907365918159485, -0.02809453010559082, -0.06067097187042236, 0.12242637574672699, 0.08900360763072968, 0.09324853122234344, 0.08560457825660706, -0.07748423516750336, -0.053683698177337646, -0.04891878366470337, -0.05011028051376343, 0.09730401635169983, 0.04247085750102997, 0.10016925632953644, -0.005847364664077759, -0.1114283949136734, -0.036265403032302856, 0.08784933388233185, 0.07610069215297699, 0.03869643807411194, -0.036665961146354675, -0.11667138338088989, -0.06716583669185638, 0.06517255306243896, -0.05041971802711487], [0.059792324900627136, 0.03413014113903046, -0.04801091551780701, 0.07613478600978851, -0.040166571736335754, -0.004152834415435791, -0.04761412739753723, -0.1185714453458786, 0.02015477418899536, 0.03612115979194641, -0.06293517351150513, 0.07668085396289825, -0.11213193833827972, -0.12049707770347595, -0.07720611989498138, -0.04320061206817627, -0.013882264494895935, -0.02415597438812256, 0.05704855918884277, -0.1097031682729721, 0.018405944108963013, 0.002164706587791443, 0.033016279339790344, 0.12426000833511353, 0.07693105936050415, -0.06921307742595673, -0.10243156552314758, -0.030262619256973267, -0.06270337104797363, 0.0436631441116333, 0.001145869493484497, 0.10054044425487518, 0.04910077154636383, -0.022983789443969727, 0.004296243190765381, 0.029935747385025024, -0.015510901808738708, 0.10086682438850403, -0.09773753583431244, 0.06092573702335358, -0.07968048751354218, -0.10951018333435059, -0.025662079453468323, 0.06091311573982239, 0.08832024037837982, 0.03136780858039856, -0.010803624987602234, -0.007007420063018799, -0.05067266523838043, -0.011217176914215088, -0.00863674283027649, 0.10637032985687256, 0.07315552234649658, -0.10002799332141876, 0.0005170851945877075, -0.07688373327255249, -0.019842609763145447, -0.09934601187705994, 0.03249514102935791, -0.09013475477695465, 0.12340262532234192, 0.0944003164768219, -0.08604486286640167, -0.11768299341201782], [0.004877209663391113, -0.034893959760665894, 0.03669583797454834, -0.08461426198482513, 0.051167652010917664, -0.10796867311000824, -0.0659712553024292, -0.06571272015571594, 0.06048642098903656, -0.0032726526260375977, -0.1201285719871521, -0.07139000296592712, -0.05784711241722107, -0.11597870290279388, 0.016005858778953552, 0.04454223811626434, -0.022934705018997192, -0.04974310100078583, -0.0007580667734146118, -0.09928521513938904, -0.07611268758773804, -0.0028507858514785767, 0.11104716360569, -0.03843854367733002, 0.06195743381977081, -0.04919379949569702, -0.03327472507953644, -0.11899305880069733, 0.10356062650680542, 0.12171594798564911, -0.002625405788421631, 0.07942122220993042, 0.10224270820617676, 0.062089696526527405, 0.06437741219997406, -0.11899882555007935, -0.11745883524417877, -0.09594254195690155, 0.03909820318222046, -0.1081220805644989, -0.09541808068752289, -0.06058785319328308, -0.11521066725254059, 0.00016842782497406006, 0.018033519387245178, -0.07315005362033844, 0.08184567093849182, -0.04745560884475708, -0.0351908802986145, 0.09523439407348633, 0.1073189526796341, -0.014340057969093323, -0.0897347629070282, -0.06270863115787506, 0.015917405486106873, 0.07327406108379364, 0.062230587005615234, -0.05519780516624451, -0.118170827627182, -0.10939337313175201, -0.039769530296325684, 0.0015680193901062012, -0.05614694952964783, -0.09883815050125122], [0.013173460960388184, -0.09921759366989136, -0.09599052369594574, -0.10161824524402618, -0.03387168049812317, 0.1104072630405426, 0.04886491596698761, -0.0148211270570755, 0.025726407766342163, 0.04977613687515259, 0.0007282793521881104, -0.10082179307937622, -0.07701407372951508, -0.08491909503936768, -0.003174036741256714, -0.11442521214485168, -0.022727638483047485, -0.045708999037742615, 0.12267126142978668, 0.10160301625728607, 0.07260671257972717, 0.007010281085968018, -0.040471598505973816, 0.031883805990219116, -0.086366206407547, -0.0533130019903183, -0.025110676884651184, -0.02936933934688568, -0.11841277778148651, 0.04969137907028198, 0.10293525457382202, -0.06894667446613312, 0.03369578719139099, -0.014496788382530212, -0.004559054970741272, 0.007286250591278076, 0.10832281410694122, 0.016748815774917603, -0.07908463478088379, -0.04496419429779053, 0.0610659122467041, 0.03900681436061859, 0.002429455518722534, -0.016497120261192322, -0.0486346036195755, -0.04436589777469635, -0.06593574583530426, 0.02048271894454956, 0.03510525822639465, 0.0957181304693222, -0.0282391756772995, 0.008948594331741333, 0.08078618347644806, 0.05437383055686951, 0.0160609632730484, 0.03840982913970947, 0.006488308310508728, -0.10722397267818451, 0.0048188865184783936, -0.02732236683368683, 0.11280147731304169, 0.11282846331596375, 0.02479882538318634, 0.11172538995742798], [-0.06437736749649048, 0.1086467057466507, 0.1076231449842453, -0.004777625203132629, -0.10031367838382721, -0.04033704102039337, -0.03342841565608978, 0.002064749598503113, -0.11333140730857849, 0.023165687918663025, -0.0519864559173584, -0.03200514614582062, -0.06456153094768524, -0.02639174461364746, -0.11609064042568207, -0.06627099215984344, 0.011515617370605469, 0.08190949261188507, 0.11359347403049469, -0.09455694258213043, 0.05249014496803284, -0.07046197354793549, -0.09664462506771088, -0.005504414439201355, -0.07170583307743073, -0.10765579342842102, -0.11681705713272095, -0.0836685448884964, 0.10271696746349335, 0.06971350312232971, -0.04948088526725769, -0.08366508781909943, -0.09615522623062134, -0.07381518185138702, -0.05143728852272034, 0.07507365942001343, 0.040907055139541626, -0.0481715202331543, 0.08605392277240753, -0.0776541531085968, -0.10183599591255188, 0.027281269431114197, -0.06892511248588562, 0.03555980324745178, 0.1059044748544693, -0.05911317467689514, -0.0872264951467514, 0.04705001413822174, -0.11289338767528534, 0.11152221262454987, -0.05903202295303345, 0.06043247878551483, -0.0993964672088623, -0.0846085250377655, 0.013769328594207764, 0.0444256067276001, 0.09692439436912537, 0.10454198718070984, -0.007188946008682251, -0.016070902347564697, 0.02066272497177124, -0.029036372900009155, 0.0042551010847091675, -0.11838103830814362], [-0.1026134341955185, 0.08565780520439148, -0.07304458320140839, 0.09843568503856659, 0.01371796429157257, 0.030448108911514282, 0.11360970139503479, -0.06952378153800964, -0.019732236862182617, 0.022146180272102356, 0.042705222964286804, -0.1216517835855484, 0.04442732036113739, -0.07371574640274048, 0.016418755054473877, 0.08456870913505554, -0.012451902031898499, -0.00395435094833374, -0.00933942198753357, 0.10431031882762909, 0.07104118168354034, 0.021021157503128052, -0.07522690296173096, -0.06787961721420288, 0.09956935048103333, 0.08992758393287659, 0.07237625122070312, -0.0974646657705307, 0.09734909236431122, -0.01194898784160614, 0.09209463000297546, 0.10856868326663971, 0.013701379299163818, -0.0520147979259491, 0.11758135259151459, -0.0651400089263916, 0.08167684078216553, -0.11986126005649567, -0.03931410610675812, -0.10898183286190033, -0.05607202649116516, 0.05307738482952118, -0.08956600725650787, -0.10810050368309021, 0.08937941491603851, 0.06672756373882294, -0.0013668984174728394, -0.08812010288238525, -0.033117055892944336, -0.040472567081451416, 0.0771988034248352, -0.04088582098484039, -0.03600195050239563, -0.08860740065574646, -0.058873459696769714, 0.06768108904361725, 0.08053569495677948, 0.018160909414291382, -0.046899765729904175, 0.12006133794784546, 0.0246724933385849, -0.04824955761432648, -0.04332464933395386, -0.01749385893344879], [0.05926220118999481, 0.04572094976902008, 0.09062007069587708, -0.005632117390632629, 0.10338659584522247, -0.050773411989212036, -0.057569146156311035, -0.04616217315196991, -0.11727599799633026, -0.082055002450943, -0.11310935020446777, -0.007387205958366394, 0.0011784285306930542, -0.032442763447761536, -0.08542294800281525, 0.1134110689163208, -0.041417524218559265, 0.0595691055059433, 0.08705127239227295, -0.08216960728168488, -0.015627890825271606, 0.07224591076374054, 0.12116988003253937, -0.015770137310028076, 0.09057790040969849, -0.09810827672481537, -0.08121742308139801, 0.10279189050197601, -0.011834949254989624, 0.12349031865596771, 0.009089648723602295, -0.05183863639831543, 0.11871443688869476, 0.10931044816970825, 0.01160074770450592, -0.07577566802501678, -0.005412116646766663, -0.06011460721492767, 0.09108515083789825, 0.005790442228317261, 0.02631518244743347, 0.07580812275409698, 0.04140518605709076, -0.07803329825401306, 0.10384052991867065, 0.07679307460784912, -0.07716703414916992, 0.09451286494731903, 0.03546293079853058, -0.02460610866546631, -0.0893954187631607, -0.020740360021591187, -0.12255541980266571, 0.07134512066841125, 0.09053169190883636, -0.035987257957458496, 0.11588120460510254, -0.04628641903400421, 0.021406054496765137, -0.08711175620555878, -0.005284801125526428, 0.05052873492240906, 0.053841814398765564, -0.004191562533378601], [-0.06303279101848602, 0.08737318217754364, 0.08275823295116425, 0.020060062408447266, -0.05748449265956879, 0.026503190398216248, 0.0003342479467391968, 0.11420036852359772, 0.01852409541606903, 0.009641170501708984, 0.008544936776161194, 0.06650114059448242, -0.0015444755554199219, 0.10714304447174072, 0.06512373685836792, -0.09445337951183319, -1.430511474609375e-06, -0.10610085725784302, -0.09597606956958771, 0.02428664267063141, 0.02808983623981476, -0.010939031839370728, 0.11880780756473541, -0.06715147197246552, -0.05238571763038635, -0.020018205046653748, 0.0007578879594802856, -0.010587796568870544, 0.11254860460758209, -0.052793294191360474, -0.06538437306880951, 0.010743752121925354, 0.09388527274131775, 0.029669448733329773, 0.06734156608581543, 0.02419815957546234, 0.10653606057167053, 0.07507795095443726, 0.08944609761238098, -0.0168362557888031, -0.10348694026470184, -0.05929553508758545, 0.042583540081977844, 0.08769333362579346, -0.0488380491733551, 0.10342738032341003, 0.017965778708457947, 0.0004965066909790039, 0.00487305223941803, -0.0220840722322464, 0.11702357232570648, 0.005429372191429138, 0.07656361162662506, -0.10550172626972198, -0.06440262496471405, 0.01405458152294159, 0.09981246292591095, 0.05951091647148132, 0.023807436227798462, -0.12349894642829895, 0.002349942922592163, -0.08251270651817322, -0.10673399269580841, 0.017092928290367126], [-0.07908816635608673, 0.1134548932313919, -0.06794272363185883, 0.04028351604938507, 0.07337035238742828, -0.0971546471118927, 0.06397250294685364, -0.016737014055252075, 0.06477034091949463, 0.120966836810112, -0.05327068269252777, -0.05413798987865448, 0.09931865334510803, 0.01390005648136139, -0.012466594576835632, 0.09483353793621063, -0.06039300560951233, -0.006172016263008118, 0.08585947751998901, 0.0488513708114624, -0.08085185289382935, 0.03248956799507141, -0.09530459344387054, -0.0678841769695282, 0.08037647604942322, -0.03331403434276581, -0.06366963684558868, 0.008860290050506592, 0.030546292662620544, -0.0777021050453186, -0.08429542183876038, -0.1210586428642273, 0.03229793906211853, -0.08065368235111237, 0.009526044130325317, -0.02795727550983429, -0.08173249661922455, -0.03988735377788544, -0.09608624875545502, -0.06616660952568054, -0.0038964003324508667, -0.10686439275741577, -0.10962916910648346, 0.09363256394863129, 0.011762261390686035, -0.05528172850608826, -0.00415608286857605, 0.09269563853740692, -0.10428319871425629, -0.06627294421195984, -0.09039255976676941, -0.009087622165679932, -0.004301607608795166, -0.09741322696208954, 0.0867604911327362, -0.09598997235298157, 0.11670446395874023, -0.08604612946510315, -0.017130687832832336, 0.02337336540222168, -0.0555596798658371, 0.11495524644851685, -0.08617928624153137, -0.006928548216819763], [-0.09178262948989868, 0.03469882905483246, 0.10657338798046112, 0.11594825983047485, 0.014839217066764832, -0.0625806599855423, 0.12148062884807587, 0.009328797459602356, 0.08457212150096893, -0.06492717564105988, -0.05801166594028473, -0.10376666486263275, 0.11501574516296387, 0.02073553204536438, -0.08977366983890533, 0.01073610782623291, -0.05361314117908478, 0.006244555115699768, 0.041490375995635986, -0.06202934682369232, 0.021812424063682556, -0.07892270386219025, 0.02408696711063385, -0.12069204449653625, 0.019918933510780334, 0.12418989837169647, 0.11513908207416534, 0.04559764266014099, 0.09197868406772614, 0.12153223156929016, 0.035421162843704224, 0.04168976843357086, 0.016254261136054993, 0.11066621541976929, 0.10738007724285126, -0.05878254771232605, -0.005138695240020752, -0.06298039853572845, 0.04485379159450531, -0.12112396955490112, 0.0442335307598114, -0.03430604934692383, 0.04533150792121887, 0.03901328146457672, -0.06220234930515289, 0.06485132873058319, 0.05308125913143158, -0.10625509917736053, 0.12471899390220642, 0.10759414732456207, 0.07777278125286102, -0.01268748939037323, 0.04428596794605255, -0.0676269382238388, -0.0424748957157135, 0.058994829654693604, 0.05564600229263306, 0.04949815571308136, -0.11921721696853638, 0.103584885597229, -0.05221085250377655, 0.10817702114582062, 0.10299389064311981, 0.04633134603500366], [0.12453624606132507, 0.07177753746509552, 0.0733107179403305, -0.042446523904800415, 0.11593568325042725, 0.03276185691356659, 0.073854461312294, -0.028263479471206665, 0.09052760899066925, 0.11088776588439941, -0.09578141570091248, 0.10247552394866943, -0.08261120319366455, -0.08605916798114777, -0.1044607013463974, 0.0361199676990509, -0.0938534140586853, -0.0470542311668396, -0.06283572316169739, 0.033408164978027344, -0.1227201372385025, -0.057305172085762024, 0.0009144395589828491, 0.011225268244743347, -0.056453049182891846, 0.04478296637535095, -0.08246925473213196, -0.10586121678352356, -0.017770618200302124, -0.06758104264736176, 0.07879164814949036, -0.08543984591960907, -0.010494038462638855, 0.051919206976890564, -0.10946737229824066, 0.09676498174667358, -0.05679689347743988, -0.034014537930488586, -0.0764642208814621, -0.046579718589782715, -0.048198699951171875, -0.11123460531234741, 0.04271344840526581, -0.00040043890476226807, 0.1222788393497467, 0.08433453738689423, 0.10874176025390625, 0.03677833080291748, 0.06568239629268646, 0.11704809963703156, 0.10262994468212128, -0.09604986011981964, -0.02802860736846924, -0.12055811285972595, 0.004728853702545166, -0.04414871335029602, 0.10848957300186157, 0.01976315677165985, 0.001375734806060791, -0.09041905403137207, -0.09809136390686035, 0.019677981734275818, -0.062110260128974915, -0.05740655958652496], [0.08767931163311005, -0.06516483426094055, -0.05563810467720032, 0.09597595036029816, 0.04883734881877899, -0.07102593779563904, 0.03785604238510132, 0.06301717460155487, -0.11102508008480072, 0.02335090935230255, 0.028558745980262756, -0.0048683881759643555, 0.11985012888908386, -0.0826219916343689, 0.06776456534862518, -0.06640206277370453, -0.1070132851600647, 0.0851898193359375, -0.059965282678604126, 0.005875140428543091, 0.06573779881000519, -0.10433238744735718, -0.10699862241744995, 0.04255762696266174, 0.10899072885513306, -0.013226985931396484, 0.0880277156829834, 0.043925076723098755, 0.03566284477710724, -0.07969649136066437, 0.11896480619907379, 0.05725507438182831, 0.019327938556671143, 0.08841301500797272, -0.10740341246128082, 0.026935487985610962, -0.05884107947349548, -0.012693449854850769, 0.04095412790775299, 0.05536210536956787, 0.028675809502601624, -0.0967441201210022, -0.07822906970977783, 0.002182573080062866, -0.021648913621902466, -0.10462678968906403, 0.12314578890800476, 0.01572290062904358, -0.08881877362728119, 0.05482324957847595, 0.05431239306926727, -0.0613207072019577, 0.06268052756786346, -0.07754293084144592, 0.043310150504112244, 0.11873812973499298, 0.0825163722038269, 0.06171111762523651, -0.02543140947818756, 0.023466840386390686, 0.043620720505714417, 0.030530855059623718, -0.0253240168094635, 0.017440900206565857], [-0.05062888562679291, -0.07065838575363159, -0.11535453796386719, -0.10191360116004944, -0.07846440374851227, 0.11948627233505249, 0.02501438558101654, -0.1130775660276413, -0.06389611959457397, 0.02919742465019226, -0.03741328418254852, -0.03538253903388977, -0.04693935811519623, -0.03052997589111328, 0.014378398656845093, 0.007402271032333374, 0.08031024038791656, 0.07999292016029358, 0.10287393629550934, -0.003976389765739441, -0.055814966559410095, 0.00042654573917388916, -0.08277678489685059, 0.051140204071998596, -0.01508130133152008, -0.04003456234931946, -0.10597647726535797, 0.060239553451538086, 0.06977193057537079, 0.11402836441993713, -0.04428376257419586, 0.037663817405700684, 0.004711821675300598, -0.07962127029895782, -0.07814359664916992, 0.0640106201171875, -0.0717904269695282, 0.09102293848991394, 0.0436699241399765, 0.04268856346607208, 0.08232194185256958, 0.061177000403404236, 0.05391031503677368, 0.06485521793365479, -0.053045853972435, -0.06628517806529999, -0.022900179028511047, 0.06939603388309479, 0.08747841417789459, 0.09205149114131927, -0.03942959010601044, -0.01586058735847473, -0.08585250377655029, 0.07707452774047852, -0.08289086818695068, -0.05143606662750244, 0.10322068631649017, 0.0303766131401062, -0.05232894420623779, -0.08417147397994995, -0.08595925569534302, 0.10087820887565613, -0.1142505407333374, 0.10801616311073303], [0.09999565780162811, 0.007745280861854553, -0.010019361972808838, 0.09721525013446808, 0.05512209236621857, 0.11818890273571014, 0.10097654163837433, -0.08196994662284851, 0.07713992893695831, 0.06304122507572174, -0.08875153958797455, 0.060033977031707764, -0.06492650508880615, -0.07447400689125061, 0.0023320019245147705, -0.01536017656326294, -0.03361019492149353, -0.08197593688964844, 0.06837974488735199, 0.12463374435901642, -0.02769772708415985, -0.084221750497818, -0.006445527076721191, -0.10860127210617065, -0.10150697827339172, -0.041640281677246094, 0.07853810489177704, -0.09576426446437836, -0.019947916269302368, -0.06490877270698547, -0.11509865522384644, -0.028138846158981323, -0.007281377911567688, -0.021017611026763916, 0.091391921043396, 0.05007028579711914, 0.07782435417175293, 0.04896114766597748, 0.013114690780639648, 0.06784489750862122, -0.07974369823932648, 0.06369169056415558, 0.05953921377658844, -0.053050845861434937, -0.004290074110031128, -0.09455956518650055, -0.10938100516796112, -0.00013808906078338623, 0.022381916642189026, -0.026963219046592712, 0.03861875832080841, -0.09650027751922607, -0.06871029734611511, 0.08627444505691528, -0.12164650857448578, 0.019627675414085388, 0.09623406827449799, 0.09371091425418854, 0.04263980686664581, -0.11386258900165558, 0.016092121601104736, -0.043957293033599854, -0.03513871133327484, 0.09577405452728271], [-0.04248030483722687, -0.08952134847640991, -0.10034225881099701, 0.07892297208309174, 0.0060315728187561035, 0.12345811724662781, 0.02556292712688446, -0.11648984253406525, 0.03092595934867859, 0.11438050866127014, 0.0775287002325058, 0.037511199712753296, -0.0939130038022995, -0.0749543160200119, 0.08487679064273834, -0.08358223736286163, 0.028516680002212524, -0.01601538062095642, 0.04188507795333862, 0.008179008960723877, -0.0952087938785553, -0.0498259961605072, 0.10902389883995056, 0.014714464545249939, 0.06338188052177429, -0.06306284666061401, 0.09895507991313934, -0.02675798535346985, -0.04213297367095947, 0.02535681426525116, -0.04478916525840759, -0.05023118853569031, -0.01788690686225891, -0.007136300206184387, -0.07109421491622925, 0.04272669553756714, -0.12114779651165009, 0.07673290371894836, 0.11593295633792877, 0.02022285759449005, -0.029207289218902588, -0.11448760330677032, 0.058700308203697205, 0.10242253541946411, 0.10686568915843964, 0.011146262288093567, 0.04155769944190979, 0.11977618932723999, 0.018657416105270386, -0.060346201062202454, -0.11867853999137878, 0.05465136468410492, 0.04869292676448822, 0.11108554899692535, -0.06363816559314728, 0.053690388798713684, -0.04135678708553314, -0.031066879630088806, 0.07293581962585449, -0.11458474397659302, 0.09214214980602264, 0.05813731253147125, -0.07428991794586182, 0.06378693878650665], [-0.03144153952598572, 0.011249631643295288, -0.03345730900764465, -0.12238915264606476, -0.012945994734764099, 0.060989946126937866, -0.014543354511260986, -0.06155160069465637, 0.003960698843002319, 0.022810906171798706, -0.03487695753574371, -0.09693551063537598, -0.06701789796352386, -0.02037912607192993, 0.04501785337924957, 0.11115919053554535, 0.0023198574781417847, 0.04475526511669159, 0.07192139327526093, -0.054506465792655945, -0.04147711396217346, 0.08291323482990265, 0.08949851989746094, 0.029619857668876648, -0.09659780561923981, 0.07094830274581909, -0.10331188142299652, 0.06247779726982117, 0.014814287424087524, 0.04037684202194214, -0.12184348702430725, -0.04394690692424774, 0.05308707058429718, 0.096210777759552, -0.03578631579875946, 0.11146871745586395, -0.02789485454559326, -0.07539330422878265, -0.0541304349899292, 0.007778376340866089, -0.022216662764549255, 0.06050048768520355, -0.06917773187160492, -0.03555881977081299, -0.12387663125991821, 0.10203041136264801, -0.023520365357398987, -0.09853900969028473, -0.0060317665338516235, -0.0002281665802001953, 0.03471602499485016, -0.013720124959945679, 0.0786328911781311, -0.04312796890735626, -0.0374138206243515, -0.02968372404575348, 0.02231624722480774, 0.10015253722667694, -0.005751684308052063, 0.09617862105369568, 0.09819330275058746, -0.06508123874664307, -0.010740026831626892, -0.05900737643241882], [0.05199675261974335, -0.04394613206386566, 0.0381312370300293, 0.007468074560165405, -0.08205817639827728, -0.08403676748275757, -0.12209060788154602, -0.06992268562316895, 0.034919291734695435, 0.007615730166435242, 0.09401275217533112, -0.10991430282592773, -0.003652721643447876, -0.11208122968673706, 0.0007317066192626953, 0.04554207623004913, -0.11213041841983795, 0.11039406061172485, -0.038823872804641724, 0.11075451970100403, -0.020981386303901672, 0.0709143579006195, 0.11363457143306732, -0.04550918936729431, -0.030385836958885193, 0.06556618213653564, -0.10701636970043182, 0.07399100065231323, -0.07851415872573853, 0.11609542369842529, -0.08192066848278046, -0.05143892765045166, 0.09327317774295807, -0.05442334711551666, 0.10714390873908997, 0.08600243926048279, 0.11425143480300903, -0.12116025388240814, 0.001400977373123169, -0.0411141961812973, 0.029775455594062805, -0.09438139200210571, 0.05125674605369568, -0.005921721458435059, -0.05908608436584473, -0.11245045065879822, 0.06538352370262146, -0.045238152146339417, 0.0922345370054245, 0.022251799702644348, 0.03801754117012024, -0.018958047032356262, -0.017315492033958435, -0.04246370494365692, -0.1082376092672348, 0.07858704030513763, -0.07871761918067932, 0.07285469770431519, -0.04216031730175018, 0.07830862700939178, 0.10712777078151703, -0.07645076513290405, 0.10321569442749023, 0.003046557307243347], [-0.09549137949943542, 0.05102646350860596, 0.07077990472316742, 0.11018896102905273, -0.11899003386497498, 0.11287029087543488, 0.09476339817047119, 0.12297019362449646, 0.06812576949596405, -0.0607641339302063, 0.09482645988464355, 0.11423961818218231, -0.047796234488487244, -0.020432546734809875, 0.09781652688980103, 0.10062281787395477, 0.08257332444190979, 0.09576652944087982, -0.06423729658126831, -0.021564379334449768, -0.04993860423564911, 0.06496725976467133, 0.03115154802799225, -0.0965566337108612, -0.015701457858085632, -0.10193188488483429, -0.11763960123062134, 0.11395348608493805, -0.06287762522697449, 0.0557912141084671, -0.02783481776714325, -0.025312408804893494, -8.07344913482666e-05, 0.09749095141887665, -0.01729200780391693, 0.10343320667743683, 0.07313847541809082, 0.08575108647346497, -0.11336754262447357, -0.05844941735267639, -0.101840540766716, -0.026548579335212708, -0.025890246033668518, 0.025400474667549133, 0.11199633777141571, 0.05611313879489899, -0.08698220551013947, -0.07839292287826538, 0.09438818693161011, 0.012443006038665771, 0.03531309962272644, -0.06537941098213196, -0.01524364948272705, 0.03558811545372009, -0.08202816545963287, 0.0815826803445816, 0.06229300796985626, -0.07289652526378632, -0.05126011371612549, -0.029387623071670532, 0.019453272223472595, -0.04585249722003937, 0.11957764625549316, -0.12040115892887115], [-0.07064993679523468, -0.07587231695652008, 0.03379754722118378, 0.017738372087478638, -0.03561951220035553, 0.10668225586414337, -0.10790663957595825, 0.04405626654624939, -0.06878145039081573, -0.02846357226371765, -0.12037505209445953, -0.09331338107585907, -0.10605615377426147, 0.05453424155712128, -0.04693831503391266, 0.06538759171962738, -0.06774361431598663, -0.03097057342529297, 0.015130877494812012, 0.10474057495594025, -0.03368920087814331, 0.07246522605419159, 0.03448398411273956, 0.07602532207965851, 0.07896353304386139, 0.0507269948720932, -0.037693411111831665, -0.035083308815956116, 0.048662662506103516, 0.06813031435012817, -0.006671682000160217, 0.06265942752361298, -0.07520239055156708, 0.07045726478099823, -0.015339359641075134, -0.08602148294448853, -0.06073550879955292, -0.09546227753162384, 0.025214672088623047, -0.07413259148597717, -0.035795435309410095, -0.007831871509552002, -0.07627008855342865, 0.003209710121154785, -0.015864074230194092, 0.03959275782108307, 0.09030094742774963, -0.07545864582061768, 0.06834328174591064, -0.0026483535766601562, -0.07144436240196228, -0.05668923258781433, 0.0318172425031662, 0.026026681065559387, -0.004037529230117798, -0.06223069131374359, 0.0630369633436203, 0.01854635775089264, -0.12151637673377991, -0.022090837359428406, -0.03391405940055847, -0.05333869159221649, -0.06933721899986267, -0.10140779614448547], [0.1231129914522171, -0.11417682468891144, 0.11619716882705688, -0.0982629805803299, -0.03032718598842621, -0.05120833218097687, -0.06690624356269836, 0.044441938400268555, 0.07244934141635895, -0.08211271464824677, -0.05821870267391205, 0.06380337476730347, -0.015109509229660034, 0.030443623661994934, 0.06535659730434418, -0.04620395600795746, -0.06937174499034882, 0.046012118458747864, -0.04577438533306122, -0.0832051932811737, -0.06305195391178131, -0.05812063813209534, 0.12446479499340057, 0.02404041588306427, 0.05383408069610596, 0.01679059863090515, -0.08426827192306519, 0.09020474553108215, -0.01943109929561615, -0.03236636519432068, 0.101869598031044, -0.06367632746696472, 0.02538229525089264, -0.10633544623851776, 0.06405286490917206, 0.04965139925479889, -0.10278703272342682, 0.06976713240146637, 0.013756155967712402, -0.06454561650753021, 0.10657918453216553, 0.05368417501449585, 0.04392702877521515, -0.04642820358276367, -0.0685400515794754, -0.06725934147834778, 0.046962931752204895, 0.03367328643798828, -0.07481221854686737, 0.11374400556087494, 0.07282717525959015, -0.04772596061229706, 0.06467241048812866, -0.052987292408943176, 0.039228469133377075, 0.10404160618782043, -0.11056649684906006, -0.06215088069438934, -0.007064461708068848, 0.01864069700241089, -0.10279673337936401, -0.08223770558834076, -0.011972323060035706, -0.018022239208221436], [0.02696181833744049, 0.015883490443229675, 0.025642752647399902, 0.00828668475151062, 0.014367148280143738, -0.007214844226837158, 0.044890329241752625, 0.08531205356121063, -0.062381282448768616, -0.06475640833377838, 0.054864391684532166, -0.09039171040058136, 0.08123224973678589, 0.057747334241867065, 0.0180789977312088, -0.05426760017871857, 0.003748193383216858, -0.09883171319961548, -0.11246021091938019, 0.11771294474601746, -0.1121157854795456, -0.10371924936771393, -0.04855591058731079, 0.007019668817520142, 0.028629258275032043, -0.061597809195518494, -0.012129858136177063, -0.027913719415664673, 0.10459068417549133, 0.10849425196647644, 0.051376134157180786, -0.0007705092430114746, 0.09374168515205383, -0.10092304646968842, 0.05222715437412262, -0.07265722751617432, 0.09748269617557526, -0.11049847304821014, 0.046444088220596313, -0.10277293622493744, 0.07295602560043335, 0.022856205701828003, 0.10725484788417816, -0.09427717328071594, 0.0804511308670044, -0.08342042565345764, -0.0674731433391571, 0.04754459857940674, -0.021040409803390503, -0.09869164228439331, -0.10636413097381592, -0.032453134655952454, 0.03460974991321564, 0.10979433357715607, 0.09193208813667297, 0.002048581838607788, -0.07667423784732819, -0.11144424974918365, 0.1116751879453659, -0.06969308853149414, -0.021984055638313293, -0.10086436569690704, -0.08640137314796448, 0.02425442636013031], [-0.030902624130249023, 0.014314234256744385, -0.0009559690952301025, 0.006368562579154968, -0.02476806938648224, -0.0048337578773498535, 0.05433349311351776, 0.09131483733654022, 0.10565368831157684, -0.10198347270488739, -0.10566368699073792, -0.01868174970149994, -0.009535819292068481, 0.06899219751358032, 0.11766986548900604, 0.03209969401359558, -0.08878235518932343, -0.014148727059364319, 0.08084100484848022, 0.046119242906570435, -0.08840170502662659, 0.0072959959506988525, -0.12069566547870636, -0.050369903445243835, 0.08742542564868927, -0.05422297120094299, 0.07632023096084595, -0.10195928812026978, 0.11051304638385773, 0.05962568521499634, 0.08100123703479767, 0.03413662314414978, 0.008855834603309631, -0.061560675501823425, -0.06897410750389099, -0.08583992719650269, 0.10330565273761749, -0.04338495433330536, 0.00304529070854187, -0.11751335859298706, 0.03354848921298981, -0.04261079430580139, -0.09997855126857758, 0.015470370650291443, -0.1151517927646637, -0.012315690517425537, -0.1020803451538086, 0.07902544736862183, -0.0992705225944519, 0.02041567862033844, 0.06189323961734772, -0.09987670183181763, 0.0809205174446106, 0.10180169343948364, -0.07662461698055267, 0.010467112064361572, 0.03790539503097534, 0.10352562367916107, 0.0976586788892746, -0.10485148429870605, -0.10188338160514832, -0.11052727699279785, -0.0555926114320755, -0.025232166051864624], [-0.04485037922859192, 0.08236533403396606, -0.08614654839038849, -0.09976579248905182, -0.09771457314491272, -0.07378214597702026, 0.12243308126926422, 0.01578517258167267, -0.02188582718372345, -0.03673504292964935, -0.09574051201343536, -0.04241015017032623, 0.0658530443906784, 0.08448149263858795, 0.09015999734401703, 0.00889924168586731, -0.06814992427825928, -0.0737958550453186, 0.12148170173168182, -0.11282497644424438, 0.02959306538105011, -0.011802062392234802, 0.11605864763259888, 0.0732199102640152, -0.031579792499542236, -0.10371994972229004, 0.01642000675201416, -0.08743001520633698, -0.013183355331420898, 0.03129754960536957, 0.06104099750518799, -0.03380715847015381, -0.08437919616699219, -0.1064586490392685, -0.11839969456195831, 0.01567910611629486, -0.07607990503311157, 0.004533290863037109, -0.059219226241111755, -0.08459113538265228, 0.08428658545017242, 0.0707397311925888, 0.08776752650737762, 0.11990700662136078, -0.09044235944747925, -0.06653936207294464, -0.09410557150840759, 0.08393463492393494, 0.07365085184574127, 0.10132990777492523, -0.08746442198753357, -0.06703631579875946, 0.12185965478420258, -0.09925961494445801, -0.08325079083442688, 0.04601883888244629, -0.10926921665668488, -0.035341888666152954, 0.05311332643032074, 0.10240429639816284, -0.014183729887008667, -0.11061757802963257, 0.07076118886470795, 0.12461726367473602], [-0.09279727935791016, -0.005522400140762329, -0.09042209386825562, -0.06382741034030914, 0.04206579923629761, 0.058398351073265076, 0.0516890287399292, -0.11773553490638733, -0.03030332922935486, 0.05327415466308594, -0.011602699756622314, -0.03864404559135437, -0.0645691305398941, 0.11852219700813293, -0.10005725920200348, -0.0984647274017334, 0.09108930826187134, -0.0759255439043045, 0.0755351185798645, -0.06890524923801422, -0.016909703612327576, -0.060395747423172, 0.10327692329883575, 0.0866580456495285, 0.006006389856338501, 0.0029972046613693237, -0.04717424511909485, -0.06681510806083679, -0.0472811758518219, 0.040931493043899536, -0.022483423352241516, 0.08484724164009094, 0.017997413873672485, 0.0013798624277114868, -0.0776786208152771, 0.05042654275894165, -0.11562590301036835, 0.029205158352851868, 0.04485081136226654, 0.022621259093284607, 0.08797167241573334, 0.030000820755958557, -0.03452245891094208, -0.08746936917304993, -0.1160130649805069, 0.06308530271053314, 0.06804220378398895, -0.09534716606140137, 0.033465832471847534, -0.04596509039402008, 0.10528181493282318, -0.04308547079563141, 0.10346829891204834, 0.08841431140899658, 0.06913663446903229, 0.08542558550834656, 0.038985028862953186, 0.04237273335456848, -0.10626912117004395, -0.02853722870349884, -0.014169737696647644, 0.06065087020397186, -0.048437878489494324, 0.05727541446685791], [0.08487188816070557, 0.05389726161956787, 0.06433667242527008, -0.016660839319229126, 0.05987830460071564, -0.04286578297615051, 0.10828186571598053, -0.0032080262899398804, -0.0072914958000183105, -0.11005158722400665, 0.1156102865934372, -0.01748904585838318, 0.0931011289358139, -0.08177565038204193, -0.1045781821012497, -0.0200079083442688, -0.09995001554489136, 0.024019703269004822, 0.0016836822032928467, -0.045839086174964905, 0.07826660573482513, 0.08098267018795013, -0.11036880314350128, -0.10014007985591888, 0.07312789559364319, -0.075919970870018, 0.02412053942680359, -0.03329062461853027, 0.022352799773216248, -0.06897900998592377, 0.0003994405269622803, -0.044251322746276855, -0.056310296058654785, -0.061455145478248596, 0.027920633554458618, 0.0808841735124588, -0.0030804425477981567, -0.001220807433128357, 0.10313355922698975, 0.10076309740543365, -0.018146201968193054, -0.10235615074634552, 0.02933354675769806, 0.03732232749462128, -0.09891194105148315, -0.11213429272174835, 0.013111576437950134, 0.12206152081489563, -0.11180619895458221, -0.06124711036682129, -0.04310812056064606, -0.11041420698165894, -0.07696577906608582, 0.09811581671237946, 0.09560440480709076, -0.09196142852306366, 0.002679675817489624, -0.10180607438087463, 0.05191779136657715, -0.08537657558917999, -0.06370198726654053, -0.057938843965530396, 0.018425241112709045, 0.08352881669998169], [-0.052316486835479736, 0.02305598556995392, 0.09952765703201294, -0.007574126124382019, 0.012907132506370544, 0.009281828999519348, -0.0015968233346939087, 0.07504625618457794, 0.06763657927513123, -0.06694570183753967, 0.11935774981975555, 0.07192562520503998, -0.019558757543563843, 0.10882948338985443, 0.006722763180732727, 0.07898934185504913, -0.10613664984703064, 0.11220300197601318, 0.11783631145954132, -0.09340150654315948, -0.1118808388710022, -0.0363805890083313, -0.07685159146785736, 0.03339768946170807, 0.05564159154891968, -0.015927016735076904, 0.08771440386772156, 0.004736706614494324, -0.036738961935043335, -0.10669635236263275, 0.03972765803337097, -0.11777570843696594, -0.00042745471000671387, 0.018270820379257202, -0.07000602781772614, 0.037552520632743835, 0.02429884672164917, 0.0836528092622757, 0.0781809389591217, -0.10115951299667358, -0.0927477478981018, -0.045877933502197266, -0.08992494642734528, 0.03919222950935364, -0.08189871907234192, -0.09543435275554657, 0.03640773892402649, 0.07543978095054626, -0.036340296268463135, -0.12455706298351288, 0.01766642928123474, 0.06405799090862274, 0.09764644503593445, 0.011860251426696777, 0.08677862584590912, -0.1117672324180603, 0.11958476901054382, -0.08071698248386383, -0.08532176911830902, 0.08970917761325836, -0.02777649462223053, 0.07714186608791351, -0.08755302429199219, 0.09457175433635712], [0.1185494065284729, 0.03784945607185364, 0.10083675384521484, -0.08926577866077423, -0.027601614594459534, 0.038047343492507935, 0.07063625752925873, -0.06674481928348541, 0.07954181730747223, -0.04114006459712982, -0.06671938300132751, 0.024451613426208496, -0.09956346452236176, -0.11472481489181519, 0.041563019156455994, 0.04257650673389435, 0.048068612813949585, -0.01639232039451599, -0.09141692519187927, -0.1004171222448349, 0.11961233615875244, -0.10836626589298248, 0.037674129009246826, 0.10152256488800049, 0.09549693763256073, -0.07881303131580353, -0.04030482470989227, -0.09994159638881683, 0.0784086138010025, -0.11730490624904633, -0.11507336795330048, -0.08345015347003937, 0.10196232795715332, 0.08102340996265411, 0.08375568687915802, 0.09591090679168701, -0.058297619223594666, -0.06971091032028198, -0.07679188251495361, 0.04124478995800018, 0.048623234033584595, 0.025938257575035095, -0.09616491198539734, 0.011104077100753784, -0.06633010506629944, -0.024580880999565125, -0.019351139664649963, 0.006213456392288208, -0.10960239171981812, 0.10669983923435211, -0.053190186619758606, 0.03905650973320007, 0.08608049154281616, 0.050371214747428894, 0.08753995597362518, 0.07058538496494293, 0.09153018891811371, 0.026382282376289368, 0.07983735203742981, -0.05433426797389984, -0.06735557317733765, 0.05968816578388214, 0.03279811143875122, -0.004687473177909851], [-0.10543860495090485, 0.04084548354148865, 0.08096915483474731, -0.014431819319725037, 0.028717592358589172, 0.05564756691455841, -0.12344737350940704, -0.02056606113910675, -0.046370625495910645, -0.06388980150222778, 0.07640103995800018, 0.12393593788146973, 0.019944995641708374, 0.07779797911643982, -0.09273524582386017, 0.022021710872650146, -0.01616649329662323, -0.07709500193595886, 0.025630339980125427, 0.03979068994522095, -0.006037488579750061, 0.05308045446872711, 0.06001362204551697, 0.11338023841381073, 0.007246062159538269, 0.004453524947166443, -0.0017891377210617065, 0.01725040376186371, -0.08105228841304779, -0.015386149287223816, -0.10570405423641205, -0.08767864108085632, -0.10647347569465637, 0.09269993007183075, -0.07183749973773956, -0.010087698698043823, 0.01336359977722168, 0.11040207743644714, 0.056729987263679504, -0.08901664614677429, 0.12225945293903351, -0.11839832365512848, 0.016252219676971436, 0.11421315371990204, 0.10840649902820587, -0.028971776366233826, -0.08342020213603973, 0.054887592792510986, 0.0963577926158905, -0.06663747131824493, -0.019780173897743225, -0.07601901888847351, 0.04773591458797455, 0.026606261730194092, 0.06196169555187225, -0.04288725554943085, -0.12066379189491272, -0.05264115333557129, -0.09776034951210022, -0.030113697052001953, 0.04542757570743561, -0.1039915382862091, -0.0058347731828689575, -0.12229752540588379], [-0.08858117461204529, -0.08751733601093292, -0.04256066679954529, -0.06333473324775696, 0.019240528345108032, 0.07641303539276123, 0.09425346553325653, 0.03938467800617218, -0.0008271336555480957, -0.022275447845458984, 0.08487534523010254, -0.07159130275249481, 0.0903511494398117, -0.12035150825977325, -0.09329630434513092, 0.03315803408622742, -0.051483720541000366, 0.02332136034965515, 0.10891254246234894, 0.05709144473075867, 0.12234611809253693, -0.05294616520404816, -0.059691280126571655, -0.015871435403823853, -0.025174975395202637, -0.0549837201833725, -0.007760778069496155, 0.11292749643325806, -0.0685197114944458, 0.07019786536693573, 0.05806821584701538, 0.07238973677158356, 0.0337226539850235, -0.04617688059806824, 0.05158919095993042, -0.0588744580745697, -0.07672715187072754, 0.1168493777513504, 0.10361094772815704, -0.09033791720867157, 0.10153168439865112, 0.025919988751411438, 0.03204083442687988, 0.12048330903053284, -0.0065634846687316895, -0.03975602984428406, 0.07847195863723755, -0.03228923678398132, -0.030007705092430115, -0.05040690302848816, 0.12303610146045685, 0.059645071625709534, -0.020263880491256714, -0.0024937987327575684, 0.008748471736907959, -0.07409955561161041, 0.035490572452545166, -0.09701605141162872, -0.005828142166137695, -0.023454368114471436, -0.05103956162929535, 0.11561106145381927, 0.0350075364112854, 0.060216471552848816], [-0.08228199183940887, 0.019921675324440002, 0.03349690139293671, 0.06488986313343048, -0.036884695291519165, -0.02454701066017151, -0.10148642957210541, 0.07597211003303528, 0.08344459533691406, 0.058636054396629333, 0.06352698802947998, 0.07486872375011444, 0.11782558262348175, 0.04093611240386963, 0.045122936367988586, 0.039316847920417786, -0.07059009373188019, 0.03136222064495087, 0.03766147792339325, -0.0994940996170044, -0.036994487047195435, -0.07712431252002716, -0.07986988127231598, 0.08686769008636475, 0.09833578765392303, -0.017231643199920654, 0.03831334412097931, -0.029275551438331604, 0.026502296328544617, -0.020925864577293396, -0.06502680480480194, -0.0525919646024704, 0.12416402995586395, 0.02107056975364685, -0.0683569610118866, 0.014189571142196655, -0.12470681965351105, 0.001102641224861145, 0.09595666825771332, 0.014417782425880432, 0.02978251874446869, -0.11774612963199615, -0.023511096835136414, 0.07376047968864441, -0.0916503518819809, -0.05847609043121338, 0.08447569608688354, 0.035897329449653625, 0.058434173464775085, -0.11656463146209717, 0.0795561671257019, -0.027264073491096497, 0.026270732283592224, 0.1010376513004303, -0.11519499123096466, 0.03576399385929108, -0.11300288140773773, 0.09254232048988342, 0.03670394420623779, 0.013908684253692627, -0.0500764399766922, 0.04712940752506256, -0.06488180160522461, 0.023894697427749634], [0.10497292876243591, -0.09382526576519012, -0.035665541887283325, 0.02919599413871765, 0.02169729769229889, 0.0017189830541610718, 0.10753999650478363, -0.03248295187950134, 0.032244011759757996, 0.0662454217672348, -0.024236470460891724, 0.0816790908575058, 0.08163747191429138, 0.055662453174591064, -0.030495986342430115, 0.10857619345188141, -0.07222779095172882, 0.03863321244716644, 0.025098785758018494, 0.08822841942310333, -0.10245811939239502, 0.02179199457168579, -0.07198630273342133, 0.06625396013259888, 0.0429241806268692, -0.09723562002182007, -0.0078258216381073, 0.03496679663658142, 0.053248777985572815, 0.11120468378067017, 0.05613647401332855, 0.02383875846862793, 0.06667926907539368, -0.11828061938285828, 0.08334100246429443, -0.014696776866912842, 0.07074545323848724, 0.03579537570476532, -0.006591916084289551, 0.08798879384994507, -0.07286965847015381, 0.035250186920166016, 0.05479694902896881, -0.044485270977020264, 0.04528336226940155, -0.1236439049243927, -0.06313358247280121, 0.06077563762664795, 0.0644274652004242, -0.11473719775676727, 0.04325851798057556, 0.011753559112548828, 0.12201809883117676, -0.12192310392856598, -0.02979189157485962, -0.07079225778579712, -0.07605980336666107, -0.020415857434272766, -0.11488448083400726, 0.09793153405189514, -0.044225096702575684, 0.043799012899398804, -0.07355372607707977, 0.0006740093231201172], [-0.08855414390563965, 0.10061027109622955, 0.10542209446430206, 0.09841127693653107, -0.04375927150249481, 0.07779838144779205, -0.10443782806396484, 0.057355061173439026, -0.015429198741912842, -0.10358422994613647, -0.10031889379024506, -0.11697356402873993, 0.023423895239830017, -0.045210957527160645, -0.0575704425573349, 0.11900056898593903, -0.0380844920873642, 0.04216216504573822, -0.022005334496498108, 0.07538488507270813, 0.03730195760726929, 0.07915744185447693, 0.03263981640338898, -0.02739603817462921, 0.11047874391078949, -0.00891140103340149, -0.07483042776584625, 0.0388990193605423, -0.015168264508247375, -0.0927039086818695, 0.016351833939552307, -0.029043644666671753, -0.049778953194618225, -0.05965825915336609, -0.053195029497146606, -0.050620317459106445, 0.0122823566198349, 0.12075851857662201, -0.0732668936252594, -0.0583149790763855, -0.08379335701465607, -0.004743203520774841, 0.00876423716545105, -0.08579917252063751, 0.057096198201179504, -0.11210842430591583, 0.11569531261920929, 0.023523539304733276, -0.012598171830177307, -0.04475821554660797, 0.056124985218048096, 0.09127923846244812, -0.08176104724407196, -0.03133220970630646, 0.09201948344707489, -0.023425862193107605, -0.09204253554344177, -0.04017072916030884, 0.004317879676818848, -0.023335829377174377, -0.08566199243068695, -0.07831151783466339, 0.033798590302467346, 0.08576750755310059], [0.11371514201164246, -0.0141286700963974, 0.04809415340423584, -0.09927763044834137, 0.06660838425159454, 0.11944392323493958, 0.06509314477443695, -0.049422577023506165, 0.10191488265991211, -0.1183847039937973, -0.01499958336353302, -0.03097197413444519, -0.12468330562114716, -0.07130947709083557, -0.09107322990894318, 0.03359636664390564, -0.010397553443908691, 0.057409197092056274, -0.02811931073665619, 0.10310998558998108, 0.014158517122268677, 0.10361772775650024, 0.10150602459907532, -0.10600647330284119, -0.0839463621377945, 0.07529084384441376, 0.1180964857339859, -0.10668934881687164, 0.001829490065574646, -0.04805763065814972, 0.11768285930156708, 0.10384047031402588, 0.0909753292798996, 0.06726795434951782, -0.011725127696990967, 0.11534224450588226, -0.05849376320838928, 0.006178021430969238, -0.03288963437080383, -0.0911882221698761, -0.0592358261346817, 0.030307486653327942, -0.011152639985084534, -0.08280633389949799, -0.015891417860984802, 0.021588250994682312, -0.08745642006397247, 0.07549197971820831, -0.10627348721027374, 0.0011959224939346313, -0.10225287079811096, -0.11271931231021881, -0.015527695417404175, 0.11344689130783081, 0.11816790699958801, 0.044926077127456665, 0.09688736498355865, -0.06833109259605408, 0.07037411630153656, 0.07627065479755402, -0.11946249008178711, -0.09579141438007355, 0.05400276184082031, 0.011550754308700562], [-0.0846100002527237, -0.0986403375864029, 0.09034115076065063, 0.013655170798301697, -0.00027664005756378174, -0.12083937227725983, 0.1096741259098053, -0.08263248205184937, 0.05569843947887421, -0.015030428767204285, 0.004073217511177063, 0.061376288533210754, -0.03329865634441376, -0.035068243741989136, 0.09964798390865326, -0.09578502178192139, 0.05562607944011688, -0.032258838415145874, -0.0417664498090744, 0.08367714285850525, 0.021103128790855408, -0.11637687683105469, 0.11170288920402527, -0.062025368213653564, 0.10806068778038025, -0.039230525493621826, 0.12187987565994263, 0.036875203251838684, -0.006038486957550049, 0.04771663248538971, -0.0038871318101882935, -0.06199796497821808, 0.06837613880634308, 0.0810774713754654, -0.015659838914871216, 0.117577463388443, 0.007938235998153687, -0.06610681116580963, -0.06811866164207458, 0.08410364389419556, -0.0506359338760376, 0.0789509117603302, -0.12142419815063477, 0.0043058842420578, -0.08636820316314697, 0.04434041678905487, 0.10151530802249908, 0.04918898642063141, -0.042978331446647644, -0.11726383864879608, -0.05922502279281616, -0.07372710108757019, 0.1193646788597107, -0.06720788776874542, 0.04833167791366577, 0.10034573078155518, 0.04506473243236542, -0.10968820750713348, -0.014199480414390564, -0.03709976375102997, 0.08053901791572571, -0.011725500226020813, -0.006593063473701477, 0.11119639873504639], [0.029745250940322876, 0.05794431269168854, -0.040238648653030396, 0.08174674212932587, 0.017972633242607117, -0.025109171867370605, 0.024089157581329346, -0.09839309751987457, 0.004596248269081116, 0.057326629757881165, -0.1170482337474823, -0.06639750301837921, 0.07831518352031708, 0.0028347522020339966, -0.00425778329372406, 0.012756094336509705, -0.056102454662323, 0.10336534678936005, -0.01239408552646637, -0.045513734221458435, 0.06579871475696564, -0.10404348373413086, -0.02305668592453003, 0.012598544359207153, -0.03879280388355255, 0.06803180277347565, -0.10674989223480225, -0.03603670001029968, -0.052537232637405396, 0.11566664278507233, 0.049885645508766174, -0.09324535727500916, 0.04844558238983154, -0.0026508867740631104, 0.11442826688289642, 0.0689830631017685, -0.07300345599651337, 0.11142373085021973, -0.022356927394866943, -0.02846367657184601, 0.0373784601688385, 0.1241888552904129, 0.03771612048149109, -0.12060794234275818, -0.03990313410758972, 0.11639833450317383, -0.04405660927295685, -0.06013685464859009, -0.09963585436344147, -0.06900165975093842, -0.0683431476354599, 0.029853373765945435, 0.04994069039821625, 0.11929689347743988, 0.08203355967998505, 0.001846998929977417, 0.06741198897361755, 0.07144840061664581, -0.10781562328338623, 0.06307439506053925, -0.08550842106342316, 0.096527099609375, -0.05436791479587555, 0.025935977697372437], [-0.001330047845840454, 0.05799292027950287, 0.01944252848625183, -0.09067437052726746, 0.05063633620738983, 0.07373704016208649, -0.06509554386138916, -0.08108833432197571, -0.08511678874492645, -0.060819417238235474, -0.01575949788093567, 0.009346306324005127, -0.0008816421031951904, -0.03306114673614502, 0.07756978273391724, 0.006605923175811768, -0.07258157432079315, -0.03308124840259552, -0.07349185645580292, -0.04409833252429962, -0.11791308224201202, 0.02184128761291504, -0.09685459733009338, 0.04834568500518799, 0.08562996983528137, -0.0929909497499466, -0.06596642732620239, -0.09876707196235657, 0.033358827233314514, 0.0241868793964386, -0.06451845169067383, 0.07551009953022003, 0.05186834931373596, -0.11294230818748474, -0.006799370050430298, -0.05381116271018982, -0.021673768758773804, 0.06960059702396393, -0.013445034623146057, -0.08681420981884003, 0.08792932331562042, -0.11425571143627167, -0.04292912781238556, 0.048164188861846924, 0.11048613488674164, 0.12131781876087189, -0.02936503291130066, 0.04171207547187805, -0.10977892577648163, -0.024322539567947388, -0.0388820618391037, 0.03548422455787659, -0.08190031349658966, 0.027005910873413086, 0.06457936763763428, 0.097418412566185, -0.02113594114780426, 0.11420078575611115, -0.11810074746608734, -0.03542177379131317, 0.04738935828208923, 0.03205330669879913, 0.0588672012090683, -0.08294689655303955], [0.0769665539264679, -0.11731557548046112, -0.08570978045463562, -0.008501023054122925, -0.12143836915493011, -0.11881610751152039, -0.11096656322479248, 0.10049860179424286, 0.027419373393058777, -0.03988391160964966, -0.005137354135513306, -0.10895232856273651, -0.11805632710456848, -0.08717238903045654, -0.12092980742454529, 0.0822390764951706, -0.043741375207901, -0.03374302387237549, -0.10764320194721222, 0.020702630281448364, -0.018754273653030396, -0.08509846031665802, 0.08014507591724396, 0.10536371171474457, -0.08909742534160614, 0.07082253694534302, -0.020297110080718994, -0.0011801272630691528, 0.05320607125759125, -0.022789716720581055, 0.10620541870594025, 0.07690823078155518, -0.08114148676395416, -0.07607030868530273, -0.12385000288486481, 0.04002074897289276, -0.09402334690093994, -0.10477237403392792, -0.08012089133262634, -0.12358397245407104, -0.10178038477897644, 0.11149561405181885, 0.06982317566871643, 0.11075325310230255, -0.06063513457775116, -0.051268935203552246, -0.04385848343372345, 0.002441316843032837, -0.08972068130970001, 0.018325254321098328, -0.08011235296726227, 0.019752517342567444, 0.11449968814849854, 0.021112382411956787, 0.09118051826953888, -0.08902613818645477, -0.01764047145843506, -0.07718481123447418, -0.013868361711502075, -0.04972460865974426, -0.07097354531288147, -0.12074257433414459, -0.04634910821914673, 0.016739800572395325], [-0.021990060806274414, -0.11641813814640045, 0.09389729797840118, 0.09268586337566376, -0.07536265254020691, 0.012706905603408813, 0.08300112187862396, -0.11870603263378143, -0.11045001447200775, 0.06935817003250122, -0.0024757683277130127, 0.03980475664138794, -0.05198186635971069, 0.022663816809654236, 0.08290509879589081, -0.03058093786239624, -0.04037567973136902, -0.1190236359834671, -0.01928853988647461, 0.07920819520950317, -0.11813360452651978, -0.00965583324432373, 0.09111684560775757, -0.03567683696746826, -0.04618354141712189, -0.03770396113395691, -0.050644636154174805, 0.01496078073978424, -0.12035049498081207, 0.04776714742183685, -0.031569480895996094, -0.015914812684059143, -0.008433640003204346, 0.0698293149471283, -0.07764557003974915, -0.1137479692697525, -0.09041865170001984, -0.09169881045818329, -0.06085856258869171, 0.09872694313526154, -0.09670189023017883, -0.07347849011421204, -0.10190045833587646, -0.06279537081718445, -0.003509148955345154, -0.07622070610523224, 0.001321256160736084, 0.04224236309528351, -0.02126730978488922, 0.05393248796463013, 0.028683453798294067, 0.12075097858905792, -0.006381705403327942, 0.1083449125289917, 0.09356158971786499, 0.059756070375442505, 0.0707416981458664, -0.08371272683143616, -0.0837182104587555, 0.053380414843559265, 0.045387670397758484, 0.11280445754528046, -0.01627509295940399, -0.02297861874103546], [0.08569210767745972, 0.004036933183670044, 0.11735279858112335, -0.06375916302204132, -0.04101274907588959, 0.005401000380516052, 0.06666804850101471, -0.10958346724510193, -0.034989506006240845, 0.09077990055084229, 0.026027679443359375, 0.08837233483791351, -0.04234185814857483, -0.07879774272441864, -0.0853385180234909, -0.07027880847454071, -0.09393846988677979, 0.061946168541908264, 0.03359818458557129, -0.07997804880142212, 0.11457459628582001, 0.035587385296821594, 0.046519652009010315, -0.052669137716293335, 0.08654223382472992, -0.08817359805107117, 0.09111587703227997, -0.06792674958705902, 0.053092002868652344, -0.04522049427032471, 0.08120864629745483, -0.10483390092849731, -0.024372339248657227, -0.03373953700065613, -0.0747465044260025, -0.06139926612377167, -0.035075634717941284, 0.012961134314537048, 0.088725745677948, -0.020540907979011536, 0.12252508103847504, -0.05948376655578613, -0.06435185670852661, -0.006520330905914307, -0.022629186511039734, 0.039704084396362305, 0.11549825966358185, 0.042798757553100586, -0.10459618270397186, -0.04270733892917633, -0.02483305335044861, -0.11382456123828888, 0.03864853084087372, 0.10911321640014648, 0.0620817095041275, -0.002475172281265259, -0.009516417980194092, -0.05853670835494995, -0.013886690139770508, 0.10962961614131927, -0.06426529586315155, 0.019998207688331604, -0.09171518683433533, -0.03418271243572235], 